5875 64
35 -0.7891995 1.6003404 -5.171532 2.2478197 0.6580043 -1.2419131 2.124017 7.344357 1.7714596 -0.47133818 1.2353971 2.441277 0.91667604 -3.7026117 1.2355638 2.227576 6.040684 7.397728 -2.9820817 -1.4577053 2.337099 -5.175085 2.5837598 6.2227836 -7.1510406 1.3045745 3.5268357 -3.235816 2.184122 -2.711709 -4.6567564 2.3003922 1.4516387 -2.926767 0.48594293 -0.839567 -1.6715837 0.32925454 -4.2741346 1.8510582 -5.773273 -4.6242776 -6.5375657 -0.084808856 3.354094 0.15549642 -5.9853215 2.3466823 -4.44317 1.581184 0.42435107 0.9566943 -6.12135 -4.2374034 -2.2033424 -2.2626069 -0.535344 -1.5651993 -3.512123 9.582271 -5.2223697 -1.3300622 -4.7919836 -2.843546
2125 -1.2437919 5.6784854 3.5561256 -0.30317506 0.29138237 -9.769477 1.6776525 -5.769234 -3.8469975 0.2893576 5.158365 -1.3736523 -3.5333927 5.412475 4.6547847 2.2099845 -1.8076681 -1.8569849 2.6882277 -2.2232728 -0.07080912 4.926282 3.86228 -2.2994907 6.235427 -1.4786888 -3.829508 2.514597 -7.3982263 -1.6450356 -6.1436253 -1.4911193 -4.1586366 -1.0641873 0.90560144 -2.8661082 -0.23504347 0.54699296 6.0571594 0.34486926 6.7033873 7.9789705 2.5800507 1.3664675 -1.9409515 2.2357316 -4.944394 -4.737909 -3.0750124 1.8108643 -2.21123 6.070367 -2.678002 8.52947 6.096803 -3.1640186 -1.1361629 0.06393023 -0.054328285 7.441993 4.2347813 -1.2561734 -1.2477925 -6.0180993
2642 -3.295331 2.4407406 -3.7327962 5.3330827 1.197809 -2.9816952 3.8614323 4.675414 -5.925329 1.6916014 1.2809631 3.0228736 1.9660388 3.6405518 0.109716944 -4.625411 6.052364 1.9510356 4.977375 -2.406448 5.364033 -1.2958122 4.695652 -3.727842 3.490068 -3.1315305 2.5608904 3.482172 3.0724661 -4.563177 4.1448097 -0.65490335 -1.3191808 -5.9632926 1.6156236 1.3167335 3.1551774 5.2259803 -0.68271047 4.4783635 -3.147533 -2.9384143 4.026313 3.9642813 -0.04698925 -4.300514 8.376234 0.77855194 2.2948923 2.6578653 -3.5779035 7.059773 -0.6413571 -3.1133056 0.8380512 -7.674007 5.3468657 6.343594 3.1638043 2.792589 1.3051914 0.45335075 -5.9678707 -2.9804246
1810 -0.3695589 3.1180491 -1.5382458 -4.8131413 -2.6378694 -0.8964708 6.1428294 -5.870014 -9.2077265 2.8885295 7.326344 -5.676907 0.2803329 -1.31847 1.2370585 -0.73707753 -2.3055737 0.011153807 1.83715 4.94326 -0.26410383 5.4554467 0.6997464 -1.0031182 -1.99701 2.1280043 -3.0890212 1.687306 -12.420658 -1.6415098 1.650718 0.65865695 -3.1557977 -1.49514 2.6515455 4.8581753 -4.198167 4.000502 5.580922 0.49800637 0.6839508 0.7646041 5.771431 -3.4214165 -4.2175 -0.017146686 -0.561893 6.944832 2.7812324 -2.400976 -0.6269542 0.19915065 -1.7763193 -5.6248574 5.187799 2.1608326 6.1321645 -2.7121422 5.118037 5.3772416 1.163851 -0.9031341 -4.381243 0.0154725695
2028 -0.55186546 6.2364025 3.84912 -3.783907 -6.026978 -2.0709662 7.121693 -5.89359 3.8042028 -3.6142921 5.3047285 2.8972592 6.36922 4.4351525 4.157358 -6.8518496 -3.470873 2.720108 3.1793823 -3.4380424 -0.30260283 -0.58388215 1.2014107 -1.5620992 -1.77592 -2.6511438 -3.9324145 5.178885 -1.6543734 -3.1392858 0.78845966 -2.1392953 3.2949657 -0.153374 4.0667987 -1.911206 -7.0835953 4.5913925 -0.23250906 2.2890072 -3.7029188 -2.3923883 0.07906168 0.65349287 -8.294999 -0.14591819 -0.4841774 6.9437327 0.4507979 1.1106423 2.45373 4.3639145 -7.810158 -1.5806909 -0.18308213 -5.5768805 2.0218105 4.0860167 3.0437045 -4.4988313 -1.2630014 -5.9866867 -2.2196474 -2.2554095
905 3.1652699 6.858377 0.7921183 1.2672807 4.502293 -2.60589 1.5663084 1.8864827 -3.7922966 1.061258 3.3352337 -1.1580316 2.8794687 -0.5091586 -0.21587142 4.2530756 5.885586 -2.510598 -0.9167809 0.90152544 2.1485546 1.7810597 -4.2672296 1.1056057 -1.4547626 -4.4882145 -2.253414 4.916759 -1.06325 2.0655344 1.5371343 -0.31457224 -2.129926 -4.0998306 1.2342535 -2.294551 -4.804054 1.3806396 2.528418 -6.516649 -1.7265481 -2.5214698 7.5901623 -3.772897 -0.9496787 6.223748 -1.9816498 0.80380344 -4.036245 -3.6938634 1.5113053 7.833605 -1.8162748 -0.27546483 -0.9223563 2.7679758 -3.0250301 -1.6297246 -1.3311653 -7.4202485 3.7063384 0.17537344 0.72736335 -3.3264663
4172 -1.3218668 -4.452925 -4.5940385 8.510281 -1.8897624 3.5154066 0.7915117 -2.1574366 -6.0747747 -1.6035589 -3.0693824 -5.6464868 -0.4698754 -2.0732532 -7.107731 5.9906487 1.1892304 -3.923 0.38616368 -0.6561544 -1.727021 2.4717574 0.2586482 -3.350054 7.99748 2.7559032 -1.6023126 9.294425 4.6555634 0.017381402 -0.6372844 -6.691539 1.6493394 -0.07609455 5.4434175 -9.075053 2.5589983 1.6584913 0.33995667 -2.5292277 -2.974585 7.9473267 3.1720085 1.4848099 1.8870922 -3.058753 -2.499461 -3.925415 3.5543861 0.13521907 -1.3586242 5.8484273 2.921563 -3.110989 -0.3550834 -2.9114993 6.554431 -0.4604441 -7.4860444 3.5915458 0.67644 -6.523336 -1.7023067 1.2620965
1 3.1751091 -6.704631 4.855999 -1.3145589 0.49951336 0.37226143 0.2827156 5.544952 0.64186764 -3.6167972 2.0772421 2.9627671 3.0431702 1.1132433 0.6930781 -7.15365 -4.626257 -1.8088802 -1.6601243 -2.1661832 7.049163 -3.420375 -3.4820259 -1.7574438 5.8514147 9.636762 -2.1155457 0.8881185 1.8885794 2.629552 -5.7488704 0.43909404 4.3848867 1.2548195 -1.8691003 3.0843072 2.6696036 3.837303 -3.3108242 1.604737 4.640982 0.30513227 1.2961605 -2.0327718 -1.5277342 1.8647493 -0.9330109 3.4613678 -7.317356 -3.2650025 0.8132839 -3.928677 5.017105 -2.8322053 -1.4586425 3.0208824 -8.781073 -0.6355022 2.4711409 -4.7033896 0.15149504 2.5337598 -0.07718068 1.6403152
7 9.248021 -4.0172615 3.0596116 -3.9885225 1.6039246 -1.5533419 3.8870826 2.5547447 6.694452 -5.381468 -0.75002897 3.4180112 3.9066916 3.7145703 -0.9806254 -5.3399425 -3.1446202 -0.62923574 6.185988 -3.6183405 5.3229785 -4.8258977 -5.7373824 4.4378695 -1.0398337 3.9293983 2.5956764 -7.2370424 -0.8457534 7.3449244 -2.8726459 1.5737134 -3.3180773 6.263974 0.634778 -5.466782 2.450362 5.1395984 -4.7909155 0.48288855 -2.184376 4.6321864 -5.662444 3.7030504 -0.68090075 2.8875 -0.71226096 -3.526661 5.240844 -2.4862955 3.0884557 -7.275605 7.530816 2.2177536 3.8965344 1.2701777 -11.448539 -1.9030308 3.234539 -4.605774 0.9498662 5.057523 -3.0308723 -0.59662056
3129 -0.07500952 -3.95641 1.2694471 -6.6531487 -2.5820322 1.3641276 -1.0745889 -11.3641615 6.559146 0.3166872 -3.8227823 3.11574 0.74878305 1.0846469 -0.94263494 -0.0274103 2.1708922 2.7500315 2.3096144 7.4071755 -5.223542 -6.2118053 -3.8642325 -1.9168652 8.607365 -3.5516427 10.5787525 4.504016 8.087317 -1.3719184 -0.27047893 -6.4525604 -3.6062348 -3.6742613 -8.285381 -0.8517818 4.8591127 -4.8648443 -9.0880995 0.098775245 7.8236456 0.9554222 -6.281201 -2.2008247 3.6656368 -1.5963882 -0.03173169 -2.4485419 2.7337236 -0.40957123 -3.1529486 7.567167 -2.391707 -5.751112 -1.1424998 2.3493526 5.6573367 -4.1453533 -1.476651 2.8568807 -2.3878381 1.6986247 2.7572968 -2.216616
1018 1.107049 5.623044 1.8656813 -3.6811202 -2.3447497 0.49411595 -2.3388653 -10.925976 -4.7454295 1.5682393 -3.262518 -0.5925959 -0.13350524 2.5967557 3.111086 3.373657 4.1127105 -3.396031 5.262266 -5.3888493 1.3614562 -4.430485 1.3845822 -4.0070777 -5.2066097 4.4005737 1.1586409 1.9522356 -1.6986693 0.9669683 -0.98889744 0.55998594 -6.251092 -5.45591 5.7940526 -0.44040152 -0.3074687 2.9806075 0.46298602 2.8381107 5.625592 -1.2079494 5.4580507 4.716973 -0.84860194 -4.86695 5.9231167 2.1947865 -7.703483 -0.4054849 4.499769 1.5615183 1.2552735 -5.355002 2.2454894 -8.965493 -0.69208014 6.439931 0.5574608 5.509682 -2.3513496 -1.226241 -0.2590808 -4.9179826
13 -0.03314835 0.78384423 8.443974 2.719642 0.24858136 2.9639134 -6.453288 6.278732 0.5348597 1.5632457 -0.7099081 5.222757 5.7682457 1.1307219 5.2967496 -7.750583 5.3368077 2.1958566 3.049247 0.8950205 1.5604584 2.6505737 0.87853265 -3.1799924 -2.0778086 -2.4195495 -1.1941546 0.5658242 -3.264622 4.683498 -1.9844496 7.5622396 0.6728958 5.299995 -2.2841392 -5.5385623 -1.0772986 1.8502761 -7.4530187 -3.2232587 0.37721014 -0.505101 2.476805 0.54372984 -7.2142997 4.045693 4.6419406 1.3259777 0.39571616 2.3091183 0.9141839 -1.988282 0.7547959 -2.5267115 3.2520661 2.2196143 -4.4554234 -4.465178 -0.76202905 0.59784037 2.709898 -8.7086 -1.513957 -0.095842354
2388 -2.3798532 -6.1362267 4.959837 -0.58738595 -1.9187795 -7.266669 2.8583755 -0.68321186 -2.537083 2.0637426 -0.90011007 2.5515203 -4.2650476 2.4978216 2.6784916 3.1597452 -2.4750884 5.0535316 1.9705114 -0.7944809 0.23875116 -1.059792 1.8968155 -9.632092 -3.5616393 -5.5972486 -1.1267233 -5.8518863 -7.322124 -0.33795613 2.4512246 -6.646863 4.089694 0.8250881 -0.5287033 -6.6555037 0.061783876 0.7412062 -1.7633497 3.9708061 -2.9482892 -3.152109 7.187173 1.2790174 1.0562848 -4.698444 0.11897956 1.3864692 -3.586823 -4.9729843 7.7806807 1.9663817 -1.8644831 -2.2435284 1.8464959 -0.43585134 7.405539 -1.5959967 0.034884267 -0.1605651 3.9653578 2.2062368 -3.6545098 -7.3508406
4197 -4.209824 -0.94275284 -6.3578987 -1.3545761 4.528117 -0.108505934 0.6874766 -4.6860194 -1.1829723 6.339408 0.19792691 -2.044317 -6.219548 1.1884301 -0.027755558 6.7688527 6.298126 0.67413527 -7.4221663 -4.33583 10.646138 -1.6700624 -1.3212149 -1.728341 2.8306177 4.95392 6.4575815 4.565098 -2.798702 -8.868525 6.4896617 -0.4889222 -2.1644285 1.8685209 2.757983 -3.9435616 -2.626392 6.4283867 3.8664947 2.3384597 -1.9683772 2.0817237 4.0392995 2.4202743 -1.724244 -6.899945 -1.1007237 -3.2725306 4.517345 0.7988315 -0.16559185 5.688406 1.004318 -4.2420816 2.3026853 1.4099947 -1.1564972 3.6666348 6.109819 4.6490035 3.379433 -9.77644 1.2767088 -0.92552346
2296 -3.5777981 3.6183774 1.2476821 -3.3184702 -3.319438 -5.441038 4.775249 -1.7927026 -6.177477 3.989365 1.5855609 -6.371235 2.0998638 -3.9392676 -4.201819 -3.159094 3.058201 -1.3237467 -1.0884192 -5.000412 -1.3704017 -3.3480694 -0.6290435 -9.208473 2.1465878 -3.0196214 0.026681293 0.08626227 -5.4464045 -1.6726512 1.8359103 2.6177185 3.3230019 -4.0327 -2.157669 -0.86823964 0.25689745 0.8206337 7.80979 3.722268 1.7288101 -2.4226985 -6.033371 5.275716 -1.9783988 -6.9065447 -0.15291174 7.471211 1.591825 -3.7278361 1.7851841 4.0995708 -3.1763737 -2.1604257 -3.356254 -1.6090199 -0.36363477 3.2340918 -4.92041 -1.1179327 -1.7433342 -6.5807796 -4.393756 -8.290756
1953 0.29533088 -5.7674785 2.731632 3.95455 -10.027817 6.7556295 9.308277 2.749281 -1.406044 -2.2952602 -4.52226 -1.2809354 -3.7653396 6.999994 -1.8861246 3.1115034 2.4366045 -1.5663801 3.5040212 4.1402607 -7.226498 8.3021965 -4.1805425 -2.5111568 1.7343662 -5.8199463 -8.290661 7.0999236 8.540022 -2.8458452 -1.980841 -3.7428305 -1.2260095 5.004272 -3.6040976 -4.340929 -3.948847 -0.90636414 6.401529 3.4961355 -0.13354588 -1.083958 -4.929979 0.575008 1.4175646 -8.370279 4.54048 3.3891878 -5.9927053 -5.480259 1.7166014 5.5998483 2.556045 4.6736546 -6.1734166 -0.8276356 -2.8920968 -1.9300977 -0.69205904 3.9898288 -3.1446564 -1.7454662 1.8999373 6.8686233
1334 -0.43154198 -1.8169125 0.0044523664 -0.8200977 1.5499028 -5.252692 2.4638665 1.9419181 -4.7407603 -1.8940259 -4.8480415 3.2132647 10.885936 1.2004372 -4.9749346 1.0340871 0.32206464 0.82239485 8.437777 -4.132248 -3.3602145 -2.3786495 3.3294015 -0.19040178 -4.385059 -0.8739175 -2.5410764 1.615852 -2.5508893 -1.607275 5.362002 -2.7168233 1.263615 0.37785214 -5.7735085 4.1521435 -4.7435284 3.1619768 -0.518507 -2.288762 -0.07539097 2.2431977 3.6621864 -1.2947859 -1.7264192 0.41273394 -4.81006 -2.7122424 -1.3580011 -0.7315998 -0.20142241 1.2018428 -4.481599 -4.6659145 -0.9115561 -0.11173438 -2.9064543 0.025197187 0.03942181 1.4256399 9.058856 -3.242175 2.848661 3.6940444
2067 -9.38087 -3.9061313 -1.7766762 -0.7327125 -7.844811 -2.086843 -1.8753746 -8.609435 -2.773992 -6.8719077 2.916966 -4.644852 -2.0579252 -4.4674025 0.6775988 -1.5297729 0.9711869 -1.4954592 5.8588495 2.8520603 5.362346 5.7556067 6.229376 0.73454773 -0.013255185 -1.1344497 -1.2847303 2.1801195 -6.4127793 -1.3185618 -1.0928476 2.6952693 0.20365828 -1.4701891 2.507972 6.245587 -7.222282 1.133363 3.7989602 1.6857654 -0.6558569 -4.169154 0.009629132 -2.1310773 -2.0711777 5.7843556 -2.230805 6.4695106 1.602811 -6.2431664 2.717678 0.93470895 -1.5822885 -4.8300996 8.082423 6.128533 -3.143755 2.0201094 -0.33100453 -0.86698425 -1.578353 -3.5537088 1.6730605 6.561378
1386 0.9575715 -1.5928332 -1.622282 -8.702555 4.516102 4.8165765 8.442945 -2.3019564 -1.2571948 -7.0613976 -0.59442604 7.6539836 0.737976 2.5990071 -0.28759158 -0.026686262 4.194601 -2.9826708 3.5709393 -4.709535 1.6184771 4.0273113 -3.349314 -0.008015738 -5.65228 6.191983 -11.14019 0.2505078 -3.8823967 -1.5647345 2.8657012 9.134785 2.650782 -1.6875205 0.014647965 2.2835774 -2.8810387 -5.6135178 -3.4203637 -5.515235 1.0503732 -1.3579953 6.2667136 -3.3902698 5.459481 3.6942105 -3.8777645 1.9515114 3.6630177 -3.8817172 -1.3694556 -8.044611 -7.5494437 -2.8768036 4.6439037 -1.3628901 0.55054796 1.8458594 -1.4386808 -6.0817056 -1.2139025 1.0218513 0.32832465 -0.66102576
3988 -4.8375673 -4.771058 -4.375017 7.48491 -3.961463 -1.9462106 -2.0517418 0.56392837 -0.6931146 0.62522256 3.1542027 1.0724561 0.76589835 5.001961 1.8726014 2.8513894 2.4442005 2.4049487 -1.0276234 0.47890607 5.8470736 -2.630987 -6.974367 1.7269827 0.39498445 7.5544004 0.61488986 2.0594814 -2.2163954 2.1242356 -0.7625835 -8.909603 3.025599 -7.670466 -3.3179572 -6.3000903 -0.7525284 -1.9055183 7.5310555 -2.4406846 2.7398899 -5.102639 5.0656543 5.7281876 5.017185 2.9272394 -3.045055 -0.72378886 4.68929 -0.15207341 4.474364 -0.66167897 2.7119513 -6.899956 0.5331417 -1.252014 7.195684 -0.0624469 -3.603573 3.1530263 3.1926236 -8.757078 -1.7283926 0.11144811
2045 -2.248363 2.635508 -0.5170274 8.046086 0.055247597 -3.7408473 5.384559 -9.694816 -4.4273515 4.7867393 -3.14777 2.3772974 -1.9748043 -0.5245131 7.00495 1.1415348 5.7910905 3.0710828 -3.064739 -2.6911504 -0.46327108 1.0954844 0.36453438 0.5337091 3.1744924 -1.2913704 -4.567412 4.2735305 -5.9443064 -0.71784323 -0.40292042 -2.297215 8.050092 0.14522843 4.369079 -3.7671952 -2.3751433 -2.2424636 6.407742 6.489957 -1.4947268 4.6721177 4.695061 5.54287 -0.8953666 3.0829802 -2.5454772 0.22986285 -8.535862 -1.3083378 -0.10043875 0.07361193 3.212622 1.3876586 0.76262265 2.1844623 1.564101 -4.9821544 0.46822003 0.7015761 4.0630984 -3.7928271 -4.5180383 6.6924653
4291 -5.5838842 -1.0158576 -2.574052 -2.4885273 -0.3087726 2.277666 1.9558494 -4.117081 1.4058332 8.867499 3.674562 -0.28340778 -0.5589099 -6.7564654 -3.8334694 6.1959295 3.742603 2.479476 -0.53134984 -2.1295545 7.5145693 -0.9579919 -1.6590856 -0.8466982 0.18375888 2.1129794 -0.61149585 7.4048777 -3.604515 -1.0068654 1.0851976 0.1283739 3.2454882 3.5122633 2.5465465 -1.0058036 -2.725167 1.4683437 1.5513142 0.9661781 -0.97559077 -2.3471987 5.2581744 2.5734518 4.9882402 0.6632793 -1.2986673 -2.6306057 -0.6929581 -4.6900563 -1.9471824 3.3920155 6.1494718 5.4470825 0.30756533 -1.4168886 7.676762 8.607361 0.890295 3.7996485 6.2277584 -1.3715545 -6.314963 -4.681865
1396 -1.0792452 2.1137917 -3.5184374 -3.8089397 0.52821934 0.882656 3.0725996 1.6422356 -2.9495084 -6.4843674 -5.039062 7.972828 -0.8432912 -1.4283 1.981737 6.3986664 1.090024 0.029172467 2.6609616 -3.4087992 -1.5967876 2.4073763 5.177461 1.0153385 3.0671453 1.0596821 -2.7732387 7.045617 -2.8170633 9.567688 -3.1474504 4.8016996 0.373271 4.4799767 -1.5373151 -2.758759 2.111875 0.17908674 -0.69158036 -4.3778424 -3.7060773 -3.6605399 -4.9006014 -4.1247106 -4.9747105 -0.17151383 -2.5508437 -0.8568745 -1.1576116 -7.536379 5.137342 -5.3262024 -5.376075 -4.220393 3.2051294 1.0911968 -2.2798052 3.6562393 5.5049357 -3.0153196 3.093084 1.4426863 -4.4341373 0.92725676
1352 -1.5438573 2.5183947 7.9348345 4.6325617 -1.639089 5.8299904 -0.94985616 -4.7849936 -2.73744 -2.061949 -8.74381 5.127528 -7.995204 -1.7362715 -0.50257087 0.57166463 0.056763116 7.096168 -0.4867165 2.770693 7.364613 -6.6616015 -7.5842276 2.434924 1.5535898 4.403652 -4.6953106 4.180683 3.6023295 -1.0434333 -0.5630902 4.5115952 2.40685 2.5907147 0.14496487 4.327153 3.178891 -2.6363611 4.776316 0.46842217 1.4017936 -9.493134 2.9079196 -5.031311 -4.053274 -2.6508253 -2.0821347 -4.2118545 -5.6189966 0.3065876 4.9326615 -9.698693 -2.099317 1.9897064 -3.0815277 3.9730127 -0.8856722 1.9184768 1.6013201 -5.3711495 1.1483934 2.1729484 2.488971 -0.9332337
546 -8.127719 -1.0873967 3.7414877 -6.611849 4.150546 -0.068377085 -0.54551625 3.7117772 -0.3014844 1.167427 3.2828732 0.25624046 0.07218249 -8.345531 -0.81472415 3.49471 3.7428942 2.941117 7.131462 2.2516654 -3.2018652 0.70657545 -1.0712657 -5.523153 2.442906 -0.5303576 -5.3095345 -1.1747023 -1.0059991 -3.5751176 3.5983388 3.0872426 -1.7858452 -5.6262207 0.060499463 -3.2186477 3.7143002 -2.1782594 1.379362 -3.2563403 -7.3057613 -7.757976 1.7871042 8.061616 -4.8708057 4.7747145 -3.018189 0.52540016 -0.9909437 -3.75149 -0.8074953 1.7684113 0.5652061 4.7831197 1.8411068 -4.6344333 -8.165299 -0.06714071 2.3474138 0.09214122 -6.340777 -1.5020087 1.9806904 3.4830346
2266 5.9862986 -0.5894471 -0.8296953 -0.81178033 -1.5342652 -3.012634 -0.71137893 -1.9272602 -1.6698356 -1.85767 1.33079 1.3589222 -1.3985591 5.098452 -0.21435513 -2.2135808 -11.0118065 -5.3452096 9.8471155 -0.5412174 2.7686734 -4.0599585 5.6876526 -3.9541004 -6.107175 -2.2035453 -5.9692516 -1.0841529 -7.5991235 -6.3243046 -4.5333953 5.0846386 2.929541 2.1127653 -8.805603 5.803302 -3.9015977 -1.1274557 1.9295597 3.9534414 0.23372011 -2.4372966 -1.1448927 5.0294385 -6.913461 0.87325335 6.6657476 -1.1148008 2.604283 2.6352425 9.089371 1.0327415 0.8928914 -2.7994819 -7.109343 -0.7374346 0.61992335 -3.1703856 -6.742642 -6.248672 0.5158934 1.6341342 -4.5528717 -2.7277367
1899 -2.180589 6.1171584 3.325818 5.009277 0.38740262 -1.2487022 2.3888006 -1.9495702 1.4544812 -3.468947 2.7574666 -0.563179 2.5869808 3.4092798 4.217006 2.53092 3.846653 -8.677383 5.9432187 -2.052513 4.0538197 -6.1104865 -2.3137577 -5.38306 1.8500319 -5.729812 -2.2453892 -0.3604343 -7.0807023 0.93891764 -1.8936769 -1.4606185 -4.1201944 1.2380458 -4.6566377 5.0389347 -3.4950397 3.1686904 -5.967457 -3.6915977 -8.162309 -1.8479264 1.8928714 2.3061626 -5.927807 -2.6714787 -0.6368591 6.979859 -0.9701212 -6.479321 2.4745433 0.30725706 -5.7125773 5.6055045 -0.5851446 -0.5266117 0.0029730485 0.63717115 5.4694405 5.4251313 -6.0041394 -6.014643 -1.7844293 1.1273443
3735 -5.0573254 3.9367652 -2.227688 -0.0934031 -6.779755 -8.203792 -3.0774224 4.0369925 0.44249403 -1.1703259 4.499211 -6.195729 -4.8118696 1.1848514 3.9971821 3.9020689 9.141772 1.145679 7.1127305 1.0763526 6.961287 -4.698954 0.7155207 -0.77965546 2.174043 0.22754022 3.6511486 -1.0889735 8.639707 -4.446493 6.03605 -3.5186658 -4.116797 3.0062032 -1.9038206 -1.4081138 4.2894845 8.182069 -4.0951757 -3.2750247 6.2079415 4.866911 4.5386734 3.3714685 -3.0776968 -3.983771 2.2821655 -1.8649026 0.43692192 -3.362943 2.1586127 -1.695864 -5.533647 -3.2110744 -4.6311364 -4.0838995 6.548664 -1.877777 -5.051185 1.5266159 6.688196 -2.376081 3.142433 1.3592886
1565 -4.8256345 -0.54300344 4.119144 4.31535 3.1138651 1.9255177 5.9416575 -0.07469451 -10.682434 2.2273562 2.4484274 2.3873568 -0.20790316 3.9600952 4.9239373 -0.707602 2.6039987 -2.2730465 -0.1437439 3.0428243 -0.6636093 -1.1796517 1.2324922 4.2383585 0.26739666 2.7132528 -0.24109712 0.8490102 -6.869897 4.698146 -0.28880003 0.3651916 -2.035819 6.722305 0.724062 4.954514 -3.7109654 3.8059025 -1.1723342 0.993884 2.5498395 -5.267232 5.9971952 -0.048211638 4.259267 -0.6993584 -6.897121 -1.4666158 -1.6847225 -2.0222332 2.8809319 2.5365725 -3.1120605 6.771826 0.05144334 -3.0052176 1.1869779 -1.4622186 4.1255736 -6.3216977 3.8363202 -0.8963879 2.3920126 -1.6808952
2942 -4.7714405 4.9164667 -2.9633164 -1.9162647 0.35804528 -5.3708105 -6.0647693 -1.4325577 -7.393746 -3.3387654 2.8269687 -0.48242524 0.56513107 -0.76749873 0.48523983 2.5838623 5.8624573 2.2100089 -5.765374 -2.8629844 3.3069983 0.870505 -7.2203684 -2.6143565 -1.4491705 2.81976 0.8685875 2.5944762 2.423048 -2.721859 -0.79545105 -3.00836 -2.071345 5.9079714 3.24795 -4.696948 -0.1358549 -0.8374174 3.4234402 4.7223067 -8.025838 1.8759823 8.0918865 5.8449974 1.082913 -1.3887383 4.6481533 -0.8673914 7.989249 -6.7667713 -5.303667 7.1542616 4.7047777 0.40838894 -5.1169 0.22887963 -0.44582337 -0.8376873 -3.0065918 6.169648 3.5952904 -1.828595 -7.429173 -2.4287095
2625 -5.1238785 6.0430164 0.037857644 -2.234686 -1.9518164 -4.0055513 -2.8929584 -1.3914009 -4.4921465 -1.177464 3.5059159 4.2844915 -4.1135516 2.2919362 -0.25839078 4.655416 7.2603693 2.385135 3.6330278 -2.393051 2.2315369 2.4089627 5.3603168 -4.754809 2.985696 -2.709445 2.7285225 1.6096493 1.7267421 -1.6538669 11.359426 -6.9174614 4.261585 3.9518929 5.6901646 0.21743284 -5.867492 4.31207 4.328988 -1.2050353 5.0290413 -4.5296164 5.0264683 1.911851 -0.18177214 -3.206556 5.9031444 -4.897814 1.7756687 3.0429928 -2.7634928 -4.1048527 4.991726 -3.7139218 -2.9880753 -3.6949606 -0.76186264 -2.380748 0.22589438 7.5589676 -2.0947003 -2.2433965 -9.583129 -7.6197925
3897 -0.024330959 2.830694 -0.92559457 0.7996375 6.3101883 -8.490751 5.5724454 -4.77466 -4.3701715 2.5164065 6.078144 -2.8532038 -7.8543286 0.81078583 0.5827461 4.1752763 4.518539 -0.88318026 -4.468473 3.5913281 7.733543 1.475542 3.3056788 3.2064931 -0.5005039 -0.15779911 4.4626994 6.317957 -8.093454 1.5250304 3.357724 -10.173011 -3.2281468 3.587005 7.9553766 -3.1190023 0.7673036 0.5026496 3.209323 3.0187688 0.049002435 -4.4282665 6.3668737 10.0988245 1.378398 4.8947806 -7.012572 -1.647337 2.2859147 -3.0646718 -5.471686 10.350731 0.6549495 -1.7932502 -1.1771262 1.7256908 2.5392742 -1.0809827 -4.8403096 1.8334908 5.0668397 0.53152186 -1.2598041 2.3842258
202 5.3540077 -3.286511 1.2419147 -3.9740014 1.6314902 -6.5335007 5.2838516 -3.5554914 6.0219984 -3.9700284 -4.065706 2.8145416 1.5269886 -2.2905846 -5.600118 -11.355695 2.5908947 -4.0836706 3.3807354 -6.580443 8.893272 1.004548 -0.4436702 2.8859608 6.1571493 3.272702 4.3877683 -4.5916157 0.0795762 5.4010005 1.8070267 1.9853679 -9.312104 1.8920664 3.5092337 3.9856732 -2.5525796 -0.09764031 -1.5294064 2.9080582 -4.659816 5.360531 2.6065495 2.1150422 -0.8810734 1.5918813 1.2079229 2.1392522 -3.5167613 -0.2907711 7.899199 -4.338814 10.075062 -0.98603773 -5.1890445 0.2600406 -4.5014544 -2.3249898 6.744018 -1.2523781 -5.9479055 -1.1347116 6.5410504 -2.3923535
1317 -3.9519246 -0.7802678 8.8150015 -4.748338 7.0637875 -2.9826198 6.955377 -1.9620001 1.2583454 -0.45191053 -3.7486491 6.307738 2.416176 5.4802437 -2.6331842 -0.4498015 1.6306707 -3.846823 -0.3983252 0.42112762 7.0418086 -3.4663265 -2.5136697 2.0325458 -0.73038167 0.81951165 -8.177766 6.5943403 -0.7615411 2.168615 -5.4839153 7.060266 -2.5095153 4.9258914 -1.2001592 -3.8272493 -1.579459 -0.46704882 -1.8286408 -0.50924593 -0.8828548 5.086464 3.6982238 -6.0054893 -1.957643 9.725836 2.3910782 5.1860213 -1.7305886 2.045239 -3.5823317 -5.4689827 -9.879289 -5.2252703 -6.400771 -1.416716 -4.5888367 2.3499837 1.2980896 -2.8212411 -1.3850056 -0.37326506 -0.14637406 1.1058604
4559 -2.683753 6.0782948 3.3865833 3.8809714 -5.2264776 2.1207852 3.8728435 -1.2870041 -6.3686466 1.5616671 -7.7282863 7.6888027 -0.11330201 -5.937913 5.56941 -0.93600196 1.2641091 2.4666233 -8.597249 2.873209 8.314982 1.5983334 2.3534596 -3.6881926 5.0439754 6.0401783 -2.3627224 1.9332097 -4.4720435 -8.12647 -2.9369836 -9.77636 3.9843605 -5.2289934 2.6165743 -7.0487857 1.4097937 1.2237419 3.5309992 0.744567 1.0578092 0.16695166 5.8851395 0.072586395 -2.2468553 2.916804 -5.258009 -6.891076 0.6491968 -4.2520056 0.3665703 5.2630734 3.097027 5.314606 -1.7939835 1.9514085 1.090332 -2.2250848 -2.9316115 7.3904915 -0.47192803 5.083238 -2.7879944 -0.7708679
135 -0.43225557 3.938915 0.12079223 -1.3125055 3.2115827 -7.4313664 5.511092 5.358749 -1.6704406 -6.555925 -2.7519636 -0.9474081 2.9001179 0.40057722 -4.912059 -3.8359804 -1.4023305 2.6800244 2.029051 4.329983 -0.69789267 -2.7962081 -8.292738 -4.0012083 4.4258757 1.2759261 -1.4329883 5.077992 -5.2034388 7.170758 1.3697879 8.1391945 5.4477596 6.3356776 0.77976316 -0.05926506 1.246873 -2.8300602 -0.9205471 5.032716 1.9835218 -4.808539 3.0300062 -5.412619 4.3466687 1.1259385 1.7712301 4.316248 1.135969 -3.7831645 10.024151 -0.49866804 2.6374598 4.517181 3.4674098 3.9597576 -0.8099903 4.5204473 3.8485203 2.1637156 1.2464352 -2.4652543 -0.9269941 -0.0669516
304 1.391062 0.74809164 2.217354 -1.1574453 5.796633 -1.4585942 -2.1310987 -1.447864 1.8404226 5.435442 5.3262367 5.0029473 7.89865 3.7896307 -0.86647546 -2.791931 3.2975879 -4.622078 1.78854 1.9514635 4.6656547 1.5171953 0.1486596 -3.835064 1.2197207 -3.413096 -4.817596 5.067567 -4.6559567 2.9632819 -3.6399972 3.3167708 -4.718263 2.4981544 -0.8484042 -2.7569442 1.8259959 5.770671 7.5146437 4.4668555 0.44382533 -0.7811327 -2.9280736 -4.869193 2.291423 0.8677676 0.6173358 1.7914525 -1.482073 -3.8638911 3.6659482 -9.499861 -4.4172053 2.2266667 2.2086463 -7.8131223 1.7154362 -1.1931249 -0.3765715 -4.82977 -7.1915936 2.727419 5.310084 5.118454
3649 -2.6042485 2.9964185 2.4485362 6.315322 -3.6868408 -6.19499 -2.417442 1.4997241 -5.975122 3.2190175 -2.5639212 -2.2362432 -3.173694 3.1382504 -5.7879105 3.612269 7.4173846 6.6531725 -1.1600678 -4.0761843 -2.2221532 1.2459363 1.3109341 -2.0685818 -4.441054 2.7541962 -1.238757 1.1571797 4.3983326 -3.7506187 4.392695 -1.1496428 -3.5878305 7.6298375 3.4532664 0.6013116 4.5379667 1.6562322 2.7184699 2.00104 -2.8974848 -0.33077937 10.129097 2.7831876 -0.6414519 5.266939 -4.019842 5.1987414 5.9793863 2.3341353 -2.008393 6.9197984 6.4701858 -3.7722435 4.019735 3.1518993 2.244332 10.22525 -2.0302618 3.621122 1.2740241 -2.4750838 -4.6233106 -2.7527618
3451 -8.384893 -5.6486897 0.07415009 5.1206036 -2.4641178 -1.846248 -0.5835251 5.7252307 4.1082892 3.1569743 -0.10667282 -2.9671316 -3.0457551 -2.3622289 -2.313352 5.267462 8.534108 -1.9526515 3.7074301 -1.3189217 -5.155708 -2.529575 -2.6734624 -0.17084283 0.95700675 1.2108288 7.381047 6.8060155 -7.586238 -2.6165183 3.71857 -1.4008815 5.061138 0.5313111 2.353187 -4.8123074 0.07187391 9.903151 4.0630527 4.2465854 0.24294142 2.3667295 8.930696 2.634361 4.4183817 6.486009 1.9302968 -2.5410256 5.9111195 -3.3280365 -2.5903087 3.6588185 -1.6923815 -5.407777 -0.10316462 -0.9631831 -0.3889543 -1.5888082 1.66775 3.587094 -1.4371086 4.346342 -0.92629856 -2.4301188
25 1.6994078 0.36059433 6.2544265 -3.813575 -5.701736 2.3833723 -3.055221 -0.9560974 -4.208969 -8.23825 -1.9842796 8.341043 5.9772964 7.0846686 -0.58547086 2.0635588 -0.47308165 2.2362025 -2.0739532 -0.9840579 3.161411 -3.670259 4.3291793 1.2618642 -0.30325752 -1.362413 2.2025962 4.7290015 -0.94507635 2.0968866 3.0741804 7.749006 -0.9974917 2.4192479 -1.2577088 -6.06981 -0.98812634 8.740869 4.022566 0.012329576 -0.4411975 0.47164187 7.4405484 1.3657733 12.055719 -2.2388003 -3.1725538 3.8561952 -2.4102452 5.3048973 4.468005 -0.012913433 -1.8606069 -0.507592 -0.5042843 2.5175538 4.838104 0.66107327 2.3869824 -1.4205362 2.4296277 2.610569 -1.7997553 1.7248982
3828 -6.305978 -3.6574638 -1.3297722 -0.98264104 -4.592716 -2.1993325 -3.7518613 -0.019094758 -2.9241958 4.638282 3.9763675 -10.570364 -1.305769 3.5438268 0.41152868 -1.0591757 10.371586 -0.31465182 0.94546133 3.5413136 2.3823235 -2.0578997 5.292543 0.53164434 -4.3085485 1.0284861 5.8251395 2.9734366 2.9443204 -4.1501274 7.6213055 -4.796731 5.8563666 0.86216617 2.420869 -3.6060352 1.9682401 -4.0697107 6.1473536 -0.19040512 -3.42484 4.699033 8.403117 1.1657559 6.5553265 -0.041191727 3.0048177 -6.947494 -1.6903785 -0.10339494 2.1378605 -0.50092167 1.949148 5.7183714 -2.93961 1.0274775 1.4666642 2.6114926 4.6213975 3.6775615 2.2666576 -6.570475 -1.4020433 -4.179232
1383 -2.0301743 2.854013 4.2050605 -5.3114934 6.2096453 5.872506 4.063266 0.62291414 -1.2741196 -6.4452314 0.03332565 6.328114 -0.49169782 3.6870244 0.3912587 -2.9189675 6.2724814 2.6591704 -2.0613163 -2.6267953 -0.12204016 -2.133823 0.9485153 5.1458945 0.8972764 -0.7994622 -12.847455 -0.6162788 -1.6106658 -0.44498733 -7.2209754 1.7066118 -4.4760575 -3.7932594 -0.3666279 -0.3784994 -1.1401745 2.371842 1.150138 -5.398436 3.837008 1.9264054 -3.9825318 -7.1025734 6.0817413 -3.9475696 -2.0472167 0.99124163 -1.5098997 -1.0771407 -0.16563876 -8.078475 0.6281963 -4.409817 -0.97910494 2.7781386 -3.097082 8.220747 0.8267631 -6.637666 5.2183495 -1.6194644 2.098431 -2.9447534
1832 -11.69419 0.3997547 3.459162 6.227884 -3.7246673 -1.467604 -1.2384095 -0.6083444 -1.4804075 3.6129832 1.4074571 2.7826273 -0.0033586884 -0.34741518 3.2332065 4.6781397 -0.6561664 -4.1714606 9.461499 -3.0738013 2.2703824 0.07825333 -0.56476223 -2.8412895 -1.6627691 2.8146224 2.4594178 3.95257 -4.4680343 -2.7462878 4.6324897 -1.2393013 -7.13364 -1.390175 2.5615985 -0.9737542 -1.5995841 -1.097999 -1.4688426 4.1564107 -2.5770059 -2.8999798 -2.4767635 -4.1860514 -1.2257262 1.9448849 -2.732243 -0.55654734 -2.867174 4.0241942 -1.636584 1.7398161 1.8769326 -2.372161 2.323309 -1.7677594 0.6130342 -4.5725975 -0.59965533 -3.0941737 5.565719 -2.7085626 -5.8742743 -3.166822
1566 -3.209299 3.2330024 5.202642 -1.8772843 3.4480102 7.5272145 3.9872262 -0.7748137 -2.9744515 -8.914293 2.185973 7.540795 -1.6206208 -8.208215 -6.7431445 0.7992784 6.3903475 -2.3694394 2.474501 3.7885156 2.3732505 -0.571922 1.9538096 7.5007257 -1.8952711 1.4842682 -9.571853 -3.2291226 -3.9476018 2.4635327 -0.21841373 -2.6198406 0.22230764 0.52061534 -1.5669298 -2.4958098 -5.674213 0.5457676 -9.063739 1.8967806 -1.162157 1.6452277 5.4744024 -1.2723218 7.141624 -0.81238943 -3.1769102 5.105019 3.0586944 6.2261796 1.4838818 -7.829929 -2.968375 -2.699064 -4.678434 -3.4725034 -6.1482296 0.9568157 5.0475173 -8.068371 -2.1426988 -2.8201478 -3.2936523 -1.5041751
41 2.1557016 -0.38461962 -2.3147705 -3.9485056 4.932622 3.8781724 -1.9841565 -1.3266635 0.6504861 1.0377268 -4.1157055 2.4730294 0.8186251 4.855667 -3.3790302 -7.215895 0.61498624 -7.1259127 -4.4290166 5.2072525 3.6908474 2.6892788 1.3238877 1.0212659 -1.1308024 4.6303163 -2.2958827 -2.2627974 2.8699894 6.162242 8.628925 2.560973 -2.5389385 0.84050465 2.5009093 1.3161596 6.952676 4.317517 -5.9424677 1.3730361 -3.0506625 1.8154819 -5.783868 0.8372165 -0.60918796 3.0149384 -1.1224127 -3.339918 -2.2231247 -8.477197 3.8351483 -3.5457687 -1.2655008 -4.660769 0.09740213 -3.5061948 -7.4333673 6.0352244 2.8763633 -4.7589684 -0.47348732 -0.4257791 -7.6826167 -10.307862
3744 -0.8549659 -1.7041804 4.4826536 3.0932837 4.8596115 -0.4735006 0.3269063 -3.7078786 -2.0014265 -6.1739454 1.6736151 -1.9483488 -1.1641936 -0.41658714 8.726876 -0.76742506 1.2298261 1.5363601 3.3669412 -2.2138402 1.5159829 -2.8413458 -0.04266411 -0.14852083 -0.59222484 -5.8461986 -4.1302137 -3.4698713 -3.4231923 5.255669 -1.6548874 -1.9003067 0.7849424 -3.0091631 3.4057312 0.4518515 -5.2197785 -3.3975115 -0.8525829 1.2893069 3.6081367 -0.42198586 -7.021238 -1.3030266 -3.1254594 3.8687258 3.2832437 0.092956044 3.9964223 -3.5280485 -2.2403634 4.991309 2.3185256 -6.0587916 0.45072457 -1.1555097 4.1481 7.5685387 6.065925 -0.22314236 7.312747 -0.6069484 11.621993 1.479448
257 8.226497 -4.8238764 4.5911903 -10.263004 -2.4670904 3.4248698 -2.5263805 9.451315 6.2910604 -7.517106 -7.9455967 -0.60164857 -3.29958 4.0078053 2.1480072 -8.951391 -2.6744146 -11.638753 -2.8848877 -4.2482753 -1.2121731 -4.3116527 -3.979499 10.67767 5.109744 4.910463 6.8071313 -2.5672657 -4.699372 1.1424123 3.5877209 0.5732859 -8.581962 0.91719055 -1.051643 0.49682072 -1.4861612 -1.8924319 3.2686834 2.0448337 -4.2113194 1.9208782 -1.4050521 -5.8555765 1.9560691 3.2046046 0.65946215 -2.9986758 1.0687144 -1.2101704 3.2861283 -2.5910974 7.357041 1.7049689 2.70039 -7.330989 -4.26969 -3.0029247 4.7716765 -5.7751536 0.22548515 -1.8084209 -4.244663 5.4329963
832 7.9958315 4.8397436 2.7761986 -5.8342094 -1.8955368 6.038216 -2.398033 8.455837 -1.0024782 -2.1028712 -1.3692584 4.5979385 3.1880043 -0.94128513 -2.265042 -2.359953 -2.588925 -2.953209 1.7573804 1.3961115 0.8506027 -0.82344556 2.3967009 -3.0919862 -2.2817633 -8.247746 4.9396243 1.4525642 -0.7451078 -0.60000104 -5.0106344 3.1533806 -2.484564 1.2025222 6.4941463 3.0931427 5.1623387 -14.6247225 -1.1074866 -10.114295 -4.3537517 3.2233691 -1.5453881 5.052892 -1.6528105 7.611534 2.6532738 5.4154987 -3.9337037 4.404594 0.258326 -13.35355 6.943613 3.6383417 2.0351346 5.117341 -0.3778963 3.9390178 -0.56556886 -8.102355 1.5539297 7.0495105 0.65916187 -0.48017046
3722 -7.990284 1.4669423 5.290211 9.508815 -1.138151 -1.7391202 1.802099 -6.448047 -1.4956279 2.064238 -1.6851524 -1.0682973 2.105226 2.2352047 -1.9839272 2.373481 -5.0492444 11.053489 1.2064285 -3.7542129 1.1525407 -5.8469205 -2.8042119 5.9159503 6.580903 3.4387853 -4.1638064 3.1143575 -0.6917454 1.8494285 2.547798 -1.623481 7.5375905 0.9083814 4.4764957 1.8129996 8.020114 -1.3896066 6.954316 -0.5878346 -2.1197574 -6.0174856 3.5414536 -2.7968972 -0.4977141 -6.482278 0.22832502 -10.8892 0.25858435 -2.2807107 3.969277 -5.7749863 0.95186955 -1.2081602 -3.9980826 7.12423 3.2578173 5.1385717 2.5185893 0.81381667 0.36381412 2.1758027 3.6822596 -0.3654649
2934 -8.579723 0.04499691 -3.0696187 5.2891984 -4.8673573 0.7668926 3.2936199 -3.9352028 -1.6491876 5.6374345 3.5062294 -7.855063 -1.202926 1.242879 5.586932 -5.1854362 0.9465787 -1.939998 3.2551272 2.932739 1.7834234 0.21177354 -4.1532736 -7.8942237 -8.114717 3.0678675 0.17765342 0.76915723 -13.870701 7.7670355 0.16204725 -4.196951 3.6967335 -0.9196219 3.1455295 -3.2617805 -5.350643 -3.3601093 4.8200636 -1.4701948 1.8103937 3.6659453 1.0403832 2.1349041 0.6247356 -2.9014776 -3.8523571 -2.8707714 -4.9841294 0.6604637 -3.307438 8.535627 -2.657667 -3.8402007 -2.2217424 3.5479357 4.3272333 2.8496048 0.8717799 -1.745892 3.2959673 8.972195 0.68771327 1.9522891
2635 0.6141564 -3.8423672 -2.889228 0.34255835 -11.149599 7.181643 0.73003745 0.05468188 7.1473246 -2.1860201 -1.9793172 -2.7721374 6.3819966 7.509931 -1.8679026 2.1973038 -2.2696893 2.389879 3.7619262 2.3964503 -15.757492 7.7328987 -0.1527493 -2.0946627 2.5061183 -7.9542727 -0.74394417 3.1514955 6.9687214 0.40190175 -1.6897653 -0.31790417 -4.3553443 -0.24447559 -0.98146325 -1.0941268 1.1083047 -0.40151945 0.37123546 4.091002 -3.7737718 -4.815744 -4.0155315 -4.5101085 2.2976344 -4.1453857 -3.6021028 -0.87917626 -4.800998 -5.26977 -7.8068895 8.510633 10.366973 3.860498 -6.8932514 2.5438411 6.7467017 -1.0944157 -0.9547354 -1.6807684 -11.484205 -1.1101208 1.2419673 0.71640116
1731 -4.427272 -1.9771826 0.3924577 -0.34472004 -3.9163265 0.12773822 -0.3623974 -2.5369332 -3.296314 4.737675 1.5937161 2.9336164 3.097201 2.3605328 -0.80256814 -4.0569935 -2.4485962 -7.3879404 3.8239584 -2.614242 1.888967 1.5428182 1.3685646 -3.9202778 -0.53126866 2.7023554 4.779024 6.311959 3.4072838 2.8164618 -2.8253014 -2.0932348 -6.677551 4.4139757 -2.1809547 0.50253963 -8.298211 -1.054723 -1.7933642 3.7333558 -2.647795 -3.5526044 8.000913 3.3062396 4.040054 -2.326077 -7.70459 2.9231837 -2.6762815 -3.1047173 -4.6034627 -4.4650817 -8.015866 1.3730872 2.959533 2.1267893 -2.739962 -0.30273813 0.03363681 0.50976187 5.9647565 -4.7119894 3.5688164 -5.900494
353 -4.661267 1.1504714 -0.39302447 -2.2038453 3.1418946 -3.641108 -5.4867067 2.8890383 -1.1533799 2.6311817 -6.1009727 -1.1639793 6.3078175 -1.5831611 0.8513536 -3.6086388 -2.5295513 0.94011056 0.07140921 0.8455778 5.3302975 7.065269 2.408924 2.1402645 -1.222086 6.492378 -2.770342 -3.6902251 0.29815128 -0.5630159 -4.2428875 5.0735974 0.65398186 -6.0994325 -0.17236745 -3.5857835 1.8050126 2.5277946 -1.4620239 -1.1131504 -8.710542 3.762847 1.4405696 -1.959503 6.778033 1.7177773 2.331723 5.8493924 1.0843053 -2.9800398 4.9686465 -0.086528555 1.6882968 4.652241 -3.5955956 -2.3689723 -2.732176 -8.449607 3.0242386 -6.438143 2.5367348 -2.189867 0.28012943 -3.6835523
1585 -3.4269204 4.833476 1.6846838 -2.9947066 0.13607429 -0.014682501 1.7409282 -3.0847557 -11.897878 0.9550449 2.5557382 6.087254 2.2965121 -0.23787794 -7.3443303 -0.36458582 2.474107 1.3554229 0.3704106 -2.1253817 -0.3809258 1.0770304 -3.9646356 -1.6786001 1.2795819 3.1591387 -7.5841928 2.8476644 -3.093123 0.11873174 -2.4588118 4.2183 -4.093681 -3.9582367 -6.1306934 -2.5040367 -4.7413883 6.7369595 -4.7045884 2.1207075 -0.9488824 -3.900186 -4.5292196 1.1575093 0.055524543 6.391977 2.0921261 -1.8669358 -3.4054444 -2.8896182 -1.3707808 -4.9394126 -6.527651 0.40493736 0.45052826 0.9952334 -2.6212351 -1.8358427 9.648147 -9.0496855 1.0172477 -0.3969055 6.4367495 -4.176731
1615 3.6907966 -6.3929048 5.9582844 -1.9295155 6.6142316 -2.085155 -2.7561116 -0.8561221 -7.499358 -6.397617 -2.0304232 3.8326886 5.7905593 -2.6610222 1.6816568 6.937621 4.4490895 2.4009657 -1.5857731 0.10746604 3.026765 1.7327363 -5.4566264 4.5635114 -1.7518221 1.4066586 -0.85293746 -4.4741 -4.915487 1.5076821 3.1895013 0.20976873 2.5602849 5.1433306 -12.673782 -5.051135 1.6355294 -5.018592 -3.3898222 1.5285829 -0.23646599 3.5801382 -6.6354756 -3.4975283 0.21092755 1.0953327 -8.456703 -0.43012348 -2.7431345 6.4624825 -2.115015 -2.9299636 -7.711075 0.033226997 -8.570419 0.8556169 1.1536956 2.0824082 4.309764 -2.1421025 -10.217441 3.7283123 -5.6063967 1.4538213
4694 3.524016 3.2363923 1.5756879 0.34269577 3.250973 -1.7372473 -2.7349403 -5.4165645 -4.7534556 1.4583514 1.5155871 -7.430263 -5.560575 1.8914795 -7.8936105 4.947547 -0.5571097 0.6113194 -1.9542682 -0.8716625 3.8908606 -1.6969291 -1.3866326 -1.7484211 -4.1290126 0.48859173 3.5117183 3.9543114 -10.489321 -7.8063297 1.6781629 -7.7748814 -2.642586 -0.67285573 -4.6673536 -2.5902128 1.1860466 -4.2355037 -1.086946 1.6670256 -0.8321166 -8.396131 10.990857 0.8933437 1.5278527 1.4812834 -1.9223627 -0.9803683 -4.1957912 -0.76459694 -7.542721 6.252681 6.9953966 -3.9055378 3.1874547 0.27794412 -0.2260779 3.2580702 1.8620344 3.8381763 6.559428 -5.7471256 -7.8158813 -2.0054653
64 9.747752 1.1282471 5.232433 -8.060313 -0.78635055 -0.26346725 -6.044366 2.1310468 8.464038 -0.8787743 -3.8649328 0.21119933 -0.6699429 0.4226176 -6.8416023 -7.2929635 4.066168 3.3592136 4.844555 -3.5374951 0.4781388 4.012937 0.77824134 2.2218683 5.9876723 4.091112 4.4277163 -7.393737 4.432394 -0.88145775 2.8917737 3.8133633 -1.1490234 0.31540418 -2.850796 -2.4200459 7.0436754 2.7814534 -0.91375923 -4.809077 -5.723222 6.068803 -0.8658892 -0.3696573 -5.425735 5.078354 -0.4015199 7.99455 -1.3348911 -4.3716683 -2.3038232 -7.096252 0.25306082 2.1258798 3.2856848 -0.32598907 -3.3572676 -1.7871308 4.1965375 -3.9520717 6.2001867 10.705004 5.538705 0.64725345
1217 0.002991419 -0.8591387 3.1884842 -1.7143611 6.978744 5.854641 2.8371286 -1.0921013 1.3258141 -1.6101903 6.6347075 0.625801 7.928699 -2.5033782 5.1458797 0.341439 -2.9489164 2.1245553 -0.85180056 -0.7846724 0.10574667 2.1936972 6.0208573 1.9974784 -2.7777917 0.40235016 -0.55812323 -3.651145 7.0328493 -4.434548 8.001559 1.0892906 -5.101087 -0.8206043 -10.044718 -4.0504537 0.5336156 -8.369409 -4.399509 -7.323257 2.579778 3.4991133 -5.4499288 3.9931266 4.6398387 4.8883276 -5.254541 -4.003061 -3.471083 -0.49315622 4.2208533 -5.7597136 -1.4646564 -7.7510147 -2.1296856 2.7990003 -4.574402 7.1556582 -5.049293 1.1051854 -5.2964516 6.002071 -10.273045 3.956951
545 2.879565 0.26349127 -1.6709425 6.217036 6.833419 1.1822497 -0.27932888 -0.6034868 0.47343925 -3.5305877 -3.7968113 6.256385 -2.687498 -6.1128283 3.903443 2.9846735 -1.6283168 9.386595 -3.6693876 -0.3588823 1.5318165 -3.8448162 -6.7875643 8.071855 -4.7042933 -2.2432127 -8.190178 3.0558481 1.6440461 -3.9390817 5.243883 3.906845 0.03911435 -0.75809777 -7.294547 1.5987628 3.8434675 0.4095258 -1.0517526 7.259424 1.9584426 1.0277599 3.3560793 0.0037674338 -3.5629463 -6.8120756 -3.7755363 -5.8716974 -0.82445854 -3.8304257 -1.9060653 -11.612534 -2.9842403 1.1535671 -0.37911132 8.372093 -2.456584 1.9676479 6.8674006 -3.7070997 -7.3956347 3.3459387 -0.5375028 4.195649
2600 2.0717494 6.8079715 -1.4772749 -1.8146563 -5.59726 -3.0984578 -3.8905394 -4.7725782 -5.2950416 -0.41448188 4.3429165 2.1897073 -0.55735666 0.4079178 -3.143357 5.6976213 2.2576332 2.1700017 -0.38416082 -4.536229 4.487878 -6.9768844 1.9856428 -3.026972 -2.8764002 0.18592231 0.81925046 -0.8143605 -4.420957 -5.562611 5.5364842 -3.280602 -5.0065074 0.42910537 6.548694 -3.661975 8.519132 0.87328 2.150674 9.681558 -3.2696164 -2.6777983 -0.5570335 -1.6528589 4.4070454 0.6403831 2.622106 -0.9903618 2.9223063 -3.0943289 -10.072507 10.552227 1.4423022 1.5623616 -9.454909 -3.5808144 0.08905132 -0.59693384 3.5957317 1.5307717 3.5352876 -4.198672 2.687142 -0.7902732
1771 3.9398396 1.8256868 4.031013 1.8928874 -2.0353882 -1.8112979 0.24023871 7.815291 -7.959809 -0.6266116 9.886803 7.9491534 5.2666564 1.1407201 1.4519219 -1.8448755 -0.79988474 3.0337887 -0.9672903 1.4246988 -2.6149085 -6.187292 -3.2448034 0.61368185 2.1201615 -2.1170964 -2.1370308 5.9604855 4.2605023 5.0189285 2.095164 4.0090365 -5.4569435 4.5724764 1.6335922 -1.5974575 -0.4132091 -5.569033 -1.81785 -6.645311 0.8596142 -3.3736298 2.9974794 -1.1360129 3.2623703 5.680433 -2.2390795 0.7184053 -2.736512 -5.9381857 -1.6257906 -3.29134 -10.784842 -5.4913626 -0.20011295 -5.786184 -5.0990076 -0.007943065 2.409748 -0.81712216 -8.92213 -8.294213 6.2326345 4.632913
3598 -5.301665 -3.0384936 0.16813587 3.5411189 -1.7354853 1.1027575 -0.76543057 -0.61968434 4.3498106 6.21089 2.3234446 -7.1663847 0.843063 -5.4455147 -1.1446308 -2.340207 3.1092877 4.1178827 0.83636403 3.9240541 -3.1958776 -3.1080966 2.3803375 -0.29060432 -4.4120107 0.09577492 -2.5653837 0.92350537 8.4445095 2.6817772 4.2308393 -0.60923 2.0010757 -1.8888974 2.750113 -1.9921832 1.6738323 1.4447623 4.3120756 6.219988 -1.0785457 -2.560438 7.584948 4.824127 -3.8645122 1.2839137 0.210614 -5.7877684 -1.8653326 1.0853435 3.052407 -2.5537941 1.3907124 -5.6637316 5.108036 -10.257389 1.3848114 -8.964832 8.072433 2.2338107 6.943449 -5.2263603 -1.5205432 -5.274209
2897 5.8112335 -1.5517262 -1.6204133 -3.0844069 -5.6940584 1.5107563 -5.8380003 -0.5261617 2.079246 0.22454724 2.101119 3.8984058 -0.07559563 -0.79877365 10.135651 -0.90701187 5.7659464 -5.4041085 10.210268 -2.2526066 -4.343363 -2.1082995 1.4950113 -3.849645 2.993796 -2.2831998 -2.8151655 -6.4529147 -5.5122204 -5.3657923 2.8333824 -1.7801492 1.5646018 0.3288047 3.7033653 3.5713398 -3.331534 4.7671313 9.950296 9.172986 -0.8885071 -0.7835807 3.8346295 0.18625246 -2.59856 -4.7830887 -2.1185837 -2.7339025 0.7470782 3.3671803 -3.4978435 3.6728196 -6.206079 -5.7700453 -6.0379457 -1.2917323 -0.2441964 1.9646314 2.2217185 -3.1204593 7.9089465 -4.5573573 -5.792755 -5.0205383
4635 -0.35691267 11.46614 0.49693996 -1.0887365 5.543327 -1.6141137 -2.5392284 -1.5407021 -2.4617798 2.829332 7.9264593 -1.4901366 -5.643516 5.969895 -7.3684964 6.3825665 8.063548 -4.335187 -5.9846787 5.1155252 4.767511 7.1805134 0.77754045 4.799544 -3.02097 2.1361268 -2.7874436 -1.8513646 -11.184224 -0.014697938 10.656885 -3.2280939 0.7048796 -2.4447944 4.3427267 -2.5947652 7.531026 2.2716272 -2.1539378 2.675177 0.46494 -0.38468263 3.7412677 3.9010048 1.012687 -0.65796137 -2.9275455 -1.0872622 -0.43178988 0.34146985 -1.9398643 13.884662 -0.30918875 2.841728 0.69381076 3.0137262 1.2552365 -2.9319692 -5.3934264 5.181535 8.356373 -1.7014886 1.4193465 5.7187104
2198 -2.412708 7.7382193 7.223742 3.4693484 1.1214261 -0.54809976 5.7654724 -4.552631 -0.6978005 3.02567 -4.225323 -2.3018365 -1.153994 2.1146853 5.037825 -2.5367172 -4.476178 -2.2591724 6.3283224 -7.583331 4.8010535 0.48247376 3.778877 -4.929939 -3.046596 -2.3580089 -5.084499 5.703082 -3.4544709 2.7219121 -3.0015807 -0.029995391 -6.286871 1.5995669 -6.2011304 -6.1214895 1.2903386 7.519622 -2.1351557 -1.0177281 1.2733326 -6.2157574 -0.50278556 -3.6740308 0.36654887 -0.46609238 -3.2418845 6.534756 1.8238504 -2.674906 4.2818685 -4.546311 -3.3379781 -3.7228465 -3.7770708 0.6944027 -1.0375688 -3.8982244 -1.143774 -2.995674 -5.1737175 -4.045395 2.6622198 -0.88266784
3018 10.4027815 -0.8452427 -5.586614 3.2432005 -4.301492 7.9070525 3.993012 -3.1753767 5.9860883 -3.7235408 -12.90538 -5.2745695 -0.6211082 3.0075083 -3.4963684 2.0047526 1.9150372 -0.46170688 3.5898163 2.4847903 -8.738862 7.684357 6.2331386 -0.59634787 5.3519297 -3.3853967 -3.6910274 2.394029 8.02824 1.7341692 -2.6570466 -7.6873174 -1.764209 2.8372552 -2.9413612 -3.8210025 -0.42981285 -0.39508545 -1.559717 5.638299 3.5492609 -10.453392 -1.7611365 -1.4983964 0.20422362 -4.022689 4.765138 -1.9626268 3.8222122 -5.9174743 -3.3884976 5.4618864 3.273361 -3.2052286 -6.720739 3.6023052 4.2858496 0.32646516 -3.6317995 -3.6742916 2.5361218 -4.2116823 3.831334 9.790876
361 -8.115418 -7.5067825 6.330037 1.6278886 -0.5501458 -6.5486484 -0.5862126 -2.1083817 -3.1474597 3.1975982 -5.7345324 -1.893807 5.133526 1.6614656 -2.8205316 -1.3526186 -0.66816705 1.0837784 2.681303 0.28312707 -4.4811196 0.9577582 -8.73122 3.4292402 2.29108 -1.5675315 6.378047 -3.0291522 -0.44805196 3.0867257 2.365414 -1.5494716 1.1281389 -0.15070869 6.22459 -0.32770792 -7.6695437 1.3029647 5.275702 1.3227118 -2.3888757 -2.2944758 3.8314784 0.69747144 -3.6866817 1.3781093 0.4777073 -0.43259156 -5.594782 -0.30597982 2.5105524 -4.8200345 -1.8586447 2.617551 5.9753222 -1.1412879 1.7561661 4.3510895 -3.1266165 -0.21411693 6.2934523 -3.439284 -6.3896914 -3.3471935
57 -3.2803736 -4.52637 2.691752 0.81856126 -1.6183544 -0.47170943 2.3083644 -4.099047 0.050552234 3.2758865 -0.42327774 -0.84077144 7.3671346 -2.385338 3.0098593 3.339686 2.018371 -2.0154438 -2.5440001 -7.659189 0.61522955 1.6289617 -0.7536083 -1.442285 0.47494936 3.5306323 -3.1670866 2.4706597 -0.36957484 1.5439483 -7.402078 0.6345073 1.8636225 6.342057 -0.07396353 0.24943398 6.277825 3.2491484 -1.6726532 -3.5399404 -3.2567437 -3.082653 2.1583889 5.8777404 2.269346 4.167367 1.9066657 5.9578934 0.44064605 9.571809e-06 4.3054605 0.39190823 0.11290517 -5.9048686 -0.8388858 -2.2378864 -2.6979527 -0.44728246 6.043242 -1.827732 2.9714627 0.39545015 -2.371168 -5.972993
1201 -5.2585487 1.3635894 7.3981743 -5.096519 4.784726 2.3864853 4.491823 -3.3768244 -1.0613302 -9.859059 -2.1264112 -3.0289545 6.609054 -0.23010732 -4.3753986 3.4659488 6.413329 -4.027656 0.27025804 -6.706043 0.59067947 2.901199 -4.672789 -0.23234928 0.47556728 3.525057 -1.1900584 0.36388192 3.9300716 1.9710147 -1.1068736 7.0891094 7.633316 1.4140542 -3.74588 -2.0890918 -2.9371243 0.073261246 1.6088809 -4.515449 1.6926434 -5.002011 2.7092788 -9.45433 -1.4299667 -0.92471176 2.1715136 3.7486644 1.579137 2.7721033 1.9211335 -3.9412713 -5.3821297 1.8515431 -0.26908767 0.36981714 -5.2147098 -3.7247033 2.861068 -0.45591828 0.5419259 5.932007 1.0999784 -2.4946704
4611 -0.044537306 -3.35822 -3.3323364 2.774138 -10.234956 -10.488532 -4.5647717 -2.4996936 -3.1269329 7.560436 -4.384946 -0.3589005 0.47836974 -4.9511642 1.4700202 4.209559 0.9066696 -6.423523 -4.9113636 -1.9416505 4.734551 -2.3160927 -0.19279654 3.859555 3.8418376 2.6102016 -2.0152214 6.9584 -5.163279 -3.57635 -0.64843655 -5.33575 -1.0169735 0.32278988 1.3279501 -2.5338717 -0.74791545 2.8556075 -0.20620419 -2.9656155 -1.3607025 -4.9139767 5.4617186 4.788462 8.563954 -1.7880043 2.406742 -5.2479725 2.0177224 4.459266 -7.3611283 2.6724167 0.76853687 0.2672317 2.4676397 3.348113 1.7965845 7.034699 -1.4081519 2.8961484 5.3662086 -2.613788 0.5445441 -6.372689
3719 -4.3245277 -2.590297 -1.4009123 2.3093715 -2.4008684 4.869305 4.6759644 0.40133578 -10.107746 5.7298293 -1.8418779 -0.88818145 -1.7703823 -0.7202499 1.3230181 1.7677577 0.8221589 7.7390594 4.220977 -4.0658817 1.6922296 -4.646414 -3.0943537 -0.94148445 6.215879 -0.8764364 -3.0408978 -1.9920241 0.5712603 -7.529525 4.2929068 -0.4628379 1.0784521 6.6503525 3.1368768 -4.976968 0.43797615 2.1490262 -1.2388619 0.9328735 6.1206236 9.546144 8.761064 6.400922 -3.300734 4.446168 -3.195004 1.3775572 2.9244928 -3.3296254 -0.06526792 7.6747355 1.8831854 2.499336 2.6577277 -5.255857 -2.619651 -1.0272356 -2.8771791 0.2923949 5.4683623 -4.319805 0.68340105 1.852997
3878 -4.230736 0.9545303 -2.019617 7.1675096 -4.1043983 -0.5048339 -0.32997444 -5.271896 0.36797723 2.9588332 0.9655143 5.762969 -8.247474 -6.9577904 2.554663 0.665765 0.35792708 6.435063 -4.8519564 -6.383089 -3.7599585 -3.4404974 -7.9083157 0.020974122 -0.52793217 6.608969 1.5109303 4.4106665 0.5103911 1.1195519 -1.8521829 -3.58725 12.44505 -4.4399476 0.62247956 4.901634 6.2827077 5.9804635 6.0935745 0.7562761 -2.03738 -2.8949773 6.0676246 -0.8038135 1.0472437 -5.082802 3.7372286 -5.0449486 3.209748 -4.956098 2.257806 -3.5886943 -3.1029906 3.9590368 -2.7724917 -0.12379996 -2.6800222 2.1567357 -0.2610628 -1.3720509 6.1608 -0.32702303 -0.06400824 -3.4344113
60 3.7252703 -1.3225797 5.221703 -9.637493 -4.364169 1.198291 0.66863596 11.1444435 7.3414674 -3.4661908 -4.4770555 0.35789356 -3.574695 0.5947841 -2.4698155 -10.105173 1.3429828 -7.4421782 -1.1482669 -6.755531 0.18879153 2.2213583 2.6147878 2.5135906 0.60137933 7.7368073 6.0477157 -2.7009258 -6.376201 8.604531 1.4974698 -0.71468604 -2.7341993 1.755038 -2.615344 6.827404 5.605365 -0.9923751 -2.2626147 1.403853 1.1790473 0.021472732 -2.819947 -4.1253066 1.024136 -1.9353217 0.98331636 -7.4933763 -0.314413 -1.7369944 7.428646 1.1387849 9.487469 1.6544261 5.434418 -0.2902474 -10.481199 0.08514679 4.3473964 -4.9792013 -4.131437 3.7548015 -4.902748 2.9930255
1363 4.66607 2.9181957 7.171848 -2.6139805 -6.107553 -2.4442167 5.077447 -2.824892 -0.6961872 -3.1172652 0.24601379 -2.057255 2.5849469 5.6925287 2.8818562 1.0113802 3.516998 0.5393057 -0.99503994 -1.0094095 -0.38272363 -6.4521465 0.11639671 -4.050392 3.3127704 7.08263 -4.723069 0.04356972 -6.51881 3.4256856 1.1802788 8.838088 12.847257 3.048732 -3.1016576 0.513943 -5.5577736 -7.956415 -1.0344759 1.1486126 -2.790025 -3.5024438 2.6739676 -5.033033 -1.9291186 -0.5241821 -1.0658542 1.5287173 0.02620962 -3.898641 4.1243215 2.984814 5.341034 -5.8516397 5.4935884 -1.7698307 2.76803 1.2496927 -1.5614789 -0.5664565 -2.2203634 2.4001992 3.8948789 1.37336
2194 -7.5554166 1.3802991 2.9469507 8.139159 -0.42032132 4.9403014 2.4545789 -3.2132726 -2.2590911 -9.616897 -4.6398306 1.3339448 1.1349634 -2.8280675 3.1163695 -3.888305 2.2916298 4.7574 -5.204482 -7.4188905 1.5824045 -3.9402962 1.5801547 -1.0904133 -4.918233 1.1685573 -7.668312 1.8231387 1.5637357 2.9811292 3.9488704 -1.7374841 -2.6518092 -4.2448 2.1169913 3.5518372 -2.1507037 -4.812573 3.6969066 2.147616 -0.4992403 -1.5398657 -4.6761003 -5.7235646 -2.2999678 -4.949504 0.98547226 -3.5197272 1.8897654 -2.563551 -0.17756785 -1.7125801 -1.9432749 5.2457876 2.1766183 9.276781 -1.2154006 -4.0219274 2.1361082 -7.0751038 1.9060744 6.2177176 2.0019376 2.3809512
1744 2.1109247 0.770196 1.0600117 -2.9611459 1.3727193 3.0766506 2.1778202 6.976515 -3.2952294 5.2255483 0.48343828 3.187663 7.5280776 -3.6839707 -3.1961172 -2.0221457 3.878963 1.0475895 -0.17567442 -3.344984 -1.4541506 -5.5293736 3.2325323 5.995297 -4.173305 -3.0434196 -4.5557733 0.2811714 -1.1267864 -0.072022654 -6.7865286 -1.5940678 -3.478027 -0.49994335 -1.5694788 -4.6907673 -3.504996 -7.0944114 1.0859019 -7.7306247 5.7118654 -1.1116295 2.7867591 -1.196394 -4.3578687 -0.072860345 4.407999 0.62198544 2.712128 -13.109362 -1.0609673 -0.6377811 -3.9498186 0.54723674 -2.0650454 1.0434948 -4.804051 -3.5436318 9.491621 -0.420337 -12.390136 -6.0178194 -1.1258523 3.257838
3916 4.397792 -5.317829 -1.4298205 0.8754175 -4.230494 -1.6740758 6.1683106 -4.6685376 -1.074809 -1.1563747 4.091567 2.2771318 1.548038 0.80826455 -0.89734226 8.634921 9.758778 0.47724897 1.5831457 3.4042473 7.244396 -3.3326774 3.7687447 -0.25814316 -1.9355364 0.70968837 3.5720687 0.42429754 1.3634593 -3.4824486 3.378781 2.2992291 -0.73290145 -1.9246237 3.7041342 -3.5735378 11.342677 -0.96505237 -2.4251785 -2.2784836 4.224464 1.7630016 11.293344 1.5424429 -3.701067 -7.82231 -0.29647917 5.3615913 1.0905503 -1.1860883 -3.907714 9.190392 0.6622368 0.66657645 0.6898098 0.20950507 3.5439215 -0.6959406 -0.84557563 7.218385 2.5264373 -6.905715 -2.138257 -1.4731303
1162 -4.6393843 7.963624 -2.3359492 -6.4212174 9.26241 3.2509637 1.6161615 -0.12509823 3.5346663 0.58022684 -0.9916932 -0.5067087 8.331681 8.142185 -1.9914727 6.108192 -8.743636 -0.17800288 -5.488405 1.720972 3.155653 0.24913168 5.1585326 0.9854493 -4.6799617 1.1422657 4.4363947 1.7612555 6.3175325 1.7826807 4.69029 3.4663458 3.8362572 -0.7706148 -2.5431445 -3.1243474 -1.9287534 -3.8948812 -7.2413893 -11.986393 0.1544952 4.774941 -0.83516365 0.6256638 -0.44503233 4.5916786 4.5177755 3.4977434 -2.6772091 -0.8229371 0.9830875 -8.4552145 3.3281288 3.821026 -3.0960565 1.6036307 -0.86508405 -2.0346932 3.305227 -9.280831 0.9062943 4.2251983 -5.910602 7.8482194
5227 -10.99586 -6.54715 -1.2477795 1.5625315 -5.2946124 1.3528423 -0.70247185 4.4333725 5.151121 3.332985 5.133961 -1.0600902 -0.6908021 0.1686164 -3.0491335 9.2732 0.89721125 -1.0472921 -6.216219 -0.65208536 -0.9675591 -6.476442 2.457176 -0.7947423 3.9527068 2.3393366 -3.8386226 -0.86261874 -3.0634267 1.151645 -5.8574796 -10.145665 -2.845042 0.8248098 4.3264837 -0.335342 -0.807979 -1.6576731 4.3723035 7.270103 -4.5131564 1.6461605 7.854051 2.5295098 1.1488105 6.149683 -1.6153483 4.88887 1.0064882 -0.020669037 5.6651363 1.4226359 -2.4432383 -5.8220105 7.9301395 3.9668748 2.7650294 2.3151112 0.04680747 6.119957 2.2993357 4.5204453 -3.8515291 2.4171195
2725 -2.761968 6.346906 2.6719825 5.800731 -5.561091 -4.753485 -0.7101007 -5.0545616 -1.3190753 -1.0207784 1.9931184 2.4015584 -0.7554434 3.7545774 3.4148302 -4.573354 0.92845917 -5.8487577 2.0385451 -1.3049113 -4.8656282 3.899731 -4.074157 -7.271478 -1.9248104 -1.1198297 5.2923703 -6.3099732 2.0416143 1.0411018 -2.857866 1.9597981 -4.1440926 0.8102124 2.1450706 -1.9019496 -4.059828 -1.0870173 3.784375 8.637115 -6.7433953 0.14265066 -3.7691104 -6.302961 -4.4198956 -2.991413 -1.2883797 1.0120193 0.64712596 -2.5236065 3.126089 5.7924433 -4.0839844 -5.978565 -1.219098 -4.389571 4.204737 8.861148 3.06394 -0.34861365 1.939091 -5.12501 -4.0203266 -3.4475195
2835 -7.528099 -1.6804216 -0.39501023 -1.6366735 -4.9497023 -3.2152207 -3.5398533 -4.8529916 -2.7625618 3.2595968 -0.12332043 1.7162821 2.9519205 6.072145 -2.4417984 0.33710766 1.1631197 -5.379988 1.07555 -4.6452627 -1.5017055 -5.105326 4.027478 -3.7488453 -4.2549305 0.7665682 0.3527798 -4.083313 3.138181 6.6493115 -0.5645326 -3.027187 6.4005084 -4.120388 2.8863428 -4.021256 0.00244214 3.1498094 2.8113337 6.464125 -3.786348 -2.2923043 5.9187107 -2.9644275 -5.3408256 2.5690591 -0.740908 -4.678598 -3.4831293 -2.5591328 -2.3011801 5.270151 1.2353264 -0.5388451 -1.5267974 1.6211178 2.6126902 4.1793036 6.3719425 2.7382708 3.191001 -8.208083 -3.9730117 -0.117334515
1802 -2.7049387 3.2913525 5.623421 -2.3869817 -0.07235794 -1.3606281 -2.2405307 3.988559 -5.1845264 -5.0789475 5.360533 -1.5175847 10.091048 -1.7727805 2.1516166 2.824805 6.8826356 -0.3795109 5.724865 -0.7115726 3.5861254 6.9712424 -1.0267837 -4.4868054 -6.5185413 5.2559433 -6.0181746 -0.53178585 2.8777218 0.44820225 -3.5981205 1.3824492 -0.49127623 -2.6444645 0.63665503 4.2261443 -10.067092 1.8119231 6.62884 2.3551707 1.7597611 -3.8734014 1.384767 -1.7831326 -4.3936353 1.1773261 -2.6683939 -4.268307 -0.19323263 -6.375747 -0.01656827 -7.1641955 1.5746312 1.9399925 1.979122 -2.5570135 5.620449 2.2212367 4.0238204 -3.8769255 3.0766745 -4.7715163 -1.1583414 1.4420899
2173 0.8643549 -3.7776012 10.591536 0.31447905 3.595938 0.30366135 -2.1293316 1.3086097 2.2745364 -6.0223126 2.8498003 2.9171107 3.8324113 -3.1959717 4.858186 0.00724189 -0.46978197 -2.1976457 0.27297845 -7.0296435 -3.917644 2.8004956 0.63020384 -6.0429797 -2.828026 -1.8728236 -5.041107 11.142322 2.701407 -2.8937776 -3.590406 2.635045 -1.8868748 0.32161713 -2.6630483 0.084877014 -3.0650773 1.205475 1.3615744 3.0370271 0.0122413905 -0.15894684 -11.172458 -1.6104783 5.5185137 4.548748 1.8017886 3.224673 -2.1237738 -3.4142654 4.0850177 0.8338597 -5.5043178 5.7933693 0.64773333 4.0305877 -0.82914525 -0.1835872 4.4026723 -4.546778 6.9157333 -7.7941527 -0.3480438 1.3038112
4649 -5.008567 -6.553399 -0.8086963 -2.0965347 -0.81667167 3.6931984 -4.922941 0.76025885 1.7739278 2.7684994 0.54529727 -3.3648705 -1.8752239 3.9811664 -1.9616356 3.6422079 4.941832 3.5184703 -5.154125 -6.42569 3.4019945 2.669797 -1.5770563 1.7117014 3.1346855 0.18423796 3.5085633 6.158865 -7.2008815 -2.717238 2.3882735 -9.615104 3.1472316 4.3214464 5.436036 -0.031722896 0.6967099 -3.8338811 4.8966126 -2.251423 -2.0131233 -3.6710434 8.706008 -1.2606896 -1.4753405 2.4522035 2.6382608 -0.2431531 1.0386543 -4.5450864 5.4226704 1.15835 -2.0273323 -1.2894553 -0.084376074 4.5360584 7.13312 4.1296706 -1.9607598 5.1858582 1.4661115 -5.2901354 -1.1148717 -8.010093
4 3.6845796 1.90391 9.933492 -0.101629145 7.787307 5.8609853 -0.20794486 2.1788187 -3.1344874 -0.862946 -3.1070187 0.76327896 -2.8651683 -0.68442243 -1.8413749 -1.2877924 4.713894 -5.3749633 1.9570951 -2.471702 9.259635 -0.4106534 -2.6782925 -0.9152608 0.2223812 7.0946717 2.6688929 -4.297285 1.6049922 4.721913 -9.407201 1.4741818 1.7108375 1.006486 -3.8400555 0.25228542 4.731589 -1.0388654 -4.9124064 0.009299037 -0.40556505 2.211603 -5.291586 3.5063443 0.2997395 -1.346571 -0.16856693 9.423223 2.0511591 -2.2958744 7.7693605 -8.024885 -1.7453578 5.5829544 2.9791863 1.5094986 0.30349383 -0.5935793 -0.32538527 -3.8418756 -1.5370003 2.496844 -7.423556 4.8324075
2877 8.925125 4.964907 1.2725626 -2.453704 -4.458852 -5.2348185 3.675288 6.066431 11.433778 -3.7646704 3.51279 5.691704 -2.0810087 0.5574436 -0.76643735 -2.4100199 -13.47279 -0.0742788 -6.9729743 0.11026384 -1.7553599 1.1677749 4.4413066 8.768944 -1.6221524 -1.9656125 -0.06295713 -5.514787 -0.4143348 2.097336 2.9216228 6.71361 -1.3835179 -5.3877697 -9.124101 -2.4172819 1.0437936 -0.18352944 0.948471 -5.230492 -1.4044759 3.2718523 -2.987776 4.914398 -4.148785 5.1633787 11.019742 3.7592375 2.650775 0.5596424 6.7441874 -8.597948 1.1279832 -2.0764844 -5.7110696 4.1906176 -2.2262125 3.364806 5.184308 -0.9378694 4.253514 2.2596798 -2.4798756 4.1132884
1555 0.563728 -5.571483 1.878802 -0.8463763 3.9990463 -1.8693192 -0.46090636 -2.213772 -10.695704 5.0853224 -1.8024985 1.7203759 1.5157747 -5.1446795 2.05176 -0.7981922 -0.66255206 4.802407 9.18644 5.7479806 0.34369075 1.9871529 8.612733 3.0442495 -1.2039689 -0.4118425 -1.851247 1.1355448 6.795713 3.316955 -1.7916734 -4.205205 2.9309916 -0.21084765 -5.899573 -1.3022608 -4.734712 0.6810583 -7.688358 -4.785951 -4.130781 -2.6172874 -0.94277185 -5.0531673 2.6141245 4.2382617 2.9624658 -1.7321634 0.56393653 1.5718418 -1.9745901 -7.226647 -4.041266 3.9317322 -1.0112544 -1.407205 -5.187577 -4.7980413 2.6849508 -6.068829 -1.6045889 -1.9163677 -2.8745618 -2.0436225
2404 1.7810225 1.5636327 1.0713102 -1.5994525 -2.6700757 -2.3517861 1.0514153 -3.7897372 -6.1409817 3.5988493 7.2645097 -1.2411737 -2.4711826 -4.3603873 5.0510864 4.997883 3.4541867 -0.7755938 2.6334786 -7.6370583 2.2048151 -8.276533 6.283525 0.46391004 -0.19775464 -2.0843825 8.943427 0.6348342 7.909203 -5.171593 -1.5464684 -1.6524272 0.5766683 1.6213495 2.3106515 1.5892276 1.3771995 9.281566 -1.8562031 0.6095467 1.8153858 0.9975275 6.5079994 -5.5715995 4.4259586 -0.97877 -0.802204 -2.923712 4.518998 -0.7549374 4.3544292 3.0746152 3.3586705 0.2510996 4.5715847 -5.0554404 -2.2319376 -1.0546454 -6.6845064 -4.956147 2.5240152 -4.770748 -3.1471334 -0.5585565
3452 -7.4385834 -4.8662224 4.6101675 2.564457 -4.1916018 -4.0264983 -3.1486666 2.6362183 -4.916792 9.096795 2.7384443 0.7114407 4.2219954 -2.3310304 -2.906249 -0.7609597 -5.0022006 -2.212346 -0.40520453 -4.793076 -4.23659 3.0311184 -1.2270464 3.2747087 5.1313863 3.0387728 -1.4450096 0.28312838 -5.9353104 -9.0226345 5.4741206 -1.2410613 3.1119728 -3.497604 3.592095 -4.7186775 -0.7380253 3.612327 7.253356 3.6299825 -0.23907599 2.741146 6.1485248 6.790934 6.091722 0.99304324 -4.3920946 5.222813 -4.456245 -4.961422 -1.0800833 -1.8300772 -1.9358461 0.55188006 2.5194175 0.41802472 2.9797697 -1.8930833 -2.920993 0.6441775 3.6367035 -1.2141092 -3.2805307 0.87383354
2647 1.8640527 -2.854237 6.06016 2.9674423 -9.603061 2.447597 8.15132 1.1214218 1.5827975 -5.999314 -1.2815504 -3.5923254 -3.8180876 3.3200328 0.08516218 -0.20682769 3.690831 0.9743233 -1.2717117 1.4153461 -12.11378 7.8464622 -0.32497537 -3.9130826 -5.7027125 -7.1988974 6.956525 7.5749044 3.4092176 4.7903576 -3.8143747 -4.1653204 3.2237053 -4.438109 5.9001446 -2.1156237 3.5780628 -3.2965453 -0.54276127 7.901052 0.10253191 0.3389138 -6.836019 0.156063 0.7892662 -5.3631253 2.1816096 1.7486885 1.4350106 -3.2430494 -9.9061575 2.116915 2.328052 -1.7402114 0.7606628 1.3385304 5.748224 0.8373504 0.06815929 -2.491427 -3.296295 -6.745546 6.8987336 7.5520077
537 2.868712 0.6938967 -1.1064194 -2.2792022 4.5415053 -1.3292708 4.452957 -1.536525 -2.1793303 -4.5454125 -3.171576 -0.28810078 2.6963234 -5.1676946 -0.11928934 -3.4932 3.6400506 -5.4480996 2.4330301 8.371486 -1.7995228 3.4475198 -1.7069677 -4.9467187 2.4704754 10.112721 2.999069 -6.1414394 -0.8310054 4.7978854 -0.4028088 10.848728 2.373001 0.25817207 -3.024555 -4.870223 -0.15748936 -5.4022226 -2.6942945 -5.917098 -4.1268115 2.728857 -0.24042813 4.8640127 -1.8192964 -0.4053176 -1.3945972 3.6511486 1.2211536 4.8544946 -3.0132034 -8.336716 0.1751085 0.75363827 -6.9531736 0.2698169 -4.635164 5.1047115 5.4225836 -6.930106 2.3149552 1.8813874 2.383894 1.1825103
523 1.8620136 2.3696303 3.7487442 1.0089074 5.205177 3.7467768 -4.7225804 5.5746017 0.45657942 2.4088902 7.584654 6.8844714 1.8782228 -8.852734 -2.8081162 -2.801445 -5.4142323 -6.104432 0.76880944 -0.4578841 -3.0982735 0.6492887 0.5858523 2.1936939 -1.009812 -2.2932389 -3.434332 -4.165104 -1.4026138 -10.500802 -1.562086 -0.5876092 -5.355376 6.6825213 0.5694309 1.4591388 -1.0777503 -6.151528 -6.942298 -8.362413 -5.7185655 1.4927996 -2.1357646 2.2768803 1.8982519 -6.74002 5.7104335 -1.8465556 1.633472 -2.5108874 5.950129 -7.496236 2.6158512 -1.7850139 0.15867151 -3.3496816 -7.439629 3.0576627 8.091585 -1.1744919 -3.3891718 7.037236 9.683928 3.8571208
4532 -7.6393466 -3.0105772 0.14136338 5.4555635 -10.435716 4.947607 -6.167416 -6.136323 3.6325462 5.7807145 -5.6025763 -5.914757 2.5715706 -0.2734921 -3.0965216 -1.9701567 5.8773723 0.4486408 0.09041727 3.5466053 2.9396923 -5.26214 4.1134777 -6.482354 -2.635414 1.026343 0.6564161 -2.1721175 -9.351326 3.503175 -4.5205617 -4.4529963 -2.0427678 4.0237703 1.8865799 -3.9193878 -6.609382 -1.4425236 1.2150065 0.44478056 -0.94836646 0.852241 6.6886315 -0.0708809 7.215118 5.850233 -1.6888294 -2.843312 -2.132616 2.9321527 -0.6473867 4.3656816 -1.7760592 -1.0552853 4.971192 -3.8254075 -4.3001575 -0.120941564 -0.86687046 1.5264269 4.516201 1.4395878 -0.7407674 -8.560221
1860 2.222361 6.6598706 -2.9198153 1.2956973 2.1852746 -0.9845875 0.26787356 -2.25384 0.18060607 -1.7717249 9.814672 4.434108 6.546484 -1.9470997 -6.2838297 -5.1189284 3.9190211 1.2316369 5.1264486 -1.2122691 -1.8148124 -0.53807616 -1.0873767 -0.6501125 -1.5949832 0.6825509 -6.5978656 4.739767 -5.971633 1.8037114 -10.550808 -3.7661207 -5.318248 2.9145124 -4.4209757 -6.542485 -2.4192598 3.2000525 -3.1574194 -9.147708 -0.22263546 -4.704537 6.136545 -3.9756227 -1.9424298 2.8447256 0.12882325 2.370514 -3.282317 -4.779869 1.7017512 -6.033359 -8.833865 -0.7978819 1.0720098 -5.608579 -0.44225886 3.8798935 -0.0076721767 0.71272236 -2.9447808 1.7530998 3.9989448 2.9638681
882 -1.8364111 0.61573 -4.1421337 -7.585613 10.498614 7.9967976 0.60928476 3.3727212 -3.2528822 -2.8613913 1.9410671 -0.3166598 0.7830122 8.024329 -5.1131606 -1.5624852 0.30353498 1.2605071 0.3098135 -1.5768186 -5.6223307 -1.6520524 3.4532874 -4.679786 -3.39149 1.2931267 3.0809352 4.126619 -0.9739862 -1.9295527 -1.9852042 10.063702 0.11586953 -0.38106874 -2.7459724 -11.279407 1.0271841 0.7324014 -0.011743779 -2.679883 -3.5360432 0.34001404 4.3815765 -1.1633565 -2.9900472 1.3567508 1.953883 1.173292 -7.0315704 0.8592772 0.31714368 -7.035872 3.3548672 3.627619 -0.096424505 -3.870761 -5.920913 0.9091093 -1.03147 -6.3302183 1.2769443 5.923231 8.382859 3.0275443
775 9.387238 3.2267592 -4.5900717 5.3619127 1.1209637 8.461646 0.27626422 2.4332583 1.8454512 -5.359508 5.2540674 -1.8907131 2.4646251 -0.08134066 5.653898 1.4450923 2.6973798 7.4732633 -2.2350955 -2.5913544 -2.1308627 3.2526455 0.98064494 8.371604 -6.2273135 2.0066338 1.8519659 -3.8303068 -3.578114 -4.600682 2.3456407 2.587668 -2.6154883 5.923634 -9.694453 -1.0573229 1.4983879 -9.795179 -5.1685743 -2.5212922 -0.5976709 6.467365 -5.1766286 5.0531726 -2.7942734 3.7342808 6.058606 -2.272521 -2.7997506 6.7236524 -0.20991316 -10.386383 -0.77282727 0.7953525 -7.2987366 -1.1541111 -5.024589 3.8011851 5.569378 -0.05094884 -1.9493272 3.8928435 -4.256695 0.32771364
468 -2.4456613 4.991677 4.0765543 -2.9931319 12.1826 9.487519 -1.1683031 3.0950365 5.929355 1.800766 -6.75874 3.255744 0.17276746 3.2808683 2.1676474 1.3698504 -5.7839384 0.67919844 1.8990747 3.0208273 1.6104746 3.5255218 0.34382516 2.6035612 3.0480843 -4.5868845 3.885371 -5.77623 -2.948256 1.4743412 -4.677362 8.407052 -5.8564525 -2.3979144 1.8632904 -4.08859 2.9259894 -0.2081451 3.5816028 0.4015588 -2.4366853 2.3085425 3.4374287 3.359141 -3.1161826 -0.22345228 -1.5121236 1.0307336 -0.2107859 -1.1651912 0.057706416 -10.814475 3.6403167 -5.686647 -9.098793 1.2094815 -9.053312 0.3371417 -3.8018994 -6.4482317 0.00823703 3.040065 4.226799 1.0534146
280 -1.2248199 -5.6809487 -4.5995784 2.4498363 6.409349 3.5316086 5.32111 2.5119607 9.348981 4.8784466 0.11006812 6.7506895 3.116506 2.1183696 0.18821697 1.556763 -2.175486 -2.5756972 -0.21906374 1.5514001 5.9085894 -1.2033483 7.0720816 8.805714 1.0143241 2.7044032 -0.39398867 -3.5023646 -3.905535 4.944944 4.645824 2.3799138 -5.0229874 0.20541029 -0.75484025 -5.0450068 1.2658356 -4.7612095 5.194832 -1.9920329 -1.0281044 3.4014208 10.689479 -0.27493382 -0.023359707 -5.980406 -6.5329156 1.3784293 5.0966735 -2.9867518 2.5937955 1.232515 5.2194924 1.876816 -3.0175302 -5.5763702 -1.7950989 3.6198697 -9.136977 4.8399205 3.5742218 0.2749834 -3.0063014 -3.645438
4833 -0.81660306 -5.362641 7.0715537 0.73175895 5.612411 -6.353924 1.3228986 0.7768049 5.738315 7.2823243 -0.32928985 -0.13486302 -2.2467175 -3.1869085 -0.16152807 4.439268 1.8979615 -0.33093992 -7.328332 -3.2668607 2.175776 2.8285654 3.9902475 1.0746776 3.6449661 5.241634 -0.7003814 5.8690195 -5.3746963 -0.53772205 2.0699098 -3.2634053 -1.3271403 2.2856977 -1.7103099 -6.3206186 -5.7741013 5.810568 0.11974973 -1.2294106 -5.517131 -3.9994059 13.336276 3.6632655 4.272012 -4.638776 -1.2700405 -5.5787535 5.6931186 4.112136 -2.0951395 2.5104206 -0.7722566 -2.5151064 4.2121644 -2.3273613 4.320568 4.2948794 -1.9062227 3.0795393 1.1618581 -1.7219663 0.25311938 -1.155973
2378 5.1205316 -0.824631 -7.0280204 8.733878 -12.850579 9.386658 5.646241 0.06595982 7.3453813 -6.1008987 -4.4268937 -2.9147308 3.8521185 4.4959083 -6.4278026 3.2140107 0.020916883 -2.8833907 4.391547 -0.36229828 -5.4124 8.161464 -1.9228132 -6.195815 0.41289333 -2.9338944 1.6130899 1.4331104 7.0034547 -2.0915563 3.8035734 -1.8793534 -5.743482 0.20854603 0.24557987 -1.9007152 -3.871474 0.03851967 -3.4847627 6.439487 2.5619924 -2.8302343 -6.122123 5.1687613 2.6705217 -8.592366 -4.4138136 -0.7880811 -3.1398115 -2.9134433 -0.41934335 -1.6518238 2.36897 -2.5906162 4.9589276 6.7365665 3.1774433 -4.2844505 -5.3020234 0.58161485 0.28989697 0.083685845 3.069163 2.024454
104 4.4673543 -5.333541 -1.221855 -7.2620473 6.754443 2.451105 -6.2053456 4.5857825 1.0496122 0.065179534 -2.565759 1.3047754 -1.3655813 7.662671 1.405344 -7.0756717 5.335802 -4.853507 -2.396468 -3.93048 -1.3098398 1.2379876 5.250775 7.8417263 2.9287877 9.889805 3.1868942 -0.5715507 1.2331257 2.8859494 -3.8197525 -1.8161472 -1.103166 4.3802075 0.35226166 -3.8083212 2.5040245 4.1173635 -1.2908288 -1.6520945 -0.53156054 -2.113819 0.032087255 3.298836 -4.8158565 1.4691533 -1.0824037 0.41396722 3.345476 3.0975406 11.335466 2.1775644 4.0221114 -3.8371027 2.4618475 5.241926 -3.4008458 3.996658 1.5113469 2.6213233 -2.5178795 4.4302635 4.9482746 -6.263514
2110 0.08523514 1.4849176 -2.9627352 1.4471843 -5.9783783 -1.9722507 -2.5235794 0.30299273 -2.022913 0.39484584 5.3679886 -2.693314 -4.074505 1.2351496 7.108065 6.4888887 -3.4245536 -8.473482 -0.6581019 -3.2450838 2.4671366 -2.133939 1.2477435 -5.5576015 -1.0297061 -3.8244226 -3.8399389 0.93164104 2.9983351 -1.9385705 9.604286 5.4471693 4.984492 2.5709696 -1.0718954 3.6013327 4.9970894 2.9732943 -1.1962003 0.026871512 0.12050049 -2.1235886 2.354347 -0.15060084 -1.5567135 -0.94073427 -5.3533497 0.3167032 1.1673473 2.4750376 -5.5319953 1.7727082 -4.6423883 -5.9646173 1.1387895 -4.645065 0.81208843 3.9607694 -0.48907182 3.0823927 6.9081025 -2.9073255 -0.77566147 -11.087105
1281 -1.5226537 -1.0256013 -4.500434 0.5247623 2.2627535 6.5403876 0.2611914 0.91836303 -10.277682 -3.7869124 10.32526 -1.9709871 5.775505 -5.581651 6.906799 0.65120673 -1.2164881 -1.6618282 0.12564927 -1.9166472 -0.22477803 0.5912695 -1.791646 10.215127 -3.1749847 -5.252402 2.571118 3.310128 -1.1368517 5.178842 -1.2681798 5.7187037 0.5375962 1.5702379 -5.080753 0.6540867 -3.759417 -3.2697673 -2.7368772 2.3393102 7.248304 -1.0630891 -1.2586435 1.8020175 -1.9313798 1.2500589 -4.0101233 0.7635676 -3.2267077 -1.4391345 1.0002512 -2.9602616 -5.0215826 -3.3051276 3.8850381 3.7223785 -8.677305 -0.26838598 8.094111 -1.0610458 -10.992251 -0.7972806 -5.7327256 0.27161267
1693 0.7885686 0.4389857 3.039708 -2.4490542 3.9123213 -0.31786543 8.61285 -1.602917 -7.0466266 0.17818323 -2.778553 4.5532312 -1.8270814 -2.3508074 0.26267242 -2.100445 3.0274453 1.019148 4.2941284 -1.9991707 -5.548378 0.08566978 -3.5189884 1.7691118 -2.4533124 1.7555144 -5.344626 3.9277587 4.5144086 0.5117492 -1.2370428 4.909797 -6.8630285 0.8695387 -2.8493876 -2.9614296 -2.0495694 -2.7481937 1.1698401 -0.8565253 1.3607965 -1.5181538 4.8637533 -1.3805771 -1.7266163 -5.6025953 1.2962592 0.44004157 -4.9617724 -2.8039784 2.0233204 -7.434238 -7.7593036 1.2568059 -3.136411 7.6439466 -2.376263 -0.59243387 6.570008 -3.796721 -3.6825702 3.2088673 2.978454 2.0460844
4107 -2.687071 -2.5451915 -8.099933 5.5987487 -5.9753885 -0.9389145 -5.9531317 -5.2481136 3.5325096 -3.9961112 -6.4415927 -2.8585713 0.12463832 5.6514754 -6.456902 -1.9898812 6.4737377 1.5896198 -0.42668614 2.6718524 -9.368566 7.2635994 -2.281799 1.4161495 7.2970433 -3.4419332 -2.3522222 6.723921 4.4190927 -5.136654 -3.3450062 -6.2481813 2.7217472 6.862899 -3.5769737 2.792492 -0.53273046 -0.07022398 -5.432651 -2.0583067 0.38355982 0.7337955 -0.1784912 1.9355916 4.168977 -5.034282 -5.1813245 -1.528621 -0.50211143 1.494456 -3.7976117 7.5878177 1.2340317 -3.3912208 3.6013536 0.23950636 4.2614884 -0.9630038 -9.761584 -6.8141713 -1.9925213 -0.158951 6.17042 8.174276
3707 -7.8061037 4.866977 1.8797588 5.724425 -1.1816994 -0.12231805 -2.7461145 -1.3106536 -2.1566982 3.8771858 -7.815071 0.10036772 -5.408877 1.4428862 1.9761794 5.333009 -3.3690147 9.508753 -1.0747404 1.6711416 1.8898625 -4.076778 -3.5913556 0.7249869 0.58915937 2.4174447 -4.041794 -2.3447886 1.1624179 -1.0312277 -0.8793089 -3.6313112 0.6553254 -2.9981127 1.763122 3.5059142 4.4765477 -0.71692574 4.8393283 4.5102706 1.5638311 -4.985615 6.482479 0.5735706 -2.8573627 -9.625515 0.6606145 -9.000611 -1.2689263 -1.038006 0.28965402 -4.875751 -0.67725664 5.5484834 1.4604217 5.1483083 -2.7045882 4.597255 2.7016416 -5.727069 -0.499296 6.2023044 -1.8379873 -1.54588
492 -4.9858193 8.003254 3.9872715 4.0388265 3.6743963 3.250783 2.8692825 0.18128541 3.157094 1.4556568 6.037419 4.5635004 -0.5612887 -3.4261076 0.07394915 -2.2898436 0.78721255 -3.3431077 3.4366422 -3.427723 0.1976775 0.99762976 7.144105 -6.8843155 -0.5074868 -4.1837926 7.8943925 -6.1537633 2.3962412 -4.931153 -3.3941398 0.7594731 3.0844655 -0.048569724 1.8858577 0.8449132 10.134472 -6.6984777 -0.6128699 -1.0267183 -0.8084667 0.152542 -5.698984 -4.8955445 -2.6355274 7.474027 -7.359701 4.2287464 -1.5574008 -2.0510654 -1.0578718 -11.575241 3.2800257 -5.2502666 -4.6804075 -5.0208917 1.2469873 -5.648387 0.24740455 -3.5847814 -2.1223478 2.2037551 -2.0506089 1.115465
687 5.4442573 -1.6658229 -3.2668483 -8.445448 1.71679 -0.7347385 1.820977 6.6986456 -1.338624 5.1213 -0.97164726 5.3150015 -2.5309443 0.7553205 4.73053 -7.355742 3.542777 -5.1174703 -1.584593 9.853697 6.6704216 -6.947961 4.347056 -7.1530714 -3.1899219 -7.451418 3.6801856 1.3396332 1.2242929 1.9656618 -2.2682376 3.4307418 6.006994 1.5502955 0.38754797 -7.3370695 -0.7077833 -4.3908505 1.509353 -9.951928 -2.101102 1.6321442 -0.42868292 2.5710301 -0.4534597 -3.432062 5.7004504 0.2277771 -0.78987414 2.7667036 1.738557 -10.179747 4.61501 1.944792 -1.3941619 -4.228954 -3.368119 1.0593467 3.6469066 -4.308378 6.263045 -3.3877656 9.791021 1.9912647
4385 -6.1040816 4.3697653 6.9216557 5.245124 -2.2666516 -1.0403669 2.7202792 -2.1898234 4.9024224 -5.760353 -5.736019 6.963452 -2.2368865 -6.6453567 0.7931606 -4.005112 1.5839684 3.1026983 -5.603373 1.7370309 6.5810385 -4.121423 -10.166866 4.4725056 2.0619361 3.3374953 -6.976475 1.9802449 1.1480147 -4.6671915 3.4719794 0.7020835 0.9182484 0.40533563 0.115906775 6.1562457 2.0493896 -8.376579 1.3213592 -3.6060388 5.8311033 -8.277217 2.270252 2.134671 -0.9015043 -7.275965 -2.9663734 -6.902414 2.1568167 -3.2703211 2.8019829 -1.9522545 1.235807 5.7475815 1.7977844 2.7489855 2.6473713 1.7821885 -0.41121703 -0.23748097 -0.10193263 1.9360509 -1.8384411 2.1295903
1543 -0.83189434 1.5834283 3.3016593 -8.22222 4.173649 2.042616 5.1447763 -0.7674936 -4.1768227 -7.0276814 5.777723 -2.0156548 -0.4973771 -4.0017996 0.36925864 -0.69086444 0.012751304 -2.8012426 4.5146093 1.5057439 -9.810084 3.13707 -3.0078037 -1.5775201 -0.10472481 0.5220329 -6.508426 5.939555 -0.7990958 -2.004854 2.230406 2.267845 -3.2936275 -1.3280675 -6.3622003 1.1308991 1.7037228 3.944048 1.0679877 0.71281993 -1.090028 -5.878809 0.5005809 -2.7763553 -0.23439606 2.4093704 -1.2132196 2.2557402 3.0796301 -3.825208 6.5562363 -6.447217 -9.751252 5.98177 -3.1390815 5.285039 -1.458351 0.16311526 0.17579336 1.461081 -1.2760329 -8.309468 -2.702476 -0.9579608
2176 -4.3117085 2.837162 1.9077135 -0.16347352 -0.49137112 -3.3899853 4.04269 -3.057092 -0.6314292 0.089770705 -1.5397762 -1.7708001 6.6881857 1.4419626 1.2662141 -6.445767 0.31233755 -2.1550565 -0.46575242 1.1088349 3.017256 1.9594929 0.15673082 -5.2915998 -0.05447735 -4.1645813 -3.8345432 0.277973 -0.86204064 -8.347182 -2.8822541 -0.4081941 -6.2847652 5.7464643 0.03978228 -0.004692718 6.3012733 1.4946982 -0.29607862 7.1148825 -1.1894883 -4.0736537 -2.6051245 -2.7666328 -1.1859013 3.093007 2.1562426 -1.1722652 -0.496065 -1.5135915 3.086698 1.6814994 -5.5968013 2.1386397 -0.6624786 1.3268293 0.24118955 0.85031956 7.6928196 -1.6740266 6.969304 -10.565919 -6.703266 2.0236378
215 -5.111679 -2.3837874 3.0420706 -0.18102083 3.629239 -5.8631434 -7.313222 -2.1269493 4.6473603 -6.146704 8.563656 1.7598569 -6.3518815 -0.4530641 -3.6357589 -6.125451 -0.8343516 3.1579332 0.8055464 -3.1637301 1.5548784 -4.5912237 -0.84660363 1.9957402 0.9010712 4.779955 0.6752395 2.7283611 0.9144114 -0.30078328 1.3538624 -0.9564681 -3.8159366 -5.201246 2.3003032 1.1374243 -4.771879 -2.4470696 2.4046845 0.83892775 -5.5385365 10.803757 3.289779 -0.18256715 3.6545987 -2.1444552 1.4798516 3.20179 -0.81657857 0.3751158 1.2942822 2.7550638 7.854445 -0.51188606 2.7657151 0.5365628 -4.1544266 -1.949249 9.525786 -3.449238 -0.6506427 1.8233848 -4.149263 -7.4482274
2063 -1.607015 1.4072987 -1.1946367 -2.374196 -2.3646412 4.4233575 -8.084812 -2.1182852 1.8516613 6.3058767 6.4120703 1.1640896 -1.2253591 0.184848 -2.9619029 -0.079506315 1.9205596 1.2692131 0.91770965 -1.6197946 0.0001672061 -2.7309957 4.826776 -3.6611078 0.2028869 -0.13470215 -1.7218946 6.640781 -1.3089448 5.549094 2.8538115 -4.7621417 0.28252506 1.6116822 0.23368363 -0.50735855 -3.1468956 -1.3820245 1.7276627 6.082256 -4.022571 3.6320567 4.5247016 3.6161063 -3.8766801 4.6194477 0.51006824 -0.7088153 4.570259 -2.2459946 2.1531887 0.9592401 -8.010421 -4.2101145 3.1223476 5.5463934 -1.1868631 -0.6486603 -4.382742 -0.028744476 0.72995573 -6.0722284 -7.3327646 -4.4064927
937 -7.7054625 8.638273 -2.2990546 -1.2376153 -4.327741 0.73619074 2.8876522 8.7044325 -2.6659057 7.5689683 -1.977192 5.0802016 6.960528 -0.8198455 1.6409976 -2.4106479 0.50653964 -7.692606 5.412251 -0.19003141 0.8520979 0.7068743 2.425612 7.0177526 -7.3788567 -2.5821927 -5.2780576 2.8983676 -2.2517145 2.9765415 -3.757337 -0.41737974 -3.3489387 -2.6786387 -2.418648 -3.3040442 4.3757305 -4.0071344 -4.0868773 -7.192506 1.5267085 3.1298957 -1.8851976 -3.305498 -1.2336843 5.432506 -2.3744278 10.603836 1.9906524 1.1784617 2.0636814 -8.301174 0.55131227 0.81057817 -1.1930836 -0.3021595 -8.9331045 6.5778413 -2.0170748 -3.8941426 -4.856481 -0.3205669 8.363664 2.169489
729 -3.5315278 8.104881 -5.2931366 0.48069525 5.7733665 2.7227862 -4.294841 -0.4954739 -1.641627 -5.7720003 -0.42741796 -1.8777801 4.996202 1.659932 -0.8434269 -4.8819585 -6.415293 -5.801364 4.141023 -1.4135118 -0.404766 1.0972835 4.7608614 1.758996 -0.37824374 -3.0027661 4.0023437 0.24475878 0.29624614 -2.090897 -4.370849 3.0244026 3.308384 0.9143843 -0.6086766 -3.495141 3.8618762 0.10436649 -1.4155582 -2.977117 2.513544 -2.0701418 -0.53910327 1.4923398 -1.479188 2.251911 -1.9181435 11.186968 0.58465904 -6.106865 1.8836501 -4.5487604 -3.0171804 0.7676354 -3.2646885 -4.8353305 -3.5904198 4.4423985 3.6591518 -0.8491467 -2.8319328 4.3950996 1.10983 -1.5547628
908 3.7393067 6.842344 1.7331764 -1.6474359 4.279412 -0.2827626 1.4149104 5.7226 -3.7917533 4.7957144 0.8730873 3.861188 1.182076 -2.327566 -7.168316 -2.3948624 -1.5155264 -9.37492 -7.67591 -2.9085202 0.07717186 -2.2731822 -2.2019086 -1.0217745 -4.594825 -5.783745 8.903388 -0.3252666 1.7519467 -2.2579129 -7.5986915 -0.097687066 4.2420983 5.67698 1.1887165 3.4940047 1.4684569 -9.199531 1.9175248 -4.0219383 1.0247586 3.3662148 -7.495778 3.1316736 -5.1925626 4.094883 -1.622328 -0.637633 3.212918 2.6725671 3.824797 -14.833074 2.3305883 -0.6956634 4.609886 -7.949378 0.56271946 0.23742573 -0.122645386 -7.117654 2.5232303 0.58013946 6.0936813 4.082027
1629 2.4108696 -2.9296763 4.4496455 -4.279198 1.1143826 2.462392 -2.0349612 -2.1438541 -7.135537 3.7527797 5.4547434 1.4151932 2.109243 2.682288 -2.2126362 -0.6795417 5.36065 1.670586 5.4376726 -0.65337306 -6.31714 -3.3464656 0.3773185 7.234698 -7.720759 2.5671685 -0.7439355 1.1674392 5.6356707 0.66765684 -0.9274364 6.5082183 1.0707616 -3.1487634 2.597377 -5.9443254 -2.4444277 1.7079022 1.2864954 -1.6155368 -3.494852 2.1192677 -0.3709024 -0.18642773 -6.1560726 -3.7204897 -3.4713104 -1.0391108 5.425601 -0.25149807 0.48928517 4.1117373 -3.633736 -2.6166606 1.8491561 10.443072 3.0977545 -2.573118 2.4578722 -6.019488 -5.9880004 -3.9048822 -2.059155 -3.9830763
309 6.4996624 -0.3752456 2.7830243 -3.7844005 4.0236173 0.22260103 -0.55014807 2.5114117 -6.3668838 -4.9272695 -3.5165682 5.691402 6.763001 1.6699042 -0.69159824 5.253314 -2.4954162 -0.8103392 2.6308885 -2.5283213 0.28556332 1.6696823 -5.540972 -2.2618005 3.3828583 6.743881 3.45968 -0.06837265 -0.2810376 -4.891292 2.9990737 7.4837766 -0.29207465 2.1125348 0.8677732 -0.10692047 -4.732157 -0.4286587 -3.3614843 -6.8834314 -1.2602276 -0.5759251 -4.87289 -11.227434 -0.39636174 5.0248494 4.6281834 6.4953766 -2.8645678 0.9073754 -3.343811 -5.4524527 -1.9227016 2.3431675 -3.8659759 2.1967576 -1.7255547 3.2696302 4.8689847 -3.503284 1.9447137 0.9833005 3.1796095 3.7739363
1316 -3.5470538 -1.0711335 4.610486 -0.8055814 2.9341047 -0.7762054 1.4705336 -1.0865972 -6.8901725 -2.7153661 0.6537418 1.277413 5.0653 4.774774 0.47831506 8.181644 5.470646 -1.2674512 -1.153089 1.1755863 0.19391741 0.16542237 -2.4439616 -1.0852456 -2.4299319 4.410194 -1.5271374 -0.37788308 -3.7889955 6.8125634 -1.7773883 -2.1278803 2.6997201 -3.3244698 2.4931548 -2.028155 -1.7980125 3.448677 2.1169517 -1.4867096 -2.4126499 0.31917277 2.3041935 -0.9373658 -2.9178944 -1.5196414 -1.0788451 2.318424 -0.28055918 -4.1611342 -0.73794824 -7.121569 -1.1703538 -0.365023 -1.6032807 0.37325042 -1.3216119 2.04533 0.8847119 -4.886493 0.7671447 -3.0378067 1.6883693 -1.921778
592 3.9541025 -3.8581336 4.086917 0.17381893 5.9807987 3.0658176 -0.03807853 2.6329064 -2.5813665 2.9096744 -3.127485 3.8006952 -3.2860181 2.4983675 -3.4453344 2.3183455 -8.134928 0.41087368 5.7411633 -6.1794405 -0.14626442 7.866751 0.7347055 2.2937315 -4.5600147 0.52813673 0.9298397 -1.5400459 0.47224104 0.22953115 -2.548362 8.002535 3.182066 -3.1219075 -3.456508 -1.1436207 1.3731816 0.16354726 -1.9189706 -3.0517015 -2.1461213 6.565677 -1.3017915 -1.4749157 -3.8656862 -2.592531 3.7500017 3.2778077 -5.105183 1.635721 3.123543 -4.4625883 -5.583701 2.279566 -3.096939 -5.0879545 -4.398683 -1.3918425 4.620259 -1.0420698 -0.6653574 -2.1853485 5.6621413 0.365983
3837 -0.711927 -1.947467 -3.3912807 -4.710026 -1.2105805 0.116045065 2.0204513 -6.8707323 -3.7721517 5.3525677 -0.7589942 -1.5538887 0.7144041 0.50657153 1.9515352 3.3233178 7.400104 1.6751122 -2.9804666 -3.087297 2.513372 -4.073107 0.535239 -3.9976385 0.663781 0.92359734 8.72047 9.427613 -0.327035 2.0144885 -0.68053025 -4.3783684 -3.2598007 2.1359546 -3.0401049 7.8392353 3.6903415 -2.263894 6.195936 1.1852809 -2.754603 4.8591495 1.9999936 2.7448113 3.9836779 -0.2594694 -2.6682546 -1.1503423 0.5772869 3.2294137 -3.4479492 6.4592338 6.004439 1.4896815 -1.6825608 -5.4394026 -5.6594152 0.17764829 -3.9407413 0.6486202 7.791175 -6.09903 0.8723851 -1.0599852
1675 -4.2662654 3.403349 1.4908903 2.3490698 1.4709909 -0.67433244 -2.4074776 2.4341898 -2.5582483 0.7099974 4.5472045 9.367673 -2.0969045 -2.9898558 -4.7621193 -1.822098 -1.1766763 1.5017474 10.124019 -3.6768653 0.36070475 -0.47393838 5.174468 -8.042605 -3.6446378 0.073974065 -3.042761 3.766007 1.8564979 -1.2610635 -0.9842437 0.6806652 -1.0842167 3.4795566 1.9251695 -0.44521657 -9.521664 0.14150138 -1.7422246 -2.9945686 0.52997726 0.95553017 -2.0114925 -9.323339 -3.3520393 -2.468161 0.9368728 5.203045 5.3287177 0.4379515 -3.744023 -0.7618152 -5.080252 1.0970458 -3.702837 3.2508101 -4.614953 3.0737941 -1.7703389 4.915104 -6.685852 -6.619513 1.5538834 0.3073786
5612 -2.0149693 -1.5789102 -4.149151 0.7251906 -5.02329 2.1911771 -1.3084228 0.18001522 4.6201262 9.649283 2.2442098 -6.0694103 -4.6599536 -4.011506 1.5152721 -0.9421231 0.35704854 8.065433 3.7066565 -5.8677 3.1392553 2.9495704 -2.9073234 0.5053327 1.4495869 5.935355 0.059593707 1.6086874 -2.2920117 3.8187354 6.413178 -10.9291 7.753222 2.2540514 0.9219374 -9.406906 1.8846 1.0169389 7.6458807 5.201264 3.574988 0.20032676 5.3731503 1.5242547 7.5897965 4.7264614 -5.8193445 2.2823832 3.0917954 1.5411568 1.5304816 0.79186267 -3.792572 1.690487 1.5569048 1.0939692 0.0409372 4.172307 3.9925988 6.0536356 3.7873333 -2.606037 -1.469561 1.2080364
3820 -7.192674 -4.8773885 -1.2111065 -1.9895438 3.008182 -5.383826 -3.3555834 -0.21804315 -0.87571937 1.0937312 -5.9385247 2.469548 0.5514787 0.6489558 4.19389 -0.15281178 3.4978821 0.41285613 0.66399765 0.1764434 1.7515047 5.3096085 1.2513891 -0.7541293 -4.4104457 0.2704135 0.5005892 5.300597 3.1253703 -6.1091495 4.959624 -2.63699 0.2691088 -0.7348901 7.950748 6.082625 7.034948 0.74157983 3.8295653 -3.9549992 -2.213657 1.4877598 5.8099527 8.902301 8.136623 -1.2139988 0.48646492 -4.0302463 7.319818 2.922032 2.057444 8.446889 -3.5327997 -1.1047205 -4.043089 4.293712 -0.88331974 -6.44321 -2.1401489 1.5031959 2.016617 -5.1580467 -0.32171887 -0.43872374
6 -3.7717867 -2.9182577 4.720745 0.114500605 4.376516 1.2441148 1.0910983 -0.5877726 -1.6181633 -0.56228495 -3.945822 1.19138 -0.5628594 2.1915352 1.5218797 -4.2626567 -0.74436796 -0.32387322 2.411135 4.4822545 4.848826 -9.68954 -1.2504102 2.0840385 4.5736413 7.3261347 -5.4056134 -1.158653 1.7638034 3.2921393 4.298004 4.9550867 1.2420036 -0.24952327 -0.8945422 2.3129387 0.33694285 -0.71651345 -4.2047834 -2.813444 0.1934178 -2.0706208 -7.640984 -3.0211003 -1.4696604 -5.1958227 2.2536352 10.626967 2.6427436 4.1002364 -1.271284 -4.674103 6.2920027 -0.42958093 0.36803332 1.084907 -4.24403 1.4971017 1.4629 0.81226724 2.4465475 1.2258974 1.8297325 -2.2105296
3366 -3.0559611 -1.6364973 0.7592443 -0.93536144 2.6514032 -4.990857 -4.891706 -1.0153064 0.80422723 -6.5427866 -6.702265 2.001554 -0.010988835 -3.2062259 5.047903 -1.7888978 -0.07898612 2.213442 3.002172 -1.7828399 -5.494379 -7.5187154 8.07212 -8.545786 4.9445815 0.3762972 0.9010425 -4.649162 -2.2487144 2.1476698 -0.7629938 0.22442031 -2.094893 -2.7828248 0.44579193 3.7204082 -3.082803 8.334774 1.370643 -4.1102304 6.1840205 -2.1586268 2.6730924 6.1153183 -3.7237916 -0.6515166 -1.4334819 8.120598 2.2748191 -2.9573264 -4.0464673 3.415981 0.57033336 -3.1411986 -4.038164 -6.186734 6.7226553 5.4568233 1.0158639 -1.8344067 -2.002522 -1.7836256 -6.6260543 1.5403956
171 6.361253 1.1080915 2.3747056 -0.26356566 0.10377312 -10.544258 -1.8492829 -1.1438159 1.6766869 2.1015387 -1.6188711 4.5981836 -5.141042 -3.2476444 9.774042 -3.6327124 -2.2282014 -7.1489615 4.7887115 -4.481394 -2.0519032 0.34682316 3.0184343 4.969682 -1.303391 3.2819543 4.1404552 1.5556068 -1.0308822 -1.5846357 -6.007723 1.300422 -8.75966 3.940405 -2.667222 -6.369758 2.1723847 1.0099639 -1.1522602 -0.98257416 -1.8933308 -1.9567796 -4.0113506 -5.520346 -1.2860786 -1.7136273 2.039003 7.4344053 2.9803224 -2.282763 2.1013002 -3.935979 10.763329 0.8031513 3.1561356 -1.1254597 -3.6971955 2.7746181 -0.61748415 -3.8457823 -1.6671088 3.2587364 -1.1107727 3.0098207
1052 -3.0489018 -3.6144955 -3.6342506 -3.4905071 -1.8481709 0.49602428 -1.8602896 -2.0403373 -0.526721 3.0467637 -1.9279146 0.99677455 1.1250634 -1.5270113 5.359848 -4.7784295 -0.69402075 6.975699 -3.1477993 0.53761035 -3.8132498 0.73800635 -8.926157 -2.615924 -0.88030064 2.8125322 0.56468934 1.4855738 -1.2791213 2.863041 -2.0701237 -7.466535 5.496896 -0.14284089 -1.4322541 4.6261415 3.137571 -0.6082001 -0.741924 1.9324626 -2.771775 5.661768 1.4841826 -1.0744755 4.71161 -2.9742188 1.2282144 2.3016002 -2.7483537 -5.1289763 4.9797897 3.7552629 1.8828666 -1.8004526 2.992555 -0.3668471 -9.406394 5.569946 4.719563 3.410316 3.5114686 1.4662445 -3.3616993 -5.8372645
2 7.544307 6.7231264 6.9752984 -0.6529908 -3.7157266 3.0408783 -1.2069492 3.3721397 2.2183793 1.6460313 -0.99150085 0.100232415 1.799619 0.4680269 -2.6233184 -9.909907 -3.7750804 -0.4882924 -0.7057122 -2.100876 4.2616563 -2.5505555 -3.3649054 1.7231222 8.854894 3.324845 -3.0876524 -6.0750275 2.0832386 6.2553596 0.07694616 9.660959 5.127798 7.912614 4.6452513 0.48474646 4.639227 -0.94467115 -9.5380745 -1.9810605 0.38005733 3.4916534 0.1616334 1.1839652 1.1349181 -2.2074094 5.1606355 -3.0968645 -1.3950908 -3.8754275 8.293515 -7.2606053 7.2566733 -1.6704129 3.1382904 2.5862327 0.22642682 2.4936283 -3.9726584 -0.41088355 -0.8004906 3.3792248 1.6619253 2.1185515
550 -5.5516896 -1.7927314 -1.6037229 3.8619294 4.447053 -0.45774788 3.3545976 -1.0012845 0.35733786 4.0544367 1.4992453 -0.6200903 4.067361 -0.2769046 4.6323643 1.4400221 -5.92432 -5.5364804 5.5509124 -2.6973062 -0.96161187 3.8873646 7.1645813 1.2118256 -0.71009713 3.5774374 3.2308142 -1.8668493 3.1596715 -0.74349403 1.8352973 -0.118762426 -2.7527263 -3.737334 1.0493882 0.28195232 0.71675944 -3.5656345 0.32510966 -0.34905645 -3.4124987 -7.458462 0.28477207 0.38985345 -1.0575433 2.279721 -1.978243 4.8435845 3.0731435 2.5261238 4.952352 -3.167306 3.4907217 3.991273 -2.0805578 3.7288208 -4.201579 0.11129364 -0.99703526 2.5205593 1.2832812 2.1547165 4.812867 -9.771869
1735 -7.0462523 2.4260764 1.0471902 2.3059545 -3.4081802 -1.8424283 0.64154106 -0.46015075 -3.0411673 0.28294203 -8.926697 9.335895 0.8187424 -4.7427363 1.8957392 1.3394686 -0.3248434 3.561712 -2.1750853 1.4187397 1.9104844 -1.6953208 -3.273152 -0.61933726 0.5159869 5.0118647 -4.0623693 4.1043615 0.021742454 0.039563373 0.78504425 1.3501896 0.9049007 -1.4375738 -3.155417 3.1087713 9.364511 -8.417892 4.5580897 7.340713 4.9161644 -2.412597 2.37281 -2.386378 -1.063945 -3.6467028 -1.086955 -6.136779 -0.48813966 4.0501676 6.4598017 -0.704472 -7.0064087 5.161167 -3.399608 10.949534 0.7274545 -2.6703026 7.070392 -4.3286405 -3.4479067 3.6230576 -1.9071296 4.337378
3099 -0.615553 -0.95997214 1.3141125 -3.9148555 4.50022 -5.6499014 -6.560783 1.3362885 4.3488064 2.6422138 -4.3277555 5.014486 -7.0997953 -4.435768 -1.2881899 -3.1216745 3.6365685 1.6666276 0.30072272 -6.2729344 3.4446878 -2.903041 3.904194 -3.2594678 3.339563 2.7428327 -7.6717095 3.5294578 0.31801698 5.6154814 1.7072114 -3.8311143 -1.8467371 0.5667263 0.3186448 4.1867185 -5.8712816 -2.1209416 -0.77199733 -5.007052 -2.8316534 -0.18607709 3.5807257 -1.8555379 -6.445418 -2.965362 -1.1390294 0.37905905 -5.503217 5.9768176 -6.316216 0.97413063 1.8735648 -3.5385551 -0.74909747 -8.347538 10.893505 -0.15397349 9.57305 2.6543403 -1.463247 -2.8714442 -1.1836334 0.1583037
3578 -4.977871 0.5646414 -1.3593739 -0.8131994 7.541643 0.6402977 -6.298675 0.7901285 -4.5564747 2.5575912 -0.7460591 3.1064265 0.94271845 -2.2089567 5.182243 -3.341833 6.238742 -1.7406303 2.6103568 -0.26566273 0.022060908 -3.8572981 -4.2222815 2.7881122 -1.177861 -5.650388 -5.43243 2.4728694 1.3310038 -8.146513 -0.69921494 -0.40216285 0.33542347 2.7743533 5.2960167 0.98394877 3.481999 4.9000273 2.6484413 2.2830365 -6.5564003 3.0557263 -0.27967864 -7.9515977 4.395002 1.185556 -8.041442 -0.6342375 -1.3671387 -2.9772046 -0.19423904 10.967663 6.5898466 -1.8243768 -3.3264763 -0.69797885 2.2919967 -5.0382032 -9.229482 8.331275 6.1216435 -2.2781918 -1.8610663 3.1528165
481 -1.7087612 -7.2512665 -0.20634003 -0.95211434 -5.484562 -0.17587012 8.266146 3.7452781 -3.3153431 3.09818 3.1239972 -3.5405722 -4.45156 2.5157728 -0.17194918 -1.9157183 4.0818596 11.463666 4.512054 -2.3973918 0.53944427 -2.4319015 -3.4423647 -4.751476 -5.5868278 -0.44890994 -0.19898592 -0.3391881 -9.810557 5.7540627 2.2796485 -2.3741992 3.1159117 -2.7867613 0.97511196 3.0470116 0.4202278 1.8134046 4.2881775 2.091548 3.1883483 1.1141624 4.7222037 3.9886873 3.1575315 0.7982589 -2.821925 -0.2981119 -0.6795652 -3.3898046 -3.8117206 3.8906298 2.6482868 0.7006095 4.3910537 3.140621 -2.0594528 -1.0888805 -4.001129 -7.6576943 8.101916 0.73314244 1.8692921 -0.4050868
62 1.1493609 -0.56725425 4.3903685 2.6439953 -0.58005154 -3.2974114 -4.664286 2.3143048 2.4333365 -3.4806118 -9.478941 1.5935892 0.8273372 5.137266 1.0318772 -6.904709 -2.3114316 5.2041574 -0.2698879 -4.146371 2.6781385 -2.739316 -2.8124573 2.7887044 3.6530912 12.134479 -1.7999473 -0.75091016 -1.4843973 1.7111415 0.42968667 -0.3445158 -2.081212 -4.2047944 2.688809 1.4806275 0.46994278 1.8233064 0.5246641 2.7222888 3.8503962 -0.6518134 -5.3564835 -0.42003325 -0.43297368 2.4862137 7.218062 -7.386727 -0.6086035 -5.7190266 6.4041615 -10.182733 7.028744 9.34852 5.5944586 2.610394 2.5475533 3.060827 -4.6672773 2.239237 -3.9348 2.9864554 -0.29918626 3.0815663
198 2.3918452 -4.365978 5.325484 -0.69403696 -3.382352 -3.384683 -2.7157829 6.6631413 5.1420956 -0.068073325 -0.571645 -2.7143738 -1.9686022 -8.734411 -1.2101574 -6.2976575 -10.822651 -1.977213 0.2667446 3.0899508 6.8297257 -0.87023103 0.8395329 5.4025607 -2.0416322 4.736223 5.8107753 -2.0988045 -2.2780674 3.4133618 -3.252735 9.094601 -3.4674492 -1.1084648 1.3533641 -1.5925198 2.8853295 -4.3897347 -3.5497813 -3.6448605 -1.8176281 10.959926 -4.8985662 -0.0050117127 -2.3015656 -3.97006 7.262869 0.36413676 4.620512 1.8982282 5.031162 -2.2289495 4.107757 1.2258362 2.0951748 -2.5762663 -3.737036 2.9629111 0.49048808 -11.587732 2.2548325 9.076624 2.2249532 -1.9333352
3640 -2.3996 4.752619 -0.9239719 1.839726 -1.4357728 -2.9992146 0.57831407 -2.7968135 2.2348375 4.6481733 -4.6870003 -0.7311428 -2.7445138 -2.122896 -2.9699788 -3.7374191 -0.38578096 9.748663 0.9569134 -1.6921606 -0.25843924 -5.9763975 -5.840272 -0.68943876 0.9762262 4.4527693 -2.472833 3.8978968 -4.384723 2.5246463 1.6104478 -0.5086683 4.673448 1.6332264 -0.4681098 4.132797 6.296041 -5.3309345 9.012588 5.220555 5.770963 -4.100382 7.285014 -0.7047951 -0.77738416 -4.876957 -2.3535652 -6.2165976 -2.3499625 0.7424859 2.7416873 -8.161044 -2.8223374 7.0966964 -4.3065095 7.1610765 -2.3068485 6.2944794 -0.45333445 -2.2312677 -4.3397846 0.16539566 2.614881 0.78241384
3345 -0.8212153 -1.2592694 -2.609287 2.3619595 -0.66755694 1.1523722 -5.4634504 1.5024393 -1.4392779 7.481818 -3.2715766 -0.31003675 -1.5885388 3.631933 2.341108 3.340627 2.3451421 6.540344 6.870019 3.1843867 1.7921107 -1.6908302 1.334719 5.282631 10.043578 -0.28314266 2.5149424 -3.551528 1.3305912 0.42253882 0.9500062 -8.062858 4.83638 0.89498454 3.7966335 1.1792635 0.5137295 -2.4099295 9.374793 -0.6706391 -5.836709 -2.3685856 2.79806 1.0476518 -1.7433281 -0.33940262 -4.3654633 2.4777246 3.6307776 -7.0885 1.7017651 -1.8423259 -2.4532747 5.0054464 3.1725714 1.8164321 2.551728 1.9310963 0.61470973 2.840427 8.593086 2.036853 -2.380537 -5.9142294
3699 -3.80252 -2.1844554 -2.4537892 1.0631586 1.5837904 -2.885429 -3.4945748 -5.0938926 -0.17119639 3.154881 6.414591 -2.7337918 -8.129919 -1.3300997 -3.8927884 1.5833411 1.301884 -1.2127477 2.2950988 -1.0976503 5.6581607 -5.233015 5.7150173 -5.4430213 -3.966414 6.2371078 8.526885 2.2752013 2.5956666 -0.15801 4.284725 -2.3594456 -3.8744283 5.71846 0.7470125 0.22449522 2.2364001 -7.494343 3.7623384 -0.51681817 1.3468616 4.417354 -1.5521022 -1.3162974 1.4410725 -4.88789 -0.07869889 2.2103162 3.5662613 1.5141053 1.2596201 7.7072606 -4.1854477 7.5670547 -2.9974198 -5.759592 -3.1130698 -5.558415 -3.8252485 -2.7318897 4.857893 -3.6945906 -4.883475 -1.8729722
4515 -5.4355116 -3.7209015 -2.50405 2.3940775 -2.9831004 0.65106696 -10.131694 -4.957021 1.2681543 4.0888186 1.72035 -3.9136524 -2.1063452 3.0354817 -1.5482111 2.1024656 0.6938681 3.910606 -0.9679103 0.6984719 3.0711234 3.4273932 1.6311187 6.343199 -0.45315433 -0.52163744 0.15031497 3.335917 -2.3930788 1.9614612 4.2647147 0.37646627 1.4419903 -0.14852841 0.535415 -5.974478 -1.9680312 0.78251874 2.961877 3.841796 -1.9399635 0.059917886 9.10319 5.287836 4.1688094 0.6978417 -0.021948256 0.28082582 -0.36316633 -4.827521 -8.529032 1.9066143 0.22447965 1.6767584 1.9112152 1.9299256 -4.90006 -3.0892453 -6.1712217 9.49639 0.6868095 -3.2845542 -2.1956592 -5.6217055
1967 1.7876627 1.5217685 7.779438 5.020484 1.2419049 0.76124793 -3.5230193 2.3847349 -8.179901 -6.161842 0.058827512 -1.5376287 -2.722084 -1.2774531 5.0914598 -0.9761619 2.3065763 3.99638 4.488554 -0.2828157 -1.8721446 -4.6326885 1.7420584 0.016593998 -0.7577768 -3.1608715 -6.0328236 7.4198093 7.051676 1.7321209 -0.65553147 0.9062519 -1.2258526 1.9610386 -3.8581917 4.12892 -9.340758 -0.8659201 0.04957393 1.3703898 0.19028811 -1.5551643 4.835311 -2.564858 -2.883168 -4.957105 -2.3776724 6.9446015 -2.7041056 -4.7924953 -0.5189147 2.232374 0.24571384 -1.6195196 1.8158336 6.0108933 -0.8351053 -0.613172 6.6146464 -0.5864909 -2.1496754 0.8407522 4.200617 0.4805727
270 4.154019 -0.057778798 2.5355752 -2.5234954 1.0651022 -0.13249011 3.152437 5.3663664 2.9660108 -5.109777 -2.9176888 -1.221628 7.3505087 1.7455649 6.024282 5.9441643 -3.1446812 -3.0621257 -0.6077093 -2.0777583 2.1485136 0.013937151 3.396783 4.969529 -4.6688166 0.1530434 1.7005527 3.456664 -11.579736 6.9454365 2.7729704 0.09141643 1.4137429 -1.8561282 4.5606194 1.162406 -1.0511422 -1.8982629 -3.7008803 2.5061982 0.48871607 2.8064258 2.6470778 -2.933764 -3.9861197 4.2882314 10.991046 4.2791214 -1.512551 0.7679045 1.2381372 -11.596487 7.788249 2.138767 -0.123659745 -0.21065524 -5.253031 0.15988047 -2.5960333 0.70559174 6.610148 0.91072226 8.088476 2.0239677
3465 -5.283196 -2.6533937 -1.5717585 1.1913038 -4.682103 -3.7340736 -5.507664 1.2656049 -1.2973431 5.710892 -4.681163 -2.6451383 1.5007353 0.08098044 -1.8281302 4.28648 0.6979737 -1.1299667 3.1908371 -5.6385417 6.5480876 2.835298 1.4388988 5.6494846 -2.6752853 -0.48050988 -3.6925387 2.5049496 -2.9359074 -5.1176667 0.25092456 -2.4924543 3.2862773 5.4157047 1.4506458 -1.4485599 1.0694873 5.327348 -2.2272043 1.6770513 4.245182 1.0328575 3.4953806 -6.6146145 -1.8902712 -3.5185127 0.39445576 1.0787565 2.2638168 -1.3805928 -1.8565115 4.921491 -1.5557846 -0.24200293 2.2170208 -8.234997 3.862512 -4.323772 1.27048 -4.2929554 5.285035 -6.3136897 -2.0267007 -4.7439446
3219 -2.5852656 9.678468 -2.545108 -3.5182421 -0.79509115 -0.20283268 -8.937738 0.3803607 -3.1067348 -0.72436816 -4.0699625 6.4694266 0.28721002 -0.01597193 4.0037727 -6.556997 3.554335 -1.431969 7.336867 0.009320037 -5.4672837 -1.0443243 -0.78841543 -8.704396 -1.6600169 -1.7873746 4.891934 -1.8430423 2.417612 1.2589655 7.5052476 -2.2752407 2.6220891 -5.937513 -1.3020035 -2.883701 -6.5308414 -0.025341062 -0.8631651 7.425821 8.639744 3.8329217 -0.7085584 5.954048 -1.1079534 -2.3562963 3.8669095 3.7765543 3.5578787 -2.2534542 1.9153522 4.1320715 0.61064106 -4.5210342 -0.4704134 -2.8251204 1.6710211 2.2147222 4.5219493 1.7648859 -1.7819607 1.1884592 -4.4316688 -4.8487525
540 -2.2700372 -2.5774431 1.3732355 4.532397 6.2050977 5.576922 2.5802846 -2.2259376 3.982251 6.5682616 -0.18549341 5.3472137 3.348423 4.053614 -5.201746 5.831334 -2.8199527 -6.116323 -0.6235268 -1.1106116 0.22853203 1.5326126 -0.22761875 -3.2340865 0.17037253 -1.4433178 -1.9311879 -3.9817188 5.12919 1.5371844 -5.3288846 0.8871833 4.875082 -1.6762781 -0.6920653 -2.3639474 -0.30251777 2.9842734 -6.1626034 -1.8483518 -4.1411314 2.3852637 4.428857 0.9295038 0.51651335 -1.3035619 1.9139996 4.649462 5.257781 -3.3401375 -4.6894655 -2.7992666 -3.576013 1.5636952 4.256646 1.7447402 -8.4495 0.9174032 5.9350114 -3.2472973 -1.6611911 -3.9622035 -6.942688 -2.0976524
2397 -6.948171 0.42577088 -1.3469262 -0.23056273 1.2120395 -3.9589684 3.836073 -2.0305812 -4.5164347 2.4723182 -3.5177252 -7.9855766 1.066465 0.19852105 2.0043392 -0.19473831 -2.9537594 -5.4513273 6.5499144 -7.688992 7.0415196 4.878927 2.0571747 -3.119301 2.709171 -1.7173425 -3.8578026 -0.4082617 5.360263 1.6450872 -1.4065567 -2.448928 -1.6322126 -4.699617 1.4546777 -9.929357 3.5527415 -3.0359752 -5.8498487 5.2702227 -2.440232 -4.5724463 2.1962328 3.0402012 1.7403436 4.177263 -0.6663803 0.34684527 2.0689394 -1.1658378 -3.5771716 0.7246977 -1.5897665 0.97240204 2.6708572 5.731665 -3.0086596 -1.4664904 5.7606597 -0.36524785 1.3295957 -5.2272377 -1.1339927 -8.964543
1366 -2.0709093 7.341397 8.274069 -3.143749 6.130613 -0.4745028 1.7215317 -0.018301146 -2.937376 -0.16773553 -5.558598 2.267466 4.0743723 1.5421139 2.7409053 0.7153358 4.116146 0.6540272 0.101497084 -0.7869262 1.9736464 6.599267 -3.295232 -1.9989809 0.7425263 0.43224207 -4.047243 -3.3627603 2.1709054 4.023962 -12.716561 1.7918954 -2.116723 4.020336 -6.908448 1.4722096 -3.1386514 -2.4629138 1.3547149 -0.580895 -1.0779012 1.8714703 6.0506563 -3.539398 2.0681257 -0.233281 -4.9228525 2.2165 2.2904549 -4.7841873 -1.1921269 -3.470255 -4.676737 -7.6269026 -3.414735 -2.3222826 -6.474003 4.389998 5.7728133 -2.4794595 1.0049121 -3.8644202 0.43800125 2.6721709
4779 0.56028104 -0.6465309 -0.068717234 9.198664 -6.780786 9.436178 -1.5456419 -3.5528858 2.5557916 -1.3692857 -4.1252275 0.5005288 -4.0667553 1.0147187 -11.278642 -1.5282422 1.5086224 3.225605 -5.0705633 6.243959 -13.891591 2.4633725 2.0000892 -1.7183814 4.3939567 -1.6995686 1.564656 5.4944487 2.902088 1.5320008 -7.317859 -1.727439 -5.422996 -2.4373593 -2.110886 4.947828 0.80499643 0.36892033 -6.3357124 -2.265525 -0.81682783 4.119366 -3.2839873 2.7943704 -1.078612 -3.6472394 5.0269856 -2.6988833 -1.4230288 -1.9614857 -2.5087593 9.271553 2.0354745 0.42339283 -6.684969 2.9957209 7.9130917 3.6544516 -6.5450916 -0.08529106 0.0961016 -7.428627 5.8335648 6.306741
1185 3.6949632 -3.7692137 16.18324 2.763528 10.047564 -0.7646943 -5.599489 0.25892007 1.4690924 -4.4947944 -6.849018 -2.3400435 1.4066087 -3.908839 2.014745 -2.2229555 -1.7787734 0.17716652 -0.6498646 -4.8952775 -0.80224943 -11.776312 -4.930318 -6.950563 -3.0367393 0.8581157 -1.982427 4.784472 1.5473719 -2.5130694 0.97306615 1.6615044 -1.101943 2.5938742 -2.7067835 4.175228 -4.6697435 -3.8287272 1.2000881 -5.080506 -4.111224 3.0448306 -2.6164136 -3.4130135 0.5968871 -2.0219743 -2.8668575 -3.2299538 -0.08197874 0.32873487 -1.6072574 -3.5268679 -6.022603 2.731966 -1.6420803 4.61084 7.9791913 1.8991135 6.3457556 3.323228 0.33330885 -0.09648079 1.9315236 2.8649223
1815 -0.018534647 8.674757 3.8110178 -3.802815 4.494304 -5.0184593 5.3459992 1.1712883 -3.8580315 1.507657 3.8892593 -5.518266 -1.774227 7.5699363 4.0022717 -1.9563533 3.7212987 0.64473456 -0.9116525 3.9780593 1.9888304 3.8103845 0.6544289 -0.062312085 3.6369452 -5.8426814 0.46770087 -1.9501926 -9.492075 8.105503 0.45608476 -5.560425 1.1427995 -0.8906141 2.3502476 3.6564724 -1.802314 -0.47556174 -2.4080346 3.9342837 1.0940619 -0.15082365 5.501767 -1.926299 -2.812327 -1.6224415 -5.169443 1.4236237 -6.9603705 -4.8682814 -1.5448185 9.166824 -1.7138671 1.9769005 2.1371546 4.329995 1.8224587 -4.601749 -1.0185411 -3.7786398 2.7606413 0.34946156 0.32555303 5.058567
