2000 64
1969 -0.23868543 -1.1471186 1.5460006 -4.1352367 -4.7759676 0.3818341 -0.9217624 -1.9422375 0.7796547 -3.7582378 -4.4935193 1.3765148 0.34721252 0.56418276 1.228788 -1.5875407 3.1168413 -2.6190891 3.3486676 2.6326473 1.7902008 -7.5551133 -4.693388 1.9982443 -2.7776966 -6.2450294 -2.434395 1.4889507 -0.24434525 5.0702915 0.2139821 -5.4824905 5.4627357 3.167264 0.60143596 2.008851 2.4409118 4.5275645 0.7141659 2.4363463 -3.9697533 1.0032622 -3.3348472 -1.7672508 2.3500514 -2.4511352 0.19163382 1.9808755 0.15756808 -3.5110552 3.505304 -3.152012 -2.5136294 -3.8623524 -3.6466424 -1.4788083 1.7337117 3.282246 -1.9424981 2.6034114 -0.031311132 -1.7947761 -6.8193593 1.7870308
686 -0.90567636 0.53523195 1.0580596 -1.3660799 -0.17583083 -1.3560824 1.7156903 5.0724072 -1.4390002 -0.15547924 1.0274882 -3.8903692 5.5346284 -0.9699097 -3.8486786 1.5229622 6.512336 0.5995331 0.59084994 -1.3911891 2.349691 1.43487 2.0574358 3.7876682 1.3592734 -0.10529177 0.02159032 0.47474653 -2.5296211 -1.9592838 -4.497192 6.153361 3.9697585 -4.2672453 3.6691382 0.3243584 2.612763 -1.9310157 -2.7587533 0.61840224 4.7841864 -2.0903785 -4.840257 0.17149769 -3.9656286 3.4014156 -5.002298 -1.5915031 -0.047060877 4.0956736 2.3995347 3.8532207 -2.4382784 4.212895 -1.2997268 2.0499194 1.2910024 -0.7289243 -0.18487406 -2.55818 2.6763062 1.8176701 -1.1406063 3.2872314
1301 -3.1544409 1.3201909 1.6262387 3.4266174 2.0073009 -3.1026309 1.0816739 -0.74839467 -1.914648 2.2096138 4.1385565 2.013334 -2.9160445 -0.48047554 1.8349748 -4.7435923 -0.14397204 -8.185572 1.5877572 5.526955 0.28238973 1.9078747 1.0696963 -1.8819698 2.1611428 -1.3302063 -0.023481034 3.2906594 -0.83068883 2.249897 2.7954094 3.6231906 -4.5066466 0.93829066 -2.4401784 1.8268167 1.6096848 0.42110413 -3.006388 -2.8966463 0.99765325 -3.0372386 -1.567076 -1.1566865 -0.88877463 -3.0636334 -3.6317945 -3.5637136 4.33241 -1.1723919 -3.348319 1.4952142 -1.8211597 -1.6971334 -3.1445403 -2.3620613 -2.0942307 -4.171253 -2.1525502 -5.0510774 -1.5716039 2.8279397 4.8151846 0.7625633
1160 -3.7197208 1.4224547 -3.9741452 1.7888564 -1.773158 -1.6822685 0.20134935 -0.9968537 -4.1480722 1.3511112 2.5698512 0.86471474 -3.79521 1.9660604 0.06685158 -0.07672696 -0.15192124 -3.3238595 0.9679317 1.3059725 -3.976738 2.9402661 -1.0537655 -3.0171783 -2.006016 1.7636272 1.3017435 3.28674 2.5972846 2.4129734 -0.5315649 -1.4556162 -3.4189875 -0.78634465 -6.0012994 -1.1498857 -4.884286 -1.5131496 -0.6185939 -1.6718338 -3.2187457 3.1185956 -3.001008 1.6467692 -1.417449 -0.32596666 -3.3688383 -1.8589777 3.223659 -0.7556794 -2.9857183 -1.077817 -2.3740804 -1.6430166 -3.6758983 2.8600824 -2.869431 -2.6420715 -5.7893195 -7.919166 -4.731275 -0.51542145 3.3335268 -2.3121462
960 -2.6556559 4.3614388 -2.978511 -2.5463746 -0.9252512 -0.5442638 -1.1545476 6.3208427 1.1168888 -3.0440402 1.684936 -1.1996136 4.026956 -1.5565273 -1.8014171 4.753662 7.7432704 0.78604305 0.6097105 -0.14823951 -3.1648195 -1.9477524 2.17644 0.06422894 1.8911018 -2.6278946 0.0414097 0.32972276 0.48620752 -6.1177597 -0.60663426 3.8007882 0.3764775 -2.549422 1.7768174 -2.8382442 1.0921437 -1.2688097 -1.4791725 -1.8547974 1.1962342 1.6206748 -1.4240175 2.137848 -2.7585754 0.69975144 -0.5169289 -0.4346975 -1.0155346 3.351376 0.7348458 5.057267 -2.158823 0.79877496 0.5591116 0.45458284 5.2336287 -4.328187 -3.808281 -0.69503665 0.92996734 1.8985037 -2.1749873 3.7593555
192 -1.2187808 -1.2812392 -1.1039169 -2.9432166 2.540319 1.8619465 -2.8765345 0.27283636 0.42487723 7.7963157 -1.5629191 0.6395055 -4.6974077 -1.1043034 -3.647769 5.725279 4.252835 0.01662586 -8.354396 1.7622585 -1.8065511 -3.2391841 -0.26368934 -0.00919104 -4.7528543 -0.9434589 6.0831933 4.131167 -2.9969447 1.4489623 -2.0562687 1.2580538 2.1047623 2.8025818 -4.0125666 3.9056327 3.0413218 -5.1231956 -1.4925472 -1.7891294 -4.6812663 -1.0214988 0.3347881 -4.081233 3.0795321 1.4524827 -0.59705335 1.5285501 -0.37905025 -1.6691554 2.9388368 -1.7968328 0.9034817 -0.38453063 -2.343084 -1.5604236 3.9961295 1.8143301 -0.8062671 2.0908737 -1.1579232 0.126583 2.9832706 1.3109504
1211 0.02930211 1.1836361 -1.1633065 -1.7481333 1.4342206 2.7034657 0.80126715 3.5559695 -0.52787954 -3.2258313 -0.6975197 -2.3392687 5.343291 -3.345326 -5.040026 0.9770821 8.1603775 -0.8472515 -4.287014 2.459158 -0.8188783 -3.556236 -1.2510052 -0.7014047 2.5527768 0.561275 -4.621402 3.6934183 -2.387909 0.14113455 -0.9786582 2.1970174 3.114039 -2.9094117 6.5041676 -1.3193358 -3.3124337 -1.0898484 0.626833 0.45850945 -0.45348436 0.85407865 -3.0478737 2.7814977 -6.2134366 2.5447915 -1.4394002 1.3870494 -1.7427375 0.3541136 2.3806798 1.5135726 -1.1148425 0.42494738 -2.6969316 -1.2849144 6.465659 -5.186382 -2.9561493 -0.42194182 -1.0437493 1.7105814 -2.9071496 2.6947803
781 -5.5338855 1.4852806 -2.396945 5.867419 -3.716261 -3.901955 1.1942315 -1.3205746 -1.2703893 0.44141376 3.0653372 -1.078528 -3.7416873 0.6488955 0.55121285 -2.8758757 1.5555055 -5.6316767 0.7941709 3.7640176 1.3102059 2.3615613 0.53462815 -4.5741477 -1.6783688 0.28201216 0.44428998 3.0823832 1.5501965 -1.532312 0.26196983 0.57459694 -2.24199 -2.0864666 1.8090588 1.1167754 -0.03305098 -2.289786 -3.2301877 -1.2167159 -2.1349297 2.152867 -0.9000739 -1.6945015 -2.3298712 -2.8975706 1.0278587 -1.2294588 4.7224207 -0.22766528 -2.4731328 0.9226314 1.5803494 -1.6060551 -3.589391 -1.4398168 -4.27514 -1.1284076 -4.601204 -2.737713 -1.7348397 3.194736 4.388769 -5.0499196
78 0.50085473 -5.64966 -1.5637764 -1.1649396 -1.6821127 -2.7660382 -5.4194283 -2.6191323 0.16717836 1.4229395 1.1938461 3.1843433 -5.9703884 -0.55082244 -0.96994925 0.40222496 4.0908875 1.89677 -2.468681 0.36348486 -1.0898076 -5.9772687 -1.0669318 1.7743121 -1.6303368 -0.77631736 1.8549418 1.4008436 -3.0812109 0.71303725 -0.34861234 -0.2864956 -1.3248876 -1.8997076 -8.251552 5.865728 2.397341 -5.106812 0.9142905 0.6994567 -7.1818857 -1.2252897 0.42221516 -0.8186925 -0.9155532 -2.5949993 -3.077322 1.829322 2.0684764 0.5352883 2.4384973 -0.47373635 -3.4115608 -0.6565496 3.1169786 -4.399838 3.7316248 1.1795528 -0.3402741 -2.1073587 2.3794188 -1.5126791 1.9485662 2.9117954
566 -4.1771197 -5.93736 1.6266942 3.5793145 -0.86872494 2.9772398 1.795633 1.0320637 2.9398687 -1.1480044 -2.7010467 2.1804957 6.3070145 -5.4219637 3.2908947 2.8825076 -3.7745736 2.189876 0.18982749 0.2348746 -5.935612 3.1456733 -2.3337922 -2.459048 -3.355285 -0.3792661 0.0928145 -0.935758 1.5533818 -5.7943845 1.455886 2.1488433 -2.3108883 -3.4336293 -0.67609364 -3.2981749 2.2355871 1.5982193 -2.3342872 -2.4299316 -1.8027506 1.7394929 3.3631322 0.03390835 0.4024737 0.2202137 -0.3077355 -1.0753088 0.4000429 -0.24268499 0.5359232 -3.9707232 1.465222 3.8657427 -5.826737 1.9653733 2.7469447 1.1089661 7.4109063 1.3574215 -0.03154991 0.005397942 -0.06997069 1.210546
87 3.2639918 4.8553905 4.447527 -1.444476 -0.98252356 0.23763369 0.5512864 0.85734147 -0.06764828 -0.28749952 2.3715308 -2.0110006 0.1908443 -0.14010346 -2.3178074 -0.7757681 -2.5732174 -1.9166332 1.2220234 -0.4364935 -0.5004273 -0.57429063 -0.3160788 2.6663225 -2.570222 4.790952 -7.052112 -0.91230685 1.8746741 -2.1110249 -5.8315177 -0.651958 -0.3302884 -2.2235792 1.9725657 -0.48298347 2.319996 -7.580792 2.924042 3.4288893 2.7730992 1.2249644 -1.7849529 1.7926283 4.3808513 3.9189239 2.0621774 -1.5500755 -1.5164769 -3.286325 -1.4990928 -4.769089 -0.6838201 5.181388 2.481249 -0.37781993 -3.0570905 1.4488964 2.15826 -4.0677705 -1.8957927 -1.4685522 2.80465 -0.550067
169 0.56055564 3.3796027 1.5916628 -1.2361118 -0.34734955 -0.9872947 -1.4496188 -0.15594614 1.9906132 -0.8546909 -1.1902063 -2.8307388 3.0004575 0.039626226 0.15332942 5.7077394 3.8919554 -1.9129541 1.1313767 -3.7292433 0.41915855 -0.85992575 2.4276702 5.481364 4.1090074 0.17037214 0.014900993 2.4965947 -2.8775032 -0.32794997 2.2633123 4.1263633 -1.0047785 -4.529543 5.2117267 -0.024046822 0.3017343 -1.762947 1.9458692 -3.3053849 1.6300449 1.6135982 -4.0312653 1.2748355 -1.8213152 1.4281181 -2.6717043 0.6896999 0.09059414 5.099068 -2.2865121 0.53919446 -3.3579261 1.0472727 3.1950505 -0.62400866 4.859273 -6.053059 -4.879054 -2.5433033 -1.0188777 3.6026282 1.5278745 -0.56084377
845 -2.0038197 -2.9061894 3.3018618 5.197341 -3.0462956 2.6393452 0.9313156 -0.12792096 0.047233194 -1.1234117 -5.200471 1.5581005 -0.37894213 -4.0954113 -0.034962106 -0.15033685 -3.5060623 6.5756035 -0.20784049 -2.0906281 -3.7419846 1.3745822 -2.934097 -1.3811398 -1.9028423 -0.2132059 0.27770895 -0.22308339 1.4437879 4.61128 0.6262201 1.9298185 -1.2939612 1.8764132 0.5844312 -4.605837 4.215877 4.013496 -1.0768557 -6.6564384 2.6788628 3.7887912 0.22574806 0.52166843 -2.4263659 1.9781835 -2.6220813 -0.19948368 3.0414321 -2.1616306 1.9982945 -2.5669355 -2.5900095 3.028649 -4.850122 -2.6432312 0.6128282 0.42587647 -0.06100911 4.8011827 0.27711242 -0.44351536 -6.6796174 0.4243843
630 -1.8997316 4.1745014 -2.3862505 -3.4039443 1.7919929 0.35857633 -1.012394 2.7409506 1.2207527 -0.48201615 -0.42155245 -3.2939537 3.5071092 0.038067132 -3.9112463 2.528078 3.229735 1.4213302 -2.6270583 -2.4377248 -0.87286067 -1.7534299 -0.48844028 3.0830696 5.4742737 -2.2030706 3.8447797 3.4432244 2.3294673 -3.7435036 1.219783 1.8984405 2.6376088 -3.3528395 3.5254557 -2.2703917 1.1160041 -0.80118227 -0.14474054 1.4021155 2.630657 0.6788513 -4.597777 2.8601017 -2.988259 0.68985707 -6.3260937 0.945308 1.1925802 2.8819113 -0.40091923 0.24751805 -1.4466382 4.106583 2.1052506 3.0228238 4.7265806 -2.167385 -2.832755 0.25941113 -0.69863683 4.6243753 0.95955795 0.13481799
801 -3.3082883 -0.5555157 3.9004836 -5.82078 0.16714416 0.58567584 -0.100568555 0.87648416 3.0894465 -0.7016634 0.21105579 -1.9387769 -1.3070906 1.3837892 1.2328069 -0.83468354 -1.3012197 -2.8530486 -1.394837 2.6773198 -0.20566228 -2.3927336 2.6699095 0.5345157 1.5696659 0.11635901 -2.7875001 3.729877 2.4070792 2.7442684 -3.092692 0.67305565 2.4594877 -0.110060036 5.3529925 3.1318927 0.66339266 3.0155869 2.9684923 -1.8610599 0.76506037 1.5742214 -4.793305 -3.8962104 -4.665359 0.110934995 1.9171219 -1.8890079 2.9982815 -2.6698499 -0.27815035 -2.9833117 -1.8015385 -1.8640608 -2.833417 -5.2080994 -2.0660386 1.3646243 -3.0785186 8.202331 0.24201603 -1.143145 -2.52034 3.7267203
1931 2.4591284 3.8866525 5.231869 -1.7101171 -0.6201978 4.8123717 3.4176009 -1.4829918 4.090603 -3.5857673 -0.6063083 -0.8010212 -2.9679604 0.73745036 -2.1534274 0.49238667 0.48636788 0.041927177 0.8464489 1.0514007 -3.8076236 -4.4334593 1.6516861 2.5282133 -0.70367384 1.7549478 -6.4627447 -3.5568478 2.5958092 1.3455473 -8.236712 -2.6731448 -0.14110984 4.1223154 4.119898 0.5469215 1.7819399 -5.899224 -0.49502647 3.8746455 2.5176938 -0.99647844 -2.7342215 3.3137422 4.6420884 -3.916476 -0.08026899 0.017201003 -0.9918811 -1.5943819 -1.4600391 -1.9382557 0.7747509 1.0976822 1.9756355 1.7351011 -1.3379873 1.6769443 -0.12863941 -2.2489955 5.2289767 -0.13067475 -3.5255604 1.5715485
1526 1.9289085 3.887005 3.4539852 1.4675565 2.0400145 2.4799235 0.7520285 2.7583396 -0.2850296 1.1212925 -0.98781645 -2.4197228 1.277224 1.0311073 3.5039403 -0.31182536 -0.41659358 0.8217811 1.9676921 -3.9470885 1.2298995 -0.29801005 0.16981758 5.706868 -2.3542504 -0.28814396 -5.861063 0.23880447 1.1559653 -1.3297639 -7.114683 -3.0735219 -0.22653684 -4.219073 -2.0068293 1.1767282 2.055398 -5.5198956 1.3132095 0.72008884 0.43204117 -2.4527302 -1.6463166 1.2446109 4.3564577 0.6786253 -0.34928387 -2.756197 -2.472655 -3.3001964 -3.6323442 -3.9136667 -0.7328344 1.9557137 4.8549385 -1.8065642 -3.460695 1.0285238 0.88443065 -2.3274791 5.605432 1.1620064 2.0808358 1.1833664
1985 -5.289306 -0.7002583 2.232817 -5.2040434 -0.32295874 2.366186 -2.3698618 2.8125114 2.806681 1.3919894 -2.9155571 -0.73150736 -1.8690544 -2.2079213 -1.3907555 1.9878944 2.8408568 -3.4187214 -4.9530616 4.209782 -2.631078 -5.1548553 -0.78668416 -0.61471415 -1.4784536 -2.3261292 -0.026456773 3.407809 -0.083059065 3.481681 -5.133302 2.5574281 1.0589541 2.038289 1.3769302 5.542052 2.2604938 -1.233819 0.46257886 -0.57370216 -1.798409 3.7529619 -1.4570074 -3.2960715 0.45532387 -2.1385334 -0.2407345 -0.6282868 -1.2417887 -4.06324 0.714014 -3.846987 -0.8199569 -1.3039192 -7.0191784 -4.6891365 1.4209232 4.992434 -2.4666982 6.094882 -2.9431217 -1.3908794 -0.03303663 3.8981397
352 2.814381 -2.9756474 1.8065897 1.5448489 -1.8877203 -5.826133 -1.0321969 -0.15254623 -1.3980358 -2.5552213 2.322379 4.2868953 -3.7863643 2.19122 3.160698 -0.62268865 1.506543 0.49336323 -4.213666 0.9859811 -0.13413207 2.178425 -1.755865 4.2208643 0.078294 -1.6070644 -2.787727 -4.6890883 2.171817 4.0084352 1.8330873 4.0598044 -1.153577 1.3469515 -3.970798 -2.3298826 2.6883228 1.0356064 5.07404 -1.5868781 -4.9688106 3.4200191 1.0381049 0.6860908 -0.21604529 -4.485003 -8.669065 0.019747732 1.8406358 2.9190624 1.5456789 2.0571744 -0.54754287 -2.4322426 5.4860606 -1.357259 1.753623 2.3053665 3.683001 -1.5752188 -0.23319606 -0.60627013 2.1409073 0.79581785
1303 3.8827283 -2.841524 -0.33828348 -5.3246503 1.082103 -1.3631365 -0.2770911 2.2270453 3.1532183 -4.026906 3.9573736 -0.6837884 2.069246 -0.8912248 -0.074646324 -0.76518106 -2.592174 -1.2186936 4.515829 1.4640741 -3.4677453 -5.1462445 -0.08322635 -1.3720058 -3.6177874 -2.226844 0.039572906 3.1195862 -2.5991287 3.4431884 -3.9463205 -3.266741 3.8566058 5.6848135 2.1397083 1.7441083 2.4634147 4.368755 -0.025190353 0.20407678 1.8516229 0.5270305 -1.0647211 -0.7796169 0.16898608 -0.6731015 0.2944224 1.61875 -0.85651207 -0.48485374 -0.31994453 -6.3113422 1.4008646 -5.788508 0.18060257 -0.9218177 -1.202541 1.6451755 -7.747482 8.025292 -0.9088962 0.44543263 -4.5076346 1.5840645
957 -1.1747266 -2.7902575 -2.12497 -5.771328 1.0530835 3.2296638 -0.36323544 -3.4953997 5.6506743 0.5258528 -2.4036322 3.1565351 -5.6588254 -2.297468 2.7611802 2.7247207 -1.6969459 0.1240811 -0.59677535 2.204582 0.6503735 1.825046 -1.2741879 0.52412456 -0.59088415 -1.8546852 -1.8181175 -1.5815775 0.69124264 -4.6435237 5.7828765 -2.6283252 2.8626213 -0.9274425 1.0476496 -4.727501 -2.760888 -2.0116668 -5.590791 -4.555321 -3.2535398 1.4604017 1.103802 -7.768093 2.7931058 -0.4499436 0.4248802 4.5010962 -2.6375191 0.26938418 -2.25793 0.37704074 2.9683616 3.684228 -2.9884865 4.6732397 -4.0766215 4.75182 3.90409 -0.7183491 -4.5313687 -3.072843 0.82669955 -0.92480165
718 3.373619 -1.8016711 -4.2267556 -4.414101 -0.87768507 -3.5587919 -4.2016253 -6.0081334 4.82386 0.08481617 -3.0306659 -2.298445 -1.155052 5.1836143 2.133308 0.29536164 -1.3562115 -4.761505 -4.3589535 -0.5797534 -0.7697126 -1.3755231 3.204085 1.2267048 -0.96177375 0.14655939 -3.0413923 -3.9366696 -2.0590725 -2.1111028 4.073119 0.4448554 0.11018484 -0.6489459 1.0335876 -0.39467028 -1.1137966 6.1581435 1.7346759 -0.47582397 -6.5979085 6.508098 2.1078544 -0.012157614 1.984104 1.7025965 2.3769174 1.2868336 -5.5270944 4.8645453 0.10694857 2.8268735 1.1601074 5.487891 0.770165 1.8094622 -0.98066586 1.118024 -2.2903678 -0.6943915 -0.13328463 -3.857 -0.20804934 -0.73588717
899 1.1820616 2.2708757 0.705909 -2.1686256 1.1223395 0.26623842 -3.757072 2.0690365 -2.1275995 -3.6417937 2.6438658 -3.9412072 1.2224402 1.3483621 -1.522959 1.228309 4.8329973 -0.9554257 -1.1217695 -1.4081348 2.4059138 -1.2098827 -0.74633 2.1504521 4.973268 -0.97955513 4.268681 -1.4617355 0.6959926 2.2202506 -0.62103415 -0.4990283 1.5857381 -3.1606107 4.62404 -0.7485662 0.039032403 -0.45161912 0.7022625 -0.4675071 5.2615075 3.8263478 -1.3518864 1.0580108 -1.2477136 0.2721683 -5.0980344 2.2713232 2.139158 2.493776 -1.922748 1.8504282 -3.4699385 -2.1746476 -0.9021183 0.5916476 4.9570622 -9.388611 -2.5296142 -1.3141168 2.8145456 1.6713637 -1.960221 3.1638813
1709 -3.5578153 2.3510678 1.9806772 -5.397964 1.4409325 3.231613 3.023671 -1.8822187 1.102169 -1.6938971 -0.25751942 -1.292579 0.21583024 -0.03770457 -0.016474776 -1.4604429 2.2892208 -3.1322618 3.6224928 1.4263105 -1.8255358 -4.2929177 4.773803 -1.0007312 -1.8219733 -3.6110969 -2.4931757 2.8534465 0.0047318013 5.6240215 -1.3549953 -0.5701035 2.4579937 0.116781816 0.9971289 0.01104675 0.19452958 2.2706113 2.2396066 1.2463303 -0.06587332 -0.5210669 -3.7644212 -4.6393523 -3.2628465 -0.37604398 0.33484018 3.0124211 2.9842248 -1.5594684 -0.8195229 -0.26949787 -1.5318358 -5.713846 -4.7541256 -4.9430666 0.15557025 3.5200183 1.7375095 3.5887053 0.17400318 -3.8170235 -5.9980307 0.60878986
1674 0.08892217 0.7291483 1.8570987 1.1193062 1.4972852 -2.924299 0.9366095 -0.74597204 0.48435682 3.7703886 4.2970576 0.655171 5.032256 -3.5192823 0.9598926 -3.910131 2.8501647 0.7298738 5.647822 -4.5404677 1.704725 -2.288219 -1.6223638 -2.539547 4.1207504 -3.0449798 2.036669 -6.0490184 -5.795386 0.4989039 2.6428645 -3.3838682 -0.09036252 1.4843168 -0.50897926 1.6404259 -0.84948194 0.4202307 0.19417304 2.105709 -0.68974656 3.4362772 0.6737489 0.10588056 1.6190104 -0.389661 -0.95880705 -0.6653008 0.02106448 -4.1024184 4.194333 1.8882087 4.1850777 1.5137744 6.6880136 0.21539447 -0.16238756 -1.105024 0.42074457 1.9266025 -3.0568023 1.234025 1.9699738 0.28347424
387 1.0574147 -3.0842 -2.7338915 -3.7202652 -1.0290624 -3.1176164 -0.75528556 -3.328249 -1.6693308 -0.17584322 0.3254661 0.08596312 -3.6329327 2.5600717 4.4703956 -2.2126713 1.9636377 -3.6852808 -4.1026773 -2.1777947 0.18245506 0.9377962 0.45905465 0.27109292 0.7140559 -1.2604554 -4.4771066 -4.652869 2.5204437 1.6019785 4.6874495 2.8799813 1.006771 0.12819135 0.54694295 -4.7082763 2.960613 3.3187613 4.0048656 -2.6790764 -4.940263 6.577326 -0.47238788 -4.5051823 2.9554682 -3.1266038 -4.0852885 1.5695859 -2.0890677 4.407904 1.3050582 3.5549557 2.6822693 2.3235626 3.3444526 2.9335132 0.56391966 4.1099095 3.4508326 -2.0892365 -1.1683136 -2.222654 3.369786 1.3014688
1779 -0.2992838 3.5090392 -3.271004 -1.5953884 0.37738624 -0.0108918995 2.0552835 3.466739 -0.23745374 -1.1972021 0.24043365 -3.8335013 4.008997 -0.99687046 -3.6870735 4.1046286 4.049894 -0.21662359 -0.49108434 -0.9795244 -0.94751835 -0.46113598 1.3414482 3.5601 4.7863197 1.9717485 0.08972576 0.26134166 -1.8656086 -1.2374828 -1.6017327 5.277267 3.7336087 -2.1215224 2.9639642 -1.2297945 -0.49165282 -2.5786116 -3.696814 -4.053118 -0.7256551 -0.93758905 -0.6455574 -0.4080757 -5.9632616 -0.29981405 -3.8259437 0.8953088 1.0811064 2.4043946 3.060103 3.2343223 2.2674117 -0.4037094 1.1664801 2.248747 2.496194 -7.337247 0.94388205 -1.2443057 -1.265334 -1.0826875 -4.03089 2.7099264
1684 2.4239542 0.89955544 -3.30865 -3.5417871 0.22922097 1.4004123 -2.8101695 -2.6727512 2.3729017 2.285289 -2.5128207 -0.37168834 -5.191656 -0.6202003 3.503359 -0.5410442 1.749428 -2.087357 -0.292188 1.4647593 3.0865686 -0.24248804 -0.17391695 -1.9761937 -1.0366905 -4.023677 -3.0227926 -1.8743519 1.7723475 -0.5490019 3.549186 0.6051307 3.8676684 -1.5303389 3.4305604 -3.0095978 0.50174415 3.1694376 2.499958 -2.1558566 -6.8064995 3.1500375 -3.0922823 -3.027218 5.385659 -2.075348 -3.930592 3.0898001 -3.4485593 3.3811762 -1.1578566 3.7231379 3.8275824 2.7000952 2.7917182 -0.85301614 0.5416308 -2.8503823 1.0390561 -2.135104 -1.7789059 -1.5220816 0.2293326 1.5172045
1541 -0.15164535 0.6522927 2.6638422 4.2513804 -1.5830102 5.473635 2.8948383 -2.4111369 -1.3005177 3.8190413 -2.705651 2.766796 1.585368 -6.473829 1.0514591 -4.6730857 -4.259078 3.3600702 -1.1525286 -2.2777183 -0.17026095 3.0794725 -2.7851493 -0.7563576 -2.6855366 -2.220575 0.7411425 -4.2590575 4.114858 -5.5757256 -0.0014062006 0.91735196 -1.4305104 -4.1329765 0.11810281 -2.2718515 0.030021505 0.85741496 -1.6635187 -4.1591043 2.2220273 -0.7683483 5.8189073 0.6453163 -4.303311 -2.3586135 0.19019978 -2.0810342 -2.463912 -2.371545 -0.9616768 -3.8376667 -2.5364523 0.106415085 0.2485864 0.28736755 2.7126136 3.9452033 3.652919 -1.5974648 -2.735287 0.50036854 -0.38814297 -2.3978715
1727 -2.641478 -1.6907659 -0.9001568 -2.171421 1.2265453 1.9853096 2.5369596 1.1537075 1.1053375 1.2764915 -1.6368674 1.9469612 2.3975432 2.762028 -1.4730632 -3.1885087 2.602778 -4.686447 1.67763 6.395889 -1.8180395 -0.47402793 -0.9215283 -2.6744263 -0.37517375 -0.90101355 1.3957322 7.414793 0.8157641 2.3560708 -2.640651 -4.5099363 2.429022 0.8223897 0.87580836 2.3190827 4.0710554 -0.34590605 4.003671 1.8801906 2.48851 5.4399056 -1.7460012 -3.5383449 -3.0879004 -5.190701 -0.6124986 1.5961293 4.0269423 -3.1352584 -1.4315265 -0.78247565 -2.0263126 -3.01744 -2.9950583 -1.6521518 -3.0652387 3.0872383 1.336656 3.8152246 -2.020052 -4.527108 -1.8008634 3.6836727
336 -2.3221035 2.967481 -3.9699185 2.3085303 -0.9475369 -2.3364286 1.654368 -2.6680431 -4.8077207 1.7096027 2.2929053 -1.8616621 -0.7188522 2.6844044 4.1940923 3.4779978 0.6167546 -2.0543263 -1.6684992 2.9530132 3.295269 1.0409693 1.2673434 -7.150669 -1.8866135 4.074062 -4.636448 -0.6454094 1.4638709 2.1842678 -2.8964207 -1.3042957 -3.0586298 0.067639776 0.32971933 0.9408544 0.43097195 -1.6721228 0.67658705 -3.223412 5.3524356 -3.3633208 -0.059376452 0.22768441 -0.5637628 -4.1599417 -4.166524 -3.5729752 2.3984523 -1.2531055 -0.7658147 -1.8875673 -0.2519534 1.0941539 -3.3982306 4.047564 -5.5711637 -2.9389331 -2.333496 -6.001841 -0.7272164 0.6869039 4.426262 -0.3398654
1363 0.58068424 -0.5224417 -0.5589881 -3.7279403 1.5419358 0.09328362 -3.5528665 0.49917227 0.74480915 -3.0881782 5.193374 1.8453581 3.8561614 -4.8986382 0.48453096 -3.6959236 -0.6495703 -1.9002631 5.692974 -0.6371404 -0.6064276 -4.7083035 -2.1201112 -1.6956687 0.4631127 -2.6271431 2.002726 -1.3590088 -6.202189 1.5041994 -2.9034154 -5.2297106 2.100565 1.824707 0.11311085 1.3780409 -1.8392904 2.740984 -1.1557903 6.830068 -0.21753189 1.3391703 0.41292548 -0.72817206 0.58535945 1.9444293 1.8978074 0.7336989 -2.2635155 1.9114316 2.9304423 -4.0276313 2.1506522 -6.116679 3.050159 3.5419457 0.17204751 -1.5014057 -3.8341622 5.0104475 -1.8350247 6.3397036 -0.1881602 -1.4361225
30 0.8755673 -1.0001305 2.2651968 0.32251552 -3.2080839 -1.7964383 -3.1915154 1.5174671 -0.6360271 3.5073507 -0.35520023 1.9407768 3.9669378 -0.09651926 -0.7270907 -3.1069899 -2.5175662 2.4353056 6.0520287 -2.448533 3.4534972 -2.5061648 -0.33161736 -2.6667635 2.6628509 -2.0203347 -0.33626384 -3.099225 -5.2345386 1.4992882 -0.5886613 -1.556761 -0.67333955 1.7103475 -0.93809 0.49668565 -2.5475004 0.97666377 -1.4494957 2.9667928 3.4122515 1.2452354 1.4674577 0.24077442 0.121685356 5.7038226 -0.40922877 -0.07235534 2.2709367 -0.93656456 -1.3866136 2.6084979 5.065885 0.15693341 6.2800217 2.5254858 0.38662142 2.6186569 -1.0096184 -1.4247504 -2.9824624 0.10901423 -2.268792 -3.830417
433 -1.6279964 0.9857349 -0.25954056 -3.4582202 -1.2302506 1.1755781 1.1709863 -1.1714464 -0.5987613 -0.67629254 -3.2950015 0.6792701 1.2083558 -0.070983835 -1.4621072 -4.3432446 3.5123956 0.11422097 0.795939 3.5360217 0.24708991 -3.8523567 -1.6088927 -0.37598246 0.40926203 -4.367241 -4.791398 3.2929626 -0.6298274 6.0638375 0.4085715 1.9242533 3.8182855 2.6054654 0.9806502 3.5900865 1.2848492 0.45364124 -1.5706198 -0.8349948 3.7320552 -0.471412 -1.2343637 1.8288053 0.7245949 -4.4796247 2.6521425 3.0352733 1.0344186 -2.4430258 -0.75996906 -1.4994109 2.0868483 -4.912206 -5.369337 -3.2955835 1.2611216 6.17027 -4.6271772 3.2615037 -1.3934357 -1.8228345 -4.081019 3.9392555
732 1.9557314 1.2144817 -0.48150912 -2.3669386 1.3273149 -5.0634036 -0.2700064 -3.0085862 1.0147445 -3.957754 -2.5465353 -0.4950771 1.9382391 3.369757 1.1929846 -0.26748303 -5.5194807 -1.8758146 1.6406652 -1.2688105 -3.330521 1.562296 2.8059657 -2.198342 0.48395392 2.668341 0.9730551 -2.106262 -4.8495245 -0.8995179 0.559826 -0.78161716 -3.757203 -3.6071134 0.8457683 3.265007 -0.97967535 5.436589 5.1974907 3.4307768 -4.9953833 2.286246 3.2311192 1.8242788 0.15556146 -1.8596135 4.1411233 -1.3785759 -5.129116 1.8329132 0.67382455 2.0865147 1.5422139 6.2504373 4.13511 4.6130457 1.223882 -0.25967777 -0.97749805 2.7677498 2.3436294 -2.805305 -1.4089406 -0.96762836
1591 -0.6594442 -5.129824 -3.3354907 -3.0803905 0.048259676 -0.28815222 0.1013997 -2.4660203 2.6690722 0.23712344 -1.1532054 1.4373974 -7.0515857 3.1793838 3.8248632 -2.3753202 4.7436543 1.0337325 -1.9230347 -1.5701482 0.754937 1.9840809 0.065394886 -2.8125236 -3.4332287 -1.206057 -1.3215216 0.083440326 2.3746393 -1.349871 3.2609606 0.65952307 2.2713192 2.9052088 3.8383715 -3.6402712 -1.2436297 3.792792 -3.5161548 -1.4785241 -0.68156016 2.2441726 -2.932218 -2.4039211 5.782056 -4.0941076 0.6292215 0.71981055 -4.586719 3.6763635 -2.9472575 0.25374484 1.9019667 2.169853 2.687061 3.177252 0.07069791 -0.2953403 0.281539 -1.9469403 -0.06154844 -2.1681547 1.2295102 -3.6797404
1517 2.594062 -0.20148762 -0.61203474 -4.6456447 1.1262888 -3.3858197 -2.9365969 0.5136324 0.08065965 -0.798267 4.8223677 -2.6647778 -0.99446017 -2.1903148 -1.6768568 -1.3589656 5.8860674 -0.09609689 0.006922527 -5.205384 2.1796255 -0.50469255 0.101076365 6.371797 2.3650618 -0.40495434 -0.41897973 -0.2237614 -1.113404 -2.0847325 2.4989762 5.831815 3.4366188 -5.8712606 3.6782048 -0.75068337 -0.4020575 -3.7802951 2.2862504 -6.032184 -1.837045 0.0048610386 -2.3707669 0.9458641 -5.578759 -0.5469768 -3.4243646 -0.105783276 3.4990478 0.74523145 2.9557674 3.6428714 -0.5097349 3.333777 -0.046063095 0.6766213 1.0235889 -5.4989314 -2.8967006 0.9785325 2.4280486 -2.2179897 -0.48568308 1.0948207
1206 1.3882978 1.0337393 0.019103035 -1.5283339 0.63237846 -2.1688747 -1.3555971 1.9730785 1.0649213 -5.155407 1.3424236 -1.9039485 4.9276567 2.1557531 -2.911625 0.5623005 8.624415 -0.22210616 -0.23703298 -3.8717608 0.98666495 -3.6768088 2.3884115 0.29868862 5.697568 -2.4262178 1.9219182 0.9133417 0.5988149 1.1795268 -0.41316444 0.2399791 3.160234 -2.4512093 0.8799286 0.85196877 -0.64151865 -3.3265042 -2.433765 -2.0913508 4.536613 3.5727158 -4.2527876 1.8136947 -3.0089755 0.088141054 -2.9618847 0.84452206 -2.208598 -0.24170709 1.0511599 -2.7055576 -2.2995768 0.9378652 0.20637809 1.2000272 6.234217 -4.9141645 -0.28294784 -0.9572738 -0.61179924 4.2750683 -0.61178654 2.5316389
1976 -2.5987325 2.3316236 -1.1175042 0.19815132 3.8351226 -0.7026127 0.7051859 -1.8882724 -1.9929435 8.018392 -1.9786716 -2.0994403 -0.32699922 3.9566772 -3.386881 6.6655216 -3.2931623 5.04881 -3.9095316 1.1422433 -1.1569577 -2.9030278 -2.5147307 2.2251832 -4.5092745 -0.8591631 7.893928 -2.7861254 0.39981958 -5.34525 1.927966 2.2596972 6.0046277 3.2265477 -3.1342292 -1.6004219 0.19443418 -1.3684894 -2.9167795 -3.78601 -2.2306774 -0.1426926 -0.5518388 0.49345428 1.2622908 3.9290254 -0.78323215 2.1436813 0.23650621 -2.3258762 2.0627947 -0.57723665 -0.3372714 0.10408147 -1.9643183 -0.8980731 -0.8104455 1.2813051 -0.40973237 0.409194 0.3509875 0.5106603 1.9498837 -1.9006006
1784 -1.6271782 1.6151799 5.664409 1.5573347 -2.8447824 -1.118114 -1.0130633 1.4923118 0.17845817 2.6069715 3.0629253 3.0949042 3.4213748 -3.6966996 -0.93073714 -1.712985 1.0093074 0.13271448 4.5361056 -0.11440357 4.0602903 -2.20227 -0.81240433 -3.0848799 6.100409 -1.7469465 -0.14286767 -5.1374636 -3.3233674 1.4738109 1.5984929 -1.4433794 3.7635043 0.93093246 -2.3225205 1.6590872 -2.0668852 0.5094819 -1.0231465 3.5600288 1.9584652 4.098596 2.3735948 2.1888702 -2.1294503 0.43744433 1.5004519 1.0039186 -1.8884972 -0.14628667 1.6381029 3.6408772 3.5459397 2.1212237 4.626758 2.65133 0.09215007 3.8091474 -0.38767642 5.7354617 -2.385579 2.3201423 0.9885677 -1.4440489
1580 0.39268568 -4.965761 1.1783111 2.0963826 -2.1372635 -3.9680414 0.32248804 -2.1231418 -2.2986891 -1.3513825 3.3118968 5.608539 -3.682496 0.5231842 1.0130215 -3.1786768 -1.5365001 0.4736447 -2.8126857 -1.5066562 2.284106 -4.0339394 -3.473523 5.610394 -2.227947 3.5180888 -1.5108895 0.01842507 1.1603333 -1.7543787 -0.619175 1.4264903 -0.62261236 2.4928539 -2.772595 6.1524835 -1.0454731 3.0937352 2.8814757 3.1260364 -2.0176766 -2.1510584 4.091541 1.0892488 -2.339691 -1.3879874 -5.007936 0.20517091 2.9985516 -1.611001 1.319642 1.5973125 -3.853602 -3.4051106 3.8284428 -0.92916554 1.0489619 0.13785094 -0.39420426 -3.1822197 2.2158642 -0.2913525 0.7337408 1.0919832
196 -2.1113944 5.31414 3.3229725 -1.7271615 1.7334458 0.8007822 2.2208707 2.2624521 -0.14900467 0.61515635 1.2621341 0.5437235 -2.3121414 1.5055107 0.56976664 1.4034097 -3.2485256 -0.4822849 2.7975116 -4.549539 3.9641476 2.0452867 -0.7666587 3.1131523 -3.5655174 1.0770615 -0.26646143 -3.0824225 1.3641896 1.0719323 -3.6413727 -2.80088 -2.390617 2.4265707 3.4693787 -0.046735592 4.997742 -6.3464503 -0.73785436 3.3942325 1.4867532 -1.9333203 -3.4911926 2.5022652 1.5247692 -0.12508342 0.42856506 -1.34065 -1.7214471 -1.8156723 -0.4831985 -2.8511267 -1.6648129 3.5317106 0.5010132 0.49083638 0.7855938 6.06837 -0.3198739 -5.89794 3.9364338 0.8471279 -0.43303022 0.90506816
477 -3.7386146 0.4966536 -1.0362161 3.313652 5.620372 2.1455781 -1.825799 -5.8263373 -2.2058423 4.135085 1.2530495 -2.0387423 -3.397845 0.15789883 1.4880929 -2.0415761 5.53872 -4.6036067 0.5258642 7.8498697 1.508527 0.72389394 -0.1831902 -6.642411 -1.0316045 1.8172076 1.7743887 3.497724 -2.0275095 1.8942069 -0.44708842 1.5351458 -0.3943741 0.29812968 -3.280579 2.1767364 0.34817827 0.83125883 -3.0338192 -2.6045983 3.4142368 -0.9589396 -0.5253471 1.9494902 1.8020954 -3.1210752 -0.897629 -2.7168553 2.6832309 -3.8655772 -2.7931578 -1.3474866 -1.9586431 -2.0507839 -0.0121711185 1.7112815 -3.5226202 -4.579457 0.36370805 -2.479459 -3.4880366 2.3057365 5.6674414 -2.4716
1227 -1.9199041 -3.2588797 -0.3478905 -1.0365446 2.534712 -1.4246264 -0.69059634 -0.7642224 -0.26712078 1.0477391 -4.9184313 -1.8002017 2.751927 -3.0993786 3.9629996 -6.0759683 0.85199624 2.7250679 1.7670969 4.9701915 -0.6411569 -2.1208687 -0.050799035 -2.90438 -0.8901416 -5.602797 -1.9991161 1.2918445 -2.8091564 4.6355753 -2.5352561 -1.6528113 6.9354324 0.23041573 -1.3066307 -0.5944618 1.9027283 1.1185935 -0.4386961 1.5061952 3.597214 3.4558926 -2.4703581 1.6424253 1.3304279 -1.4351904 2.10472 0.9600127 4.3098135 -5.5587716 2.5365536 -1.2880325 1.7419436 -3.7369337 -2.0199227 -0.7416946 -0.38166425 3.6029274 0.9124463 3.986669 3.9171238 -3.5948262 -6.0488687 2.3302453
1352 1.6781725 7.053187 4.1081862 -2.0385666 3.8865297 3.6337717 6.18547 -0.22575352 -0.12038969 0.42359394 -0.4801828 0.012707617 -3.26191 -0.75226563 -0.9071864 0.47044662 -0.5426713 -0.47832736 1.9122125 -0.97466296 1.9438276 -2.459333 0.36504996 3.018162 -2.534784 2.368128 -4.0591254 -0.47395355 1.6904948 -1.3644304 -1.990598 -2.8092651 -2.4803257 -2.1533158 1.6974217 0.3820053 -2.00103 -3.0255067 -0.65677094 1.7008158 3.5926578 -1.9945755 0.8756009 2.3005998 -1.3684747 0.108547755 -0.067659564 -0.849685 -1.6215771 -3.6820836 -3.1945703 -4.180312 -0.57999825 4.488011 4.5413575 -0.2606954 -1.537478 1.0223131 -2.1439488 -3.2155378 2.8347592 -0.9221743 -1.0860758 -1.0694395
313 4.336529 4.396973 -0.04155644 -2.3189611 2.430381 0.706939 -0.11096363 3.4868276 -1.3459119 1.8934413 -1.8262944 1.1868125 -4.379205 2.1935358 2.5588968 -1.4967159 -0.9159563 1.8961273 0.79158777 -3.025332 0.53130454 -0.30306083 -1.7081095 6.455844 -3.7604973 -0.5890439 -4.6567097 -1.584414 -0.5587446 -0.16058426 -2.9962115 -2.4159358 0.75653774 -1.5692439 -1.5115964 2.5633185 1.4884791 -5.8052335 0.78470016 0.322245 3.7977254 -3.6273313 0.9821683 6.376254 -0.17912047 -1.9945171 -3.8206766 -0.13666895 -2.4574997 -3.9666264 -1.6553122 -6.4822245 -0.94397444 1.0436748 3.5044284 -2.272905 -2.8871403 -1.0176654 -0.12229162 -4.11899 5.611652 0.006624896 1.6800616 0.5661241
824 -0.13808596 -0.24115862 4.0666037 -1.9962535 -0.9321941 1.3202701 0.9099935 3.2296731 -0.12351247 1.8142108 1.680138 0.1540123 0.61403793 -0.04107687 -3.4899662 -2.4525268 -3.3356087 2.8115911 8.102358 -0.8913983 6.68422 -0.7591449 -0.84520185 -1.8241305 2.843555 -0.6679654 -1.5309314 -2.0394273 -6.4943156 1.4916818 -0.7187863 -4.2845283 1.7201078 1.4297597 -1.133389 1.0802914 -1.1189864 -0.6974303 -0.19774069 4.5487623 2.997756 -0.5419412 1.8494426 4.09684 -1.6539246 2.037455 -0.16631827 -0.9086192 -0.34848607 -0.6993871 0.9745422 0.90743357 2.4854925 0.7148697 5.2149463 0.27837068 4.102282 5.0327344 -1.1688125 0.10420776 -2.4814844 1.4768215 3.0066826 -2.3553116
333 3.2759604 0.17875227 -7.6691484 -3.8158016 -1.1389456 -2.315354 -3.2246869 -0.3181527 2.1965282 -2.250072 -1.5079342 3.615699 -0.23770203 2.5772274 -0.28969845 -0.12661508 4.607313 -6.4191236 -1.6844679 -1.8962219 1.1111286 -2.152796 3.3716795 5.1769485 1.4523307 2.1173654 -1.4802678 -3.333428 -0.093298115 -2.779312 2.9160795 1.0643994 3.079685 -2.1886337 -0.44337755 -5.8198433 -1.8345095 4.708316 -0.9282932 -3.0681863 -2.782144 2.7999203 -3.4871218 -2.8367696 0.064663805 -1.8951336 0.90901244 -2.1909528 -4.0032063 1.3627928 -2.3580902 2.3810635 0.07155755 6.2588363 2.7209246 -0.30222294 -1.7008524 -1.8714737 2.334747 -3.044287 -1.8642994 -2.5129747 1.3532032 1.3658929
562 2.9684145 4.2303386 2.7476463 -0.70019954 -1.5620143 2.3427978 4.378095 2.3447106 0.08588354 0.82703847 -2.309682 -1.7879971 -3.0321333 0.51637983 -2.1702304 2.5765586 1.0059918 0.006451308 1.3316718 -2.1688812 1.9437776 2.4597025 3.5545304 5.095959 -5.9053245 2.124132 -4.622426 -4.995041 0.77914536 3.8723598 -6.1798077 -4.7001877 -1.3861445 2.8104062 4.3224573 0.3569727 1.6955956 -1.0717806 0.01535173 -0.41266054 1.6848257 1.0907625 -1.2359167 2.661111 1.7931076 2.1413634 0.74529433 -3.0859358 -4.920835 -1.7882729 -2.7333608 -4.397798 0.16088553 1.7166476 -0.07624429 0.33655524 -0.6297817 0.36456227 3.1472936 -2.913202 3.8594444 -0.6251758 0.106643364 -1.0442635
1843 0.11851302 4.4718246 2.4575098 1.593978 1.6567813 3.6005723 5.112227 -1.3462923 -2.903727 1.3439362 -0.334925 -2.962375 -2.6361163 -1.9654064 2.865775 0.7077925 -0.9501491 4.229602 1.7900153 1.1938628 1.6680975 1.105105 -0.9666087 3.1744637 -5.8293233 4.506308 -4.6588354 -0.3529791 0.94178915 -1.1737263 -3.0303624 -2.1364455 0.048902493 1.9865549 5.8982306 2.1238675 3.434053 -3.9850578 1.6298897 2.1610029 5.9304943 -1.4192461 1.6908092 0.48806038 1.4067662 -1.4606081 0.81369054 1.2197428 -2.0420372 -2.866972 -0.31667218 -1.225752 -5.429782 4.171701 0.2502349 1.6529111 0.3267807 0.89541095 -0.5730304 -2.7174432 1.4948369 -3.6155329 2.2598639 1.4206375
997 -0.7273023 5.1884394 4.1922 -1.6104207 -0.45785674 4.0081234 3.2970507 -1.1298208 -0.716905 0.72884357 -3.1049228 0.1452796 -2.6705446 -1.5109156 1.8962169 0.6329202 -0.31153905 2.1384254 1.8446704 -0.034834635 -0.69586897 1.1707407 0.19773328 2.6125348 2.7074556 3.8328211 -5.790283 -1.3186538 5.225635 1.7930955 -5.900767 -2.4159303 -0.6118308 2.8189175 3.391359 1.6985149 2.9299812 -5.844135 1.9900948 3.6135948 2.0285385 -0.98669344 -1.558086 3.22943 3.2117739 -0.6510446 -0.9817459 -0.24119434 -2.6176653 -2.3343534 -2.2044692 1.3877989 0.8560165 0.58328307 3.3504677 -0.55329007 -1.7126672 0.32613975 -0.8681284 -3.8380089 4.830917 -0.71912766 2.4007351 -2.8000073
6 -1.3328731 -0.0767129 4.713138 1.783188 -2.852465 -3.3474927 -1.3108474 1.0145079 -0.57294196 1.2120322 -1.22209 -0.21200779 1.697021 0.3068197 0.5083221 -3.0194802 -0.5582608 -2.117948 4.3001666 -2.9416482 1.5940447 -3.7593782 -2.3767781 -2.9242861 4.243844 -2.1927433 0.9637659 -3.4925249 -5.181175 4.370671 -1.8358938 1.8061236 -1.3481594 4.8382487 -3.4267497 -1.2811335 -3.1348488 -0.35797226 -1.7560238 1.762346 2.551612 -1.8356274 2.461164 1.3813708 2.3418002 4.181257 3.2717812 -3.6650944 2.880769 -0.53737473 3.8567424 2.5922778 4.011674 1.4776285 3.4720857 5.8721747 0.34240198 -0.31687504 1.3084421 2.8813856 -0.5961341 3.158006 0.13349444 -1.5416607
739 0.90184385 2.103207 -1.2853898 -1.4166346 -0.8507908 -0.70645636 -3.504749 -0.9273972 0.633242 1.5225 0.6282359 -1.5449389 3.6405332 -5.748002 0.81227964 -1.3060006 -1.0601454 1.3228902 6.4301777 -3.5188117 2.1743221 0.06051621 -3.6311865 -4.247885 4.5207534 -0.19600692 -1.6026121 0.45888132 -7.3379235 4.1302853 -2.608436 -3.291126 4.2586436 3.6069872 -2.411074 -0.12136867 1.2243481 1.2059327 0.7653084 2.3616583 -1.8520277 2.7403612 0.5159308 1.0724585 -1.4316874 2.6008701 2.051032 0.7799895 0.6541856 -0.6703784 2.714635 1.1847631 -2.3123634 -3.6966152 4.7663555 -2.2772458 1.2712526 1.512127 -0.03325417 7.29529 -3.147552 2.5353389 -0.563409 2.75562
1009 0.5685027 -2.495446 2.0015368 -1.7966553 0.53208274 0.26787108 3.296111 -0.7708993 0.26615587 -0.26495132 -2.947674 -0.6751231 3.1561892 -0.023708997 -3.3373897 -1.3922675 1.3263121 0.4622851 -3.2903535 2.419504 -0.58300406 -4.4003057 -4.019326 1.3400931 -0.29556176 -1.513968 -3.9607282 0.7104434 0.47965702 2.7581444 -2.2071598 -0.17967679 1.7010071 3.9228303 3.0382094 4.513003 -1.6482327 3.6071892 2.2080312 4.1317115 -1.4589535 -2.4840045 -1.3726157 1.708988 -2.0739224 -3.870479 -3.192022 3.2744317 1.8197515 -2.5856528 -0.23348157 -1.11307 -3.1932442 -1.8666884 -5.2509246 -5.874839 -0.4373275 0.7139352 -5.1382346 4.3654604 2.1147206 -6.148581 -3.8914044 2.6480303
1410 -2.2922907 2.3173914 -0.53836113 2.5543385 1.7659917 -2.3525598 1.6862583 -2.4489021 -1.7253071 7.6508813 3.4896889 1.4838128 -1.3739605 4.663904 -2.716943 6.1470203 0.90132314 0.028263532 -8.264179 0.65626866 -0.32415682 1.8377807 -0.08487662 -2.421946 -0.4331486 -1.741438 0.13963504 -0.8676681 -0.8802953 0.6028208 1.3957627 2.053588 0.026994977 3.9107025 -3.630132 1.8970313 1.4055216 -1.1631747 -2.5070474 -3.1364906 2.6936526 -5.2402945 4.5748463 -2.845107 3.9067538 3.3806393 1.7724777 1.9172657 1.3225296 0.90317595 1.9500235 1.9577484 1.4349064 -2.0085406 -3.1025732 1.7300652 -0.42942032 -2.7214575 -3.3566895 -1.5017065 -0.68602866 -2.7416787 -0.14627777 0.4049825
1286 -0.6704846 -3.4207096 -2.011583 1.43137 0.30195907 1.027259 -2.2170844 2.8814209 -1.6129215 -1.3615806 -6.472297 0.91426826 1.9077673 -4.216903 -2.1717746 1.4606878 -1.9639534 2.8677433 2.0815346 -3.0412 -0.851221 3.6489003 -0.09651496 -6.103558 -2.7057047 -2.0174696 2.700321 -1.1638812 3.6798034 -4.2295704 1.7319192 -3.321465 -4.641227 -4.3566575 -2.0847676 -6.7869983 2.8048675 1.7962501 -2.973622 0.104942 2.7539349 0.826804 6.1144967 2.6841004 -2.0842562 -1.6409678 0.8145111 1.1632203 -2.4259121 -3.1318772 -2.9015596 -1.3536508 -3.2963843 -0.27742606 -2.0652757 2.820237 1.531571 2.5485902 2.9628108 4.1602964 1.0341898 -0.3236325 0.5148419 -2.4972827
1082 -0.66736245 -2.455211 -0.06601283 0.97036195 -0.63110065 -5.4836392 -3.4816952 -0.248137 -1.4959469 -4.6336374 2.73806 4.8579774 -6.2647257 3.6536012 -0.36951 -1.7498958 1.134933 3.8079097 -2.1138666 -0.46122292 -0.82942325 -3.8093638 -3.7849057 2.9064007 0.080218926 3.2935717 2.0822957 -0.69610816 -2.144235 -4.090593 -2.3685615 0.94109285 -1.4158243 -1.2381449 -4.478653 1.3476956 -0.115933724 -2.1250308 0.67053205 3.6428542 -0.75848705 0.76017433 2.8551874 -0.14033672 -0.5225719 -2.761482 -3.5824564 -1.6405851 1.351417 0.018459607 2.3910975 3.7088506 -1.3631274 -5.9615693 3.5593808 -3.4525015 -0.20539421 1.0447521 -0.84832126 -2.8154922 0.5160383 -1.0599753 1.4908856 2.4585156
945 2.5308049 -3.318183 2.3320296 3.5587032 2.873813 -1.345521 -1.1822758 0.045492932 -5.0066237 -2.4096107 5.534281 3.9716108 -0.4879057 -2.29208 -2.4205403 -2.4225266 2.1820312 3.8365178 -5.102125 -0.5497501 -0.7447958 -1.6284508 -2.3255188 4.7069 1.1421008 -3.5673494 -0.22503379 0.5518301 -1.4613093 -0.84806246 0.99867666 2.485214 1.966937 2.9628603 -3.1325705 -2.056684 0.70110285 2.3678265 2.9403217 1.7847737 -4.8834314 0.91310805 2.305771 0.6874187 -4.310987 -4.95502 -6.339949 -1.4114736 2.139154 -0.20552497 -1.733559 -1.617769 -4.5588875 -3.3641186 2.8021169 -3.9867241 0.4175511 2.7912645 6.7420187 -2.5093262 1.9276975 -2.467264 -0.30293685 -0.18763413
816 -3.5869427 2.371899 0.5672545 0.7435386 1.0815475 0.43927747 2.1888406 1.3605031 -2.4452288 -1.0500917 0.74218035 -1.1244538 -2.1143796 0.055751123 5.2983093 -0.6852239 2.7714005 -5.6463614 0.12225054 3.6454747 -0.37745777 1.9094069 -0.087202944 -7.71584 2.4677522 2.2312887 1.8238105 0.9321974 2.929042 0.037876066 0.115491755 -1.1175095 -2.1791778 -1.1122274 1.420057 2.1339834 0.74921143 1.6763994 -0.5534088 0.6291919 1.3745168 -0.77112705 2.3802018 5.411209 -0.9223641 1.5264845 -2.4374068 -1.3456792 4.86898 -0.9022178 -5.285402 0.7675512 -1.9982187 -1.0251504 -4.003993 -1.5190942 -6.960938 -2.7388961 -0.45643032 -4.588942 -3.4433057 1.7171756 3.347107 -3.111315
1895 -3.831959 0.9922936 0.016271165 0.20706482 0.9688221 -1.3013868 1.5007336 -1.552278 -2.576064 4.300887 2.6310017 -0.3876411 0.55369586 1.462615 0.57985604 -0.73106 -1.4016893 -3.31286 2.6724892 2.108052 -1.0645871 5.0344706 -0.20740332 -4.5306797 -0.48505932 4.7424135 1.1791121 0.5144117 5.9888186 -1.3173445 -1.8669714 2.6559658 -5.260708 -2.696282 -3.5108228 0.52454686 -2.5166087 -0.8489033 4.3778596 -0.24825846 1.4747562 1.2277963 -3.9846563 1.844409 -0.7033007 1.3531077 -0.12962711 -1.4163703 6.7057343 2.5834556 -3.7111433 2.6195438 -0.03552115 -4.284208 -3.560689 0.29568058 -3.7870355 -2.1035526 1.3855611 -0.87705255 -5.8179116 0.575125 1.600253 -3.4424894
754 2.918022 -2.0814517 2.560074 4.174065 -1.392584 4.1830544 1.6949295 0.5754347 -0.07151521 0.56354654 -5.6078415 -0.4816919 3.4420893 -1.4520373 -2.8119998 -0.87102807 -0.12651093 3.816049 -0.5719214 -0.7490729 0.4710329 3.9055493 -2.395261 0.68361914 1.1244214 -2.8253193 3.2776635 -1.1449668 -2.2783287 -0.8532123 0.9256996 0.8808935 -2.975131 -0.3204854 -2.8100793 -5.2380867 1.3676177 4.996242 -2.4767368 -1.1724875 1.3050284 3.2644 1.468243 1.4762508 -0.4492005 -1.8579444 -1.2319963 3.1932306 1.4138364 -0.614909 -1.6670417 -4.926937 -2.910503 -2.3294404 -3.5778964 1.3503189 2.1037629 2.0210314 5.5444694 0.69129103 0.5114254 0.8568092 -2.4885495 -2.2253911
1553 -3.4410956 -0.31187958 -1.3808951 -3.3961833 -0.54036295 0.05547282 1.8580873 -0.30068564 -0.07115957 -1.513421 -1.1610957 -2.207163 3.4624696 1.4096757 -1.5616032 -0.98826057 0.14541551 -2.1235542 -0.77551764 3.963554 0.55118483 -3.0587409 -0.08944247 0.48148906 -0.75715923 -3.5321631 -3.7057014 2.5912595 -2.054342 4.9869604 -0.91774976 0.5161351 -0.12412729 2.0451188 5.8162885 0.87949604 -2.209955 1.2832795 0.5158572 0.92467004 -2.0435596 -1.7060531 -2.277362 0.81011194 -1.6242508 -1.5344448 -0.034982312 -1.837498 1.4751744 -0.9313628 -2.4890878 -6.600176 0.329028 -1.9859381 -6.8595386 -6.592233 0.123898365 0.76467896 -2.884487 4.8518505 -1.5332043 -3.1555903 -2.485499 1.8502219
1194 2.5213265 -2.4482121 4.3868675 -2.748045 2.1101515 0.4910839 0.17661916 -0.47615877 4.4264836 -3.0907016 0.88826895 3.1500835 0.73400164 0.48102498 4.6156707 2.058351 -4.8422694 -0.20561004 2.5617013 -1.6851602 -4.603344 1.081455 4.295938 -3.5860102 -0.48029828 2.5973315 -1.3275542 3.3341618 1.9011781 -2.404981 -2.2037776 1.9607694 -2.7005525 0.5394866 0.84469694 0.17516497 -0.13888733 -0.9419556 6.867272 6.883657 -0.52492344 -1.8926858 1.0803193 1.8962187 1.5410274 -4.360104 0.88103753 -4.201774 -3.9117343 3.6627455 -1.8803821 0.7753107 -0.7835676 3.5917346 1.0407157 4.12521 3.0000849 -1.6638193 1.3488148 -0.087231845 4.2458744 1.9057106 -3.9874609 -0.97601527
698 4.2586255 0.44847584 1.3635492 -1.1574156 0.3690492 -2.1168027 0.123543955 -1.0426956 0.14171043 -3.0656474 2.3191292 -5.47377 4.194361 -0.20155542 -1.811641 0.027505992 6.213893 -2.822214 -2.45234 -0.082636565 1.8023047 -3.5099483 -2.734245 1.2055744 5.7729278 1.6071383 4.6285176 0.02786936 -0.37461346 -0.66275984 -1.7678384 4.074781 2.3033292 -0.91469455 3.8704267 -0.80766743 0.27198312 -1.1404335 -1.3920685 -0.5889565 -0.035240047 0.99190813 -3.3358622 0.85066116 -3.7029 1.8839257 -3.3809214 -1.7217361 -1.0932913 1.7611775 0.5600351 -1.2083963 -2.3531458 -0.021188328 -0.14783028 0.366022 4.533096 -4.5094175 -0.701753 -5.171583 0.7904772 3.5748472 -1.141762 4.179301
1586 1.772083 -1.2258252 0.016734146 -1.2708131 -1.089501 -2.5953016 -0.7172282 0.9722095 -1.5338758 -4.951288 1.6559982 2.978013 -4.826843 1.6224395 -0.22199646 -4.537648 -0.15731011 2.630786 -3.6737516 -0.047318097 0.053103574 -2.5842037 -0.41647345 5.8448005 -3.3206787 -2.6454673 -1.0739192 -1.8614197 1.9164118 3.3235638 1.2810632 3.9397502 2.7778606 -0.9149423 -3.5896926 2.7963142 0.5259157 -4.3437386 -0.8139526 1.6250501 -2.3837616 -0.28865924 4.1604376 1.8375258 -4.312195 -1.3500242 -1.0859622 -1.9240475 -0.5249213 2.5809524 -1.222404 1.0754869 -0.6603184 -6.3793674 0.9779847 -2.9490492 3.3294353 0.8985838 6.2654076 -2.6377294 4.4630117 -2.2363625 0.8039722 -1.4653866
889 -1.1430844 -4.3162093 1.6685956 3.6333048 -1.033994 2.3183272 0.9790187 -2.1768377 2.8096805 0.58645326 -2.9650679 -4.0599804 1.9545926 -0.12413966 -4.6052327 -0.029343762 -3.2956529 3.3588643 -0.8321413 0.68044174 1.9141496 1.4262531 -3.2675438 -2.9769819 -3.105183 -1.8688531 1.5644135 -2.7367256 1.4620618 -5.281021 1.801983 0.02481508 -2.1495779 -1.3805315 -1.535864 -3.9831257 5.653479 2.6213112 -3.1577554 0.14721741 2.6987557 0.21529311 1.39595 2.9344382 -0.28654346 1.992605 -0.5158906 -0.27107456 1.0881983 -1.276192 -0.3621028 -1.5181541 -3.4641738 -2.1197116 -3.580966 0.16251855 4.3924694 2.5431204 6.059282 -0.11928509 1.0118957 -1.3744522 -2.4976273 -1.5468409
1550 -1.8291605 2.1162214 1.3734 1.3293091 0.8508858 -0.51243424 -1.9614841 -1.1191887 -2.1185043 4.0488715 1.2993112 1.7738454 2.0670424 -3.768694 -0.5476547 -3.3920906 4.871064 -1.099537 4.119964 -2.0626376 3.2082715 1.7185547 -2.2425585 -3.1904671 1.8868021 -0.7873412 0.7297259 -3.6757598 -3.0124037 3.400307 -5.2502537 -4.6934066 4.519962 1.47031 -1.5284735 0.8594007 -3.3840818 0.9497289 0.14994651 1.4446062 0.32460266 3.7042115 2.365441 0.60845774 -0.13280882 3.5282042 2.2858713 -0.18936259 -1.1907041 -0.87737894 2.9207888 4.5530887 2.7841964 -0.11750325 2.807673 -0.76778924 0.5754963 3.2934506 -1.3985454 5.557387 -3.5709963 4.643235 -1.1232946 0.49220902
23 -2.6716492 -1.2696304 2.6920688 4.5803547 0.043546766 1.9921664 0.4315262 -0.91868496 2.7242925 1.6867288 -4.426751 -1.4193573 0.21583685 -2.6541345 -0.21764132 -5.105763 -4.228598 6.7823114 -0.10881745 2.3387976 -0.8713334 -2.6158113 -1.9442445 -2.762639 0.28055966 -4.29307 0.12709162 -1.622666 1.6446644 -3.4569314 -0.57430226 -1.7141554 -1.8175082 -5.415214 -0.920133 -5.8293014 -0.48619378 3.3203714 -1.2280395 -5.745829 2.0423703 0.062184095 2.9473016 1.3202246 0.65408564 0.78020763 -0.41302878 -0.35786268 -0.5260391 -3.0323539 0.3560551 -1.66703 -0.52366877 -0.27323303 -1.4890393 -0.87934834 -0.28178456 0.43896765 3.853154 -1.3502054 -1.6618768 -1.9714501 -2.2756357 1.6516726
190 0.8772346 -2.184084 -4.249765 -5.756241 -0.79827553 2.3613207 -0.684688 -1.6258464 1.5344683 0.6241408 -2.6822097 1.7932683 -4.2343364 0.08084882 4.783006 -1.1502289 2.3850236 -0.89225805 -1.2535336 2.6418605 1.8881654 1.1187516 -0.570061 -3.3870673 -0.052211486 -2.070074 -0.93187094 -3.9503396 1.7445143 0.18934181 3.8857431 -1.0838273 3.835358 1.9522158 3.050123 -2.6706622 -0.95970076 -1.2888154 -1.2606356 -2.9320297 -3.9870167 2.641856 1.0315951 -3.440633 5.5151086 -2.3520815 0.14538425 4.494776 -0.6111739 1.6385847 -3.2412274 2.683042 0.45170268 4.743611 2.6377273 3.1865158 -1.1137252 0.5293755 2.517926 -0.17975418 -2.862494 -1.3511353 1.1623873 0.8025851
1356 4.5199366 -0.7859823 -0.28045198 -3.017607 3.3996263 -1.7178249 4.3185544 3.324393 1.110893 -5.317498 0.5707311 -0.5230629 -0.23906085 0.6683279 2.0658617 4.7766123 -1.7675444 -0.60144204 1.6759636 1.1139727 -1.7883501 1.9395087 -1.4898825 -5.475989 -2.640732 1.6205814 2.6337686 -0.52431697 3.5535219 -2.5779035 -1.4621626 0.60948044 -1.8521631 -0.9771844 3.6188047 2.9269621 -1.3530099 0.73968405 4.0763226 2.9319208 2.0755765 -0.36684233 -1.4775862 -0.97731507 1.3564842 -0.028993726 7.5372066 -0.6084381 -4.426189 -2.848727 -1.4275032 -1.7155381 1.6788062 5.238256 5.979915 -0.15788178 4.784975 -1.2089568 -1.9605869 3.5660765 2.4373832 1.4931185 -2.7040389 -1.1507198
1418 -4.1133175 2.0155091 0.10210211 7.163285 0.24892743 -0.5771078 -0.8322587 -1.0627643 -2.4668727 -2.1963282 4.4457197 -0.37556276 0.6868694 -0.18180986 6.2299967 -0.37297535 0.5778558 -4.7109103 -2.5845265 5.2608404 0.52323025 -0.40683436 3.3972316 -4.841599 -0.6439552 1.9111767 1.7364217 1.1722778 3.90663 -0.3869415 -3.4472241 -0.676904 -5.590858 -0.3254686 -1.110463 0.7582669 -4.22887 -0.9291117 -1.4695061 1.9867535 2.197168 2.0962296 -0.53382224 -0.5691594 -2.598739 0.8156374 0.35769686 -3.645822 4.622448 2.4692252 -1.1273799 0.36315677 1.6788982 -1.6732522 -2.3241596 3.537984 -4.5197325 -2.111131 -0.9928671 -3.663492 -4.276216 1.8399421 0.86158377 1.1359811
456 1.4375423 3.3907888 3.4210844 -0.72873205 1.8233438 5.9653435 3.1908884 -0.08210507 1.256751 -5.170937 2.548449 -0.026536757 -0.40996045 1.1061542 -0.41194117 1.558025 -3.7271264 0.8420369 4.887766 -2.9407487 3.458205 1.9955345 -1.4850392 2.1199973 -2.9262617 3.496284 0.429882 -1.8311796 -1.0565702 -0.69683766 -3.4857318 -5.815107 -1.5289222 -1.7451204 0.98349255 -2.0882857 1.5621868 -1.2320707 -1.1679314 5.1413274 0.2241736 -4.021279 -3.0530787 3.1378894 -1.1335309 -1.3752595 0.28928807 -2.2858794 -1.5738617 0.12731065 -1.7648557 -3.2351372 -0.06165542 0.44275665 3.2882252 2.3706384 -2.6303997 2.6332963 -1.7841191 -5.160951 5.854554 -1.5276054 -1.0510219 1.4752116
890 -0.41200975 4.5773106 5.3554893 0.8607048 1.1165358 5.506693 2.8437006 1.0522815 -3.1232276 2.5945995 0.70125127 -2.9005108 -2.2505698 1.9571671 1.0639275 0.7937526 2.064918 -2.0588872 0.04858429 0.14814551 -1.0939398 5.0527744 0.24279922 1.3417424 2.5048969 0.98476416 -5.566242 -0.77384245 2.9057264 1.2654755 -3.397647 -3.9861484 -4.0205655 0.4809077 1.126418 -0.9648074 2.6632285 -5.76017 0.22941753 6.0474615 0.7285826 -2.7916093 -0.76957536 -2.548165 0.9106867 -1.1253841 -2.1609616 0.53218603 -0.25709775 -1.7221882 -4.402516 1.1840203 -0.04409146 1.1212575 1.2087779 3.4151611 -2.848984 2.628302 0.2950314 -6.796574 4.7452955 0.36243907 0.7097425 -1.255472
688 5.258212 3.148613 4.8652415 0.22441098 2.8042464 -2.018446 -0.40189818 2.9041786 -1.9697828 -6.0425324 -0.82618344 0.1307982 4.459547 5.179866 4.133063 1.5540407 -3.3295288 1.6947961 0.9775063 -0.21101451 -3.0416346 0.08909731 2.802949 -1.3900505 -1.6856819 0.5332671 3.6108449 3.8580763 0.38466966 -1.8889785 3.4027255 3.7457747 -2.4033852 -3.084436 0.5585024 0.17372233 0.85001665 3.9141243 4.313802 3.5176864 -2.3642337 1.439787 1.5222503 3.401422 1.5115997 -0.4584583 0.22013332 -0.06617142 -4.005722 -0.066715814 -2.2197957 -1.27075 2.792726 3.3594415 -0.2971211 0.830263 2.4534054 0.20638382 -0.75698096 1.7028084 0.9587643 -2.3840146 -0.78741246 1.5441785
687 -2.2094462 -2.7429001 -0.7818545 -4.017545 1.5876302 2.9588578 1.3956505 4.059039 -0.31642586 -4.694192 0.17812954 -0.33373576 -0.123971134 3.4062238 -1.1675669 -1.9830797 -0.2315283 -2.3749285 -1.0725409 3.934656 -1.756755 -5.1866198 0.43835044 1.5995146 -0.76503724 0.5955855 4.1075974 5.7232656 -4.1567574 4.1784163 -0.5518558 0.20015466 -0.636401 1.8039751 3.549457 0.5485336 1.5137151 3.352636 5.432079 2.4502068 1.0566267 3.9156556 -2.3179724 -0.6733184 -1.2209566 -3.8314385 2.793663 2.1656287 2.7019591 0.027591372 -1.633385 -1.1698132 -0.6356005 -0.3519493 1.3339943 -0.22418597 -5.32877 5.4649725 0.014297417 4.393553 0.087099865 -3.940505 -5.363535 4.188389
84 2.2164066 -4.4735503 3.7631803 3.4050841 -2.7168581 0.39843947 1.7991376 -3.3218846 -2.6421075 -1.9739121 4.954685 3.5282297 -2.777497 0.9045241 0.24912193 -5.8733096 0.63176554 2.8295422 -4.2405176 1.6987273 1.3339096 -4.656808 -1.7232683 6.170765 0.6563607 2.5688703 0.46377662 -1.5972524 2.0263853 1.1919509 0.009241351 4.5021667 1.1821282 0.96162534 -2.3781564 2.0403779 -2.9505334 -1.5068161 2.521749 0.73463273 -2.601003 -2.1426535 1.4369472 0.27402505 -2.8120978 -0.4765744 -5.2864866 0.9823681 2.2729454 -1.5990968 1.094251 -3.402004 -2.6776679 -4.6722426 3.1714115 -2.5017452 -0.4142495 -3.4395492 3.1396725 -1.1787195 2.470305 2.704203 0.056115504 2.296173
696 -0.33912134 -2.1640508 1.8524982 0.12029719 1.3138266 -2.3038518 -1.3737465 -1.7400339 -2.3856754 2.8918366 -1.0201502 -0.34779498 2.2308009 -1.6191621 -0.70274943 0.18561454 -5.477802 -0.88141996 3.9040134 -1.9742932 2.8083494 -0.062417474 -2.9093292 -3.72478 3.3600678 -1.7891028 -3.7766495 -3.0727053 -6.314567 1.8525871 -2.4509597 -2.120427 0.7104088 2.8689382 -1.9268761 -0.34088925 -5.9735126 -1.9701344 -0.9650933 3.9118836 1.857773 2.048661 0.87171066 -1.9199156 -0.3071385 0.5213642 1.7638654 -4.389912 1.788683 -1.9533223 4.711539 3.4181416 4.940712 -3.128489 1.9383547 2.79295 -0.48002666 2.5170388 -2.133931 0.4158384 -3.212022 2.131722 -1.466595 0.15549308
1857 -2.7954655 -2.870091 2.8426278 -3.375737 -0.78536725 0.9546445 -3.4998767 1.316189 -5.6422386 3.2257822 1.436831 -2.1986134 -0.043278325 -2.2445886 2.100204 -1.0673274 1.1667403 0.6292554 6.7822747 1.0017023 3.4841638 2.8322196 -6.448547 -1.4834247 1.5445892 -1.3856424 0.0744604 -3.2579827 -2.8476014 -1.568391 1.6822045 -1.2632124 0.16690296 1.724214 -3.601864 2.2960927 -5.9904284 1.007942 1.0458071 2.7180176 2.1851182 0.119926564 1.1685297 1.0605097 0.17363918 3.0794775 1.3003585 -1.6329883 3.3639212 -1.8176416 0.24008605 2.5914245 2.4268239 -0.9633028 -0.13738342 3.1953883 -0.6852945 1.8032912 0.79220384 3.5903847 -2.7576864 4.480157 2.2443173 -0.96466064
1891 -1.3929592 0.10037409 1.0374808 -2.2748775 3.55876 -1.1308297 1.4329807 2.1008394 2.8179803 -3.568463 -1.7536713 -0.31308958 0.6672998 -0.15334018 -1.6388767 0.69107586 5.398295 -0.23941423 -1.0912296 -2.0951533 -0.36051753 -1.1376848 3.4346805 3.159324 4.5750203 -1.3913225 2.4037743 0.8976689 -0.9686181 -1.8148308 -0.21834125 3.7796478 -0.3217019 -4.1903553 3.7318397 1.4291921 -0.6371405 -2.3600974 0.95994914 -0.47603247 2.520193 3.1830113 -0.26210967 1.2450604 -3.062862 1.1190895 -3.5009732 -1.60303 2.5604937 1.1550246 -0.50032294 4.2280746 -2.3882718 1.6506828 -1.1729338 3.6500268 5.0042095 -4.159063 -1.7121501 1.4217372 2.4898224 3.8845296 0.12357981 -0.3342575
293 -2.3778973 0.323272 -0.11259695 -5.1927023 -3.86942 -0.8361736 -0.898407 -1.004725 2.9489439 -2.85204 -1.6265618 2.1182613 0.25050536 0.09140486 -0.06137188 -4.073112 0.25099096 -0.9243932 -0.2697083 -0.23203433 -0.39509806 -1.1342459 1.4199955 -1.2371563 -0.21390326 -1.0363545 -3.2570734 4.302296 -2.557647 5.7361937 -1.4419091 0.25474417 3.5864878 5.4239273 3.3462782 -1.0089841 1.8051317 -0.34227747 0.149048 -3.5260785 5.8125644 1.2068512 -0.2050669 -2.7079058 -1.2897403 -2.428465 0.32714698 1.2042695 4.0535765 -2.9098701 -1.9794346 -1.8294258 -1.6435083 -3.1035612 -3.1817737 -2.3216069 -0.2642194 1.5552461 -3.6178687 2.4130175 0.2827072 -3.5467408 -5.824479 1.7002621
256 -2.4520648 -3.9061477 3.8043525 1.6749794 -2.8187072 -5.6994762 1.4382373 0.68561095 -1.6212841 3.5581033 0.18494229 -2.3038654 -1.8235174 -1.9098102 3.245923 -3.4120026 2.0612817 -3.151273 3.6538777 -0.3672265 1.8489594 -2.6792378 -3.9418807 -0.67634505 4.048222 -5.54767 -0.2157886 0.3338985 -5.5350876 1.7268549 -0.7726236 -1.7876375 -2.7531857 2.4271936 -6.2530875 1.7485127 -2.5259786 -2.5974905 -0.7026044 2.4259164 4.4328184 -1.7761245 -0.734486 0.4363053 1.9489374 2.568992 1.4247626 -1.408512 -0.7697824 2.032899 5.3485074 -0.48054656 4.6533194 -4.6783266 1.9302495 4.5466647 0.5236672 1.919121 0.6517191 3.0327182 1.1808918 3.6861835 2.0219576 -0.31595156
1111 -1.2557398 0.35274795 2.245362 -2.5966887 -1.6905873 -0.45957226 -2.8278036 1.6904482 -2.8211477 3.0474868 2.0115535 3.797513 2.998312 -0.11120681 -0.5252942 -2.4243271 1.0447828 3.6738946 5.832816 -1.1814303 0.6509538 -0.5722597 -0.15666167 -1.1606549 2.5087042 0.2887504 -3.437835 -1.5690181 -3.9866285 0.48588964 1.2037559 -5.738403 1.788798 2.1841729 0.41926643 -2.7909124 -4.353899 -0.98746496 -0.84137994 2.7860327 1.975952 0.23327515 2.1595922 5.2587667 2.6221855 2.5007691 1.2413077 0.9550489 2.52946 0.3429803 1.3400432 -0.021380525 4.133654 1.2576637 4.2990627 -0.15889446 0.110229075 1.377602 1.5268738 2.826405 -5.889755 3.059696 -1.1025095 -0.8641482
81 -3.4053519 1.7033103 1.2671671 2.838898 2.259646 -1.5030566 3.343511 1.4274838 -2.8323572 2.4028716 1.0879282 -0.10213252 -3.865526 -0.3253789 4.232286 0.43229744 1.9270482 -3.28771 -0.109293796 4.621045 2.2033732 3.4141583 1.3379421 -6.581452 1.3655005 4.618692 -2.3178635 2.8826969 3.7652924 -0.36487347 -1.983832 0.18751349 -3.7466729 -0.38684112 -1.3436253 -0.4282567 -2.3097086 -1.2393562 -0.49308506 3.350885 -1.4304218 -0.10619144 0.47103155 0.98954564 -0.45776582 -0.7750509 -4.369647 -0.47039127 0.5799789 -0.5544599 -4.6912394 1.777888 -1.691666 -2.4445236 -4.8495913 2.8511145 -2.9270763 -0.95145375 -0.24587852 -5.046767 -5.26203 -2.5140872 -0.2591215 -0.7622875
1740 1.6595663 -1.4360603 -4.4922295 -1.0685704 -1.3579216 -1.0966105 -4.3595767 -3.9683049 2.5385776 0.15532081 -3.1548145 1.8587605 -3.5204055 0.06635214 1.188977 -1.4381547 2.654379 -2.8222737 -1.6894518 -5.696917 2.9536147 -2.8234713 -4.283469 2.69129 -0.9751944 -1.0332901 -6.6255703 -0.54874015 -0.54499793 2.6692374 5.3813334 1.1065131 4.058582 -1.558635 1.035358 -2.1673996 2.6527493 4.16793 0.5590152 -2.0535905 -6.4198556 3.1459064 1.5916271 -2.4760544 4.521691 -1.1494497 -0.44640845 1.1651365 -2.5176682 1.566773 -1.2541853 0.49317667 -0.7480387 5.279691 -1.2060204 6.506383 -2.3814478 -1.2298981 1.0777975 -0.20609333 0.8788644 -0.5457138 -1.0966108 2.8850725
753 -0.57357943 -1.2313256 1.5480386 -3.5634947 -1.2278993 -0.6321466 -3.4823842 0.5576245 -1.2409488 1.5566909 -0.46022487 0.12004247 2.4912846 -2.4713972 -0.23290512 1.6943688 0.88209146 2.486026 7.6945457 -1.3137505 3.593267 -1.6451815 -2.0549572 -1.9136218 4.8045607 -1.0250986 0.81144255 -2.953915 -6.577375 0.4468558 2.3707964 -0.23517492 4.824074 3.8374603 -3.7727797 0.3550592 -1.9415427 0.14669083 2.0290437 2.6653502 -0.46268696 0.0692318 1.318092 2.9387033 -0.30060792 1.2691293 2.243145 -1.4166683 4.882397 -1.1927356 -0.14045848 0.44692597 1.9500673 -1.3291397 4.742294 -0.7851191 0.56701404 -0.2710106 -1.220613 2.4324741 -1.3786991 2.6094747 4.1328015 -2.4492178
1475 0.2489456 -0.24363284 -5.668216 -4.2506685 -2.0208442 -1.7900935 0.6260773 2.8004005 3.2430892 -2.985923 3.0837967 -0.71541417 6.0458655 0.044158492 -2.3220727 -0.2905092 3.059922 -1.1601893 -0.6305189 -4.403019 -2.848725 -2.763886 0.769397 4.3619933 2.4095485 2.4897945 1.211127 4.2623825 -2.4169328 -2.7908435 0.18752514 2.3812757 5.3269353 -0.5108269 3.2469656 -2.236048 0.8890075 -2.0858898 -0.5457783 -2.8182323 3.1589034 1.6098822 -4.399308 2.428137 -3.2585287 0.6851498 -0.3890833 -0.5124056 -3.1438856 2.4082847 0.65232056 -1.1649336 0.2745362 -1.3152254 0.40824452 -1.5305697 3.9903784 -4.639344 -5.2638955 3.4930785 0.66543865 1.2101634 -2.7160852 1.8508794
206 2.3771818 4.9143705 3.9932466 1.1775544 0.20507598 4.8007183 -0.9618344 1.5739096 0.51900244 -0.2886022 1.1189806 -2.5675802 0.49574143 -2.111073 -2.218392 -1.5321813 -4.003766 4.0944033 2.0552688 0.94168586 3.3353121 1.2139368 -2.9512916 2.1723711 -1.8164908 1.3522786 -0.8138986 -0.23183258 4.850325 -0.045228124 -0.79841614 -3.9962416 -1.569958 2.058892 -1.5173684 -3.8113437 5.9175563 -7.7043204 -1.5563093 -0.21705136 2.252758 2.4800708 2.1376352 5.29626 -0.5142452 -3.1936615 0.3134879 -2.9297283 -3.9069061 -2.0108986 1.4859663 -3.3906631 0.53755176 3.7829611 2.0942826 -0.06389519 -2.8631516 0.39687517 1.1598382 -1.7684357 1.8174698 -2.086387 3.799248 -0.1634712
947 -2.5421393 -1.4559717 -2.0352457 -3.029532 0.19430232 2.4826198 -2.3960707 -2.9072073 -1.0762663 -3.016362 -2.3807564 -3.516515 4.5863314 0.9735706 -2.3083065 -4.345381 -0.12346268 -5.678234 2.3747988 2.8588378 -1.6922617 -1.9731052 2.6532142 -2.818329 -4.5782323 -2.378362 -2.4679444 0.38974893 0.12622732 3.7847779 -3.2304235 -4.4457526 3.3104696 4.2879367 0.60264295 1.0315659 3.432783 1.5973225 2.7831573 -0.019464822 2.4950821 -1.0694957 -0.24161361 -3.6827512 -0.56752205 -2.5862863 -1.2145872 -0.6797385 3.4916008 -3.71384 -1.6234368 -3.2932007 2.0355055 -1.8493646 -3.290803 -4.6936994 0.5349179 1.3069261 -1.7505761 2.214224 -1.6504076 -1.2916243 -4.7165637 3.5768354
740 0.74738294 -4.256745 -5.6016603 -2.0256882 -0.24647707 2.8571973 -2.6665745 -6.544476 1.6910846 1.4123216 -1.6100914 -0.7461074 -3.5370388 2.389257 0.40058944 -3.3759074 4.5938115 0.6370267 1.9810587 1.1459166 1.783061 0.22775924 3.8367813 -0.14411741 -0.1052948 -0.037020013 -2.8542507 -2.9045212 2.7125335 -0.011993628 1.8042378 0.60411656 3.7487106 0.13867675 3.5000036 -2.3038423 -0.08230618 2.448825 -1.6330972 -2.385444 -1.8717493 -1.9314324 0.10035532 -2.6513648 3.4901311 -0.0847986 2.5685253 0.78646785 -0.25248677 2.799727 -6.1841955 3.1515937 0.502008 5.150918 4.247258 3.8708005 -2.3123858 -0.25677773 -0.0131454 -0.9624387 -1.982619 -2.9493139 -2.388283 -0.25063342
1083 -3.5849788 -2.1027915 -0.31278154 -5.091944 1.9479537 3.3339238 3.1078644 -0.7769643 3.1033266 -3.237145 -2.1867878 2.1879904 1.1666037 -1.0870734 -1.005223 1.9438643 0.8950348 -3.711703 -0.59897786 3.6555657 1.3262618 0.38357636 -0.528425 -0.5277274 -1.1513379 0.67246467 -3.1470006 1.4516468 -1.7656075 4.4145627 -3.0123534 -1.1622715 3.0261734 1.7678262 2.613096 -0.51785725 0.6281392 0.81410575 -0.17125733 2.5169845 -0.023356274 2.10762 -1.9646025 -1.3153367 -3.2601109 -2.1068933 0.036120135 5.282054 3.027514 0.7754472 0.16990419 -0.26429448 -3.1724377 -3.8854797 -4.063676 -6.199334 -2.8835948 2.703061 -3.3929856 4.6340737 3.8258677 -5.2305756 -2.0795736 3.5108838
1364 -0.7797628 -2.3115098 2.1384087 1.1528069 -0.75855374 -1.5828078 0.55344474 -2.0103025 -5.564462 -2.3864763 3.2815344 0.40266177 -4.3788986 0.03863877 -2.457971 -1.9174149 -1.6483127 4.035955 -3.665555 2.5201135 -1.7287314 -3.3855128 2.058791 3.3957536 -0.14520368 1.0768139 0.062010635 -4.3047595 -0.12140415 -1.0440644 0.22878191 3.9698358 -0.78758854 -1.2629011 -4.4512997 0.43240252 3.7345324 -0.87142974 4.8452444 -0.30073744 -3.8117497 0.026808707 -1.351396 1.8106892 -0.8047113 -4.2848053 -4.6391215 1.383896 -0.24708553 -0.29734045 4.254437 1.9382303 -1.1064789 -5.6095386 4.2033286 -2.9317737 0.36638236 -0.6863295 1.9452914 -4.449768 4.5645537 -1.2600352 -1.0885482 -0.96044815
1092 -0.41485927 1.7016222 2.03309 6.58963 -0.27987975 0.9551755 2.354412 -0.24472067 0.25688428 -2.3172455 -4.8030095 0.6214475 3.1438456 -1.5261067 -1.3365386 -3.0341198 -4.16696 4.3775005 -2.1649816 -1.9116459 1.4226198 2.3148239 -0.28292534 -2.0281785 1.5338017 -3.8057144 1.8200312 0.5485277 -0.16692296 -4.4386835 -3.684208 -1.4058299 -0.90746915 -3.9514835 0.78860706 -6.2192826 1.3219416 2.54112 -2.2318692 -1.6381423 -0.65415365 1.8094516 2.1750283 -1.1516097 -0.8142611 0.8925124 -0.3443594 -2.9088087 3.5603855 -2.7152855 2.3833265 -3.384039 -1.6298846 -1.2012035 -3.3492699 -3.191745 -0.25445566 -2.0577476 3.0944345 1.3655138 0.8555212 1.1311048 -3.7252893 -3.869586
1256 2.6405263 4.066518 4.1000876 0.09280806 -2.4263108 5.7330484 -0.10123248 4.797906 -1.1817449 -1.0235951 3.2650383 0.14127463 0.023735289 3.669017 0.080171585 0.16604498 -3.6193805 3.7816036 6.2581873 -2.991402 4.9236 0.34905916 -1.2389972 0.18974605 0.29842937 2.7336266 -0.38918546 -0.2293211 -3.1106992 0.5658049 -3.2274616 -5.382096 -0.9378294 -0.012734449 -1.9493477 -0.56943035 2.1233332 -2.5996275 0.7226421 4.5617585 2.0852726 -1.443651 0.46906802 3.5129702 -0.91402936 -1.3022585 0.7370278 -0.78402996 -3.228858 -0.5599994 -2.0834324 -3.137423 1.9202659 3.9141772 4.4455814 -1.5324867 3.0855975 7.249197 -2.7013438 -4.378392 0.8044309 -0.28913912 1.555812 -2.149505
961 -2.4181793 2.1107194 -2.463891 -3.769848 1.6864829 -1.4436855 -0.5626959 -0.62126774 -3.0295382 -5.445251 -0.9514598 -1.535351 -0.7271317 -1.6832011 -0.111718915 -1.4576554 1.5096099 0.3362172 -3.5455995 5.621338 2.6827846 -4.677436 0.8516095 -0.12843148 -1.4449029 0.74671394 -4.416311 5.930086 -3.9477088 4.9551497 -0.59072244 0.5468737 0.45860088 0.3226669 0.51380235 0.017013537 0.5786328 4.5419326 4.926063 -0.86709905 2.742563 2.2599006 -5.1025896 -1.6932691 2.1753016 -1.67226 1.5518677 1.4606707 2.0418463 -2.2585115 -2.6924386 -1.819174 0.484735 -5.0764966 -6.827489 -3.714598 -1.4181217 5.0165005 -3.3617635 2.3222618 -0.8210166 -0.77958995 -1.0174382 -0.17406897
1516 0.53868496 5.4853153 2.6480265 -1.2421229 -2.7819574 -0.8097307 2.224397 2.0675802 0.011821446 1.6743941 0.20971926 -0.19433898 -1.67437 -2.0427856 1.0732393 -3.5119386 0.24054669 1.8081418 -2.1825244 1.7147053 0.7896862 2.4708776 0.507005 0.8536981 -1.2768428 3.0408173 -3.790454 -1.2291292 2.1796541 0.49147534 -5.1984982 -1.3116997 3.393148 -1.927988 4.0282335 0.64889944 5.2569327 -4.6034083 -1.4688699 3.7608082 6.076732 -1.0523434 -0.11215706 1.149287 0.10906091 2.3782663 -3.353994 0.706387 -4.8473296 -0.8056833 -1.8376198 -3.9529617 -0.7935912 0.88493603 1.1469578 0.8446444 -4.2035456 -0.15232705 -0.070540294 -8.528023 2.5955038 -1.4001385 2.5144799 -0.4732011
324 0.58731717 0.89353216 -0.57127994 0.46611187 5.230426 3.3027573 4.4691973 -0.27948067 1.5090673 6.8203497 -1.6096079 -3.4115183 -4.1220527 1.522008 -0.024308322 2.0461478 3.8561523 -0.25341508 -4.5980124 -1.6688731 -4.474195 -0.99500304 2.735007 0.8093778 -0.76640964 -3.207395 5.724576 3.4601884 -3.430422 -2.5900896 -0.80595434 -1.0649282 0.56263494 3.5638194 -3.431329 0.423401 0.6388163 -3.9861114 0.9835254 -1.6359669 0.797412 -4.8466005 1.9146053 0.14095508 3.8288748 -0.84018534 3.425354 0.6786203 1.2687999 -1.9420928 5.4696407 0.48248124 3.4303014 -1.2956018 -2.6194649 -0.54796404 0.14706282 1.0916846 -0.51352626 0.4512458 -2.6104255 1.3918376 2.055193 -0.74809813
1552 -0.8624934 3.4372945 -0.15783474 -0.45739296 2.9297318 -0.65343124 -2.7682693 2.7474527 -0.27019057 -2.2542052 1.4410489 -4.1884327 1.0272651 1.2031217 -1.748949 0.8442425 5.4106545 -3.812799 0.85369533 -2.4361875 2.6654541 -0.9879377 -0.09455686 1.9417692 0.063642055 3.080461 1.6786656 -0.37375346 -1.7964212 -1.5029515 0.88090473 2.0231204 3.8108466 -1.1316941 2.1767805 1.3138262 -0.69766045 1.0193021 -0.13839905 -4.7792807 3.7386942 1.7634999 -1.4514927 3.156253 -3.158995 2.1106274 -2.537393 -0.9367891 0.69514203 1.3580046 -3.113638 3.2850535 -1.223741 4.3332167 -0.5070024 0.6926831 4.7719316 -5.5698204 -0.6527419 -2.9677913 -1.8115311 3.8914013 -5.2441893 2.782285
1281 -0.20985195 -1.6519862 -5.0463777 -2.9505866 2.499813 3.9897819 0.01095411 -7.203514 4.1846757 -2.2553322 -1.7356815 -1.6429362 -1.6796591 -0.99562806 -0.96732765 -4.2515965 1.8699514 0.87474835 -0.26707688 -0.70361716 0.9304827 0.2532694 3.9930215 0.559902 2.3051414 -1.2142577 -4.714679 -1.8937091 0.56775475 -2.380074 -0.2893 1.9298611 5.2604494 4.147315 4.231247 -0.60590667 -0.69220835 2.7465742 -3.7021217 -2.593801 -5.616069 3.1957557 -1.9190178 -2.2476683 2.4051278 -1.2811396 0.6676012 2.7440038 -4.1062675 0.89249915 -2.1476424 1.8207201 -0.6346211 2.449867 -1.2195293 2.7353644 -4.228823 1.2325438 2.6748886 2.1058877 -2.2493505 -4.706013 -4.052173 1.5955044
1355 -1.3587801 -2.2755988 1.8862929 -2.7973228 2.9922698 0.54200655 1.718037 -0.162849 -3.1499565 5.2855206 2.5856178 -2.1610363 -0.19907127 1.5211732 -0.8157556 4.4604487 -1.4230353 2.783363 -5.618075 -0.052847102 -0.791272 -0.87559754 -1.9061214 3.0836623 -0.5358006 0.31574318 6.585661 2.0321648 2.0858126 0.22593328 3.0403597 -2.0374959 3.638327 4.0155373 1.2994386 2.3849921 1.1085442 -3.1174395 0.1163577 -2.1372604 -1.700099 -5.964821 0.3532699 1.0013555 0.20829839 6.627304 2.3787441 0.5761991 0.036182236 0.29667565 2.182522 2.0327432 1.4685162 0.38765568 -1.3684268 0.043484014 1.232635 0.8920709 -0.20093873 0.44119355 -2.1353433 -2.1797922 0.5901188 -5.8592463
430 2.8125684 1.6400734 -2.6597478 -2.604181 -0.21516015 -0.25844407 4.778019 -4.98608 2.5245345 8.286896 -0.91685104 -2.443994 -0.82369035 2.2618403 -3.765858 6.9239464 -3.4067729 1.309099 -2.2488072 2.265558 -1.8514527 0.38372838 -2.106089 0.4495228 2.1130779 0.4383915 2.0947857 -1.0528315 -1.4808441 -2.7701135 0.67444247 -3.2685027 2.9356265 1.8046169 0.46758965 0.049758952 -0.43598506 -2.0334268 0.46862215 -2.692665 -2.6840763 -1.687354 0.028994938 -1.4157369 5.322058 3.0344481 3.4404624 3.1419978 -0.842661 1.6578698 1.8888294 2.6185057 1.6882663 -2.845633 -0.08363036 2.7455213 -2.4312913 -2.5628717 1.6593258 0.6307128 -2.3798482 -0.9992628 4.6511173 -2.7037637
268 -1.6506001 -2.9421945 -1.7635195 0.1692345 -0.41432586 2.4079244 -0.21563438 0.20513035 1.7710929 -1.9850669 0.19668107 -1.6081437 -0.34713587 0.64560217 -1.7767558 -1.6817429 0.16219442 -0.4237119 1.8222163 1.444043 -5.8691535 -2.6368134 0.168703 3.3204625 -1.379472 -1.5198209 -0.6394991 2.2553742 -1.8031709 6.004356 -1.982485 0.32698253 1.1560143 5.612651 3.6832347 1.5044879 -0.95794755 1.8563454 2.131002 0.3394801 3.283624 0.7053902 -4.3452654 -0.45530596 -2.2410796 -3.8130898 0.25822338 3.4070299 0.1250542 -2.2884688 -0.9436599 -3.383025 3.346095 -0.6135624 -1.1072348 0.8743832 -0.9788366 3.310518 -3.0179863 5.27857 -1.3323646 -3.131793 -7.235429 4.1039424
929 -1.4868718 0.6580928 1.0926625 -0.25800478 -4.384921 0.85691535 -0.24898914 0.34900305 -2.416908 4.8541255 0.5304073 -0.3767985 1.6781876 -1.3309469 -2.216448 -0.9896355 -1.7504855 2.2413008 6.500754 -0.258677 3.0438797 -3.796242 0.060338255 -3.0133212 4.7308593 -1.1302096 0.19424447 -3.465953 -6.023745 4.603655 2.391634 -2.4582062 -1.011161 1.3165802 -1.6858836 0.4348945 -1.4801039 -2.4079025 0.82663727 5.2295675 -0.96727103 -1.1940995 0.7858376 2.2627578 -1.9622104 1.019016 -0.29347557 -2.2303817 3.6170163 2.0083444 -0.34839252 1.7811368 4.6062117 0.8024692 4.925479 0.13119598 0.79506785 2.9022484 -0.7682358 2.6111727 -3.3828042 3.4339283 -0.8920016 -1.4284618
625 -2.4983015 0.29751632 0.18431963 0.84378487 0.4524097 0.13494329 1.6614556 -0.65699697 0.405034 7.7620373 -0.579728 -2.7155588 -4.6041346 2.7909803 -3.8597221 5.875656 0.013439937 1.7787316 -2.7628965 0.89385307 -3.4603088 -1.9465047 4.3015738 1.0721986 -4.1492743 -1.4819146 3.956117 3.7763155 0.8799041 -2.2837074 -0.59725493 2.539368 3.3391929 3.7605484 -2.635895 -1.4976234 -1.2536021 -1.0980365 1.0346252 -4.967198 -0.44250074 -3.8552997 -0.092778675 0.24785821 1.832566 3.7189739 3.2380438 0.9214163 -1.7376568 -3.853999 4.187264 0.566713 2.453713 0.71253633 -0.75400543 -0.49144354 0.8933486 0.42126608 -1.8453757 0.57500046 0.23704201 3.0771546 -1.5859925 -2.6882863
1592 -4.3652825 1.412637 -1.5852271 -1.3784127 0.26886532 4.7834806 2.2102723 -2.3508115 0.96492726 -1.3534485 -3.3974314 -3.0879624 1.9487636 -2.6115634 -2.0148895 -2.7431815 -0.7896813 1.935782 -1.6976432 3.0556228 -0.5018612 -1.2716624 0.26067066 2.8045154 2.1730227 -4.362734 -2.4123063 3.6821165 0.99888384 5.502137 -0.2784055 -3.4432492 2.6671793 3.6543765 -2.3020678 4.3627605 1.0697967 1.3663287 4.2545395 -3.4667432 0.1848598 2.2557995 -0.7686943 -2.1904817 -3.3749087 -3.105452 1.1684066 1.0128535 0.23413403 -0.46300027 -2.647802 -1.5544937 0.5388412 -0.71551734 -3.6224916 -1.2456193 -3.2297494 2.294856 -3.301603 6.110761 1.0410349 -4.7237434 -3.0688202 2.566486
1284 1.6347599 -0.22041442 -1.7719399 -1.783265 -1.0376581 -1.9371034 -1.4534987 5.0506477 -3.1892712 0.7646814 4.5315332 -2.5200026 1.19245 -1.7510492 -1.4334956 1.2329005 6.046534 -2.576399 2.7401528 0.9020912 4.2754545 1.9219925 2.299678 2.856372 1.9912608 -0.6796827 0.047965746 3.9259584 2.721729 0.067382134 -1.1046315 3.9625297 -1.3836085 -2.6430619 3.1045814 -1.1941186 -2.5099611 -2.4840581 -1.5531237 -2.9729567 6.199487 1.533096 -3.3073826 0.25436258 -2.4018447 1.3458401 -3.4125807 3.5762646 3.173943 1.6822743 -1.7857355 2.5330746 -4.4486146 0.07194754 -1.9387413 -0.016628677 4.821272 -7.3960314 1.3465767 -0.9294513 0.91119325 1.3002456 3.107172 1.6765542
1216 2.554304 2.9732277 1.5676919 0.7189047 0.44630972 5.6418877 5.373067 -0.6356697 -2.1404717 6.289703 2.6611383 0.32474807 1.6647285 -3.5393538 0.67493963 -1.4382384 -3.154354 1.1034809 -1.2403058 -2.9271235 -1.2217343 0.8619328 -1.9914988 2.511548 -4.467328 -0.98184055 -5.1078405 -5.4947963 2.468296 -2.429145 -2.4453192 -5.440213 -0.30534708 0.64612985 1.9500197 3.3323867 1.2194391 -3.2332861 0.83131707 -0.29167882 2.0429938 -4.373307 3.7652454 0.046961732 -1.849831 -0.42294583 3.8282063 -1.6419271 -4.1464868 -4.2067113 2.0422027 -4.3960586 -2.482501 2.6457572 0.6016999 3.245654 0.81566465 3.942927 0.84785855 -2.6088889 -1.4597433 0.7464591 4.216838 -3.818404
499 -1.152026 -1.6776599 3.2632465 0.51399046 1.8053753 0.91620654 0.7028417 -1.814815 3.9440427 4.9376736 -0.11667597 0.22435564 -0.58212066 3.9610727 -0.07906544 4.4642324 -4.299896 3.7766182 -5.531253 0.7264261 -1.1331778 0.24740623 4.376177 7.1533546 -4.16608 0.37823868 4.844306 -1.3279108 -0.9335562 -1.2995534 1.1480767 1.505307 4.7091055 -1.0868964 -3.1627533 -0.10844579 -1.2623734 -4.1099687 -3.2902622 -2.542989 -2.6654706 -2.5332828 -0.70735437 -5.9265413 2.8375552 2.0147874 0.5578937 3.0936496 -0.23275323 0.6183439 0.6734872 1.3638455 -1.5503755 -3.3973453 2.1468077 -1.1385622 -2.886581 1.366341 -2.148508 -0.39410064 -1.6271511 1.2656375 2.8118672 -1.0618645
1588 0.7164871 0.26915738 0.218333 1.6055994 -1.9990708 1.5916013 -0.68807644 4.945656 -0.62181765 -0.26691395 1.5326724 -1.490779 4.5603037 -2.9995263 -3.48676 -2.859196 4.367915 1.9383255 5.0754204 -2.4288292 3.6177826 0.88768935 -5.744822 -2.2082512 3.0634403 -2.2656317 -1.6053646 1.7650458 -7.9777384 1.2205379 -1.5877436 -0.016276423 4.4749146 2.5101004 0.19668134 -0.7861163 -3.5840113 0.11238871 -1.5826323 0.50991476 1.8517731 -1.9451649 1.3396387 2.6168535 -3.5073864 5.373531 0.5317154 -0.2424208 1.7645142 -0.40607768 2.581927 4.6057982 0.40272614 3.3653347 3.9142878 -0.25059772 2.78173 1.189058 -0.23493756 3.1248758 -3.3387437 4.036536 4.799422 0.7431171
1559 -1.3664583 1.5453417 0.22667383 2.115256 2.8541758 -4.291178 2.8938663 -1.8472623 -1.098262 5.8575506 -0.99013764 -0.13893914 -0.21198939 3.0256515 -3.7029629 2.0268564 -1.0388361 -2.0612972 -7.723686 -4.0280523 0.5887496 0.16877495 -0.34275043 -2.0363197 -1.5472481 -5.073629 6.308198 -1.9479126 -3.6256022 0.4027836 1.4417839 -3.0542367 4.419131 3.5187337 -3.463502 1.5823488 1.0585417 -3.0808594 -0.76777524 -2.4423728 3.1503806 -0.37998122 1.8780605 -0.5083624 3.3932738 3.6536162 1.6142894 -0.76842755 2.8172343 1.2090935 5.0414114 1.4235591 4.080418 -2.550636 1.6479325 3.4733448 -0.9175882 -0.8776107 -1.7252324 0.13672799 -1.6074302 1.3566949 0.4441434 -0.6985583
406 -3.5547054 2.451941 0.7295551 5.061297 -0.0854479 -1.4647038 1.2434769 -4.0677075 -0.63402504 0.829209 2.8969643 1.3024113 -1.890095 -3.752366 4.7377896 -0.56187826 2.287543 -3.8738763 1.6326884 3.1818163 1.6990048 0.8980314 -0.29468024 -6.321347 -1.5867612 1.5123416 1.8322898 -0.48453695 0.26072884 -1.037835 -0.15809485 2.5919197 -2.9350784 -2.0197427 2.1953757 0.3827975 -1.6570497 -1.1753538 -1.4941729 -2.2566097 2.0835788 2.4176035 -0.26574764 2.2705212 -0.6403668 0.22620794 0.5120656 -2.9352925 2.7696545 -0.117424585 -5.991949 -1.7399404 -1.4958487 -2.7985802 -1.9187294 1.5192385 -3.1427345 -4.135063 -3.4499528 -5.0660005 -0.76968694 0.85662335 1.1154598 -2.3479068
1514 -3.2007082 0.44204086 1.8105259 4.420203 -1.4681207 2.6967728 -4.371666 0.50622547 0.10701882 -0.39378104 -5.6165576 3.4677124 1.9811192 -3.7105124 -0.4045884 -1.8564711 -1.9577284 3.4745843 2.1809952 0.1686064 0.06199292 -2.115071 -1.2969385 -2.6949313 -3.6307666 -3.1529658 2.3712761 -2.9154673 -4.040166 -1.6499587 2.6766052 -3.2990966 -0.50190973 -3.6421587 -1.8432491 -3.2724607 1.8551501 1.8762453 -4.469707 -3.3623369 1.5512073 1.1373338 5.3061023 2.151687 -0.7422783 3.619368 0.53966045 2.120187 -3.3378716 -3.0841844 -0.41580597 -2.2683663 0.46152705 -3.7916415 -0.21932058 2.4205773 2.5473409 0.58800405 5.075738 -1.326457 -3.2253153 0.46617627 -3.797472 -3.0464206
1838 1.0224112 -1.4139758 1.0137506 -5.077645 -0.2347263 -1.3469057 3.320073 4.741549 4.1731443 -3.515606 0.42913875 0.2830176 -0.9008426 0.72897124 1.0167291 -1.1982552 -2.4002578 -0.7805549 -2.8020563 3.651582 -1.2463732 -3.13614 -1.4029987 0.48212314 -0.03999657 -3.7285566 -1.0138448 4.9108086 0.18281813 3.9962823 -1.892566 -1.7924566 2.4542544 4.0849543 3.0423875 1.4755907 -0.86249715 0.12489653 0.969529 0.74774563 -1.4024682 3.941595 -1.9260294 -3.6008842 0.49164042 0.3711303 -1.170195 -0.90597695 1.4458033 -2.3977964 -0.32976815 -3.3620133 -0.16539381 -2.257702 -6.463686 -3.8587928 -2.4023385 2.8084178 -3.0498238 4.974531 -2.5006025 -0.41659978 -1.183439 4.3306136
1275 -0.4992012 2.9606848 -2.8986037 0.5784868 2.5896845 -2.4030082 -1.4885079 0.2994908 -3.06006 -1.0742023 0.40834022 -3.169599 -1.4379573 -0.13192604 -1.1759548 0.55032337 7.1368866 -2.3554094 -0.16933423 0.76868707 0.8209187 0.46059912 -2.480043 0.9007104 3.5169435 -0.64076567 4.874836 0.8123077 -2.656451 0.10466102 0.91334623 4.125468 -0.9701415 -1.0095801 5.355738 2.2018707 -0.8826393 -3.2048223 1.3916663 -3.4052153 2.8728268 -0.139838 -3.048751 -1.4512572 -4.2403984 5.2042456 -2.1805012 -1.2732527 1.1175969 1.3985982 -5.1180277 1.5579875 -1.7237045 0.79681766 -4.5233216 3.3046706 3.4648616 -6.4154034 -2.7155585 -3.5918345 0.07365337 3.1207676 1.4365723 1.6790668
372 -0.78655386 5.2670074 -0.41105694 3.5456266 0.38129324 0.5754918 2.1605008 -2.8382168 -3.2594955 -1.7182083 -0.100848675 -2.753432 -2.3793056 2.9056995 1.8468418 4.4420505 -1.9468114 2.8013048 -1.3765277 -0.56626904 1.7271365 -0.6580485 -1.3042717 -0.5048141 -1.2082568 3.2277837 -6.6354795 -2.657512 0.7268046 2.7714715 -3.0977993 -3.856003 -1.6108764 1.2242953 3.9061394 2.310073 1.4448605 -3.6341734 2.9699016 1.2527514 4.977531 -4.150533 1.7421926 -0.64908 0.521364 -2.218063 -2.8133407 -2.5931835 -0.27223557 -4.0806904 -2.5837984 -4.124502 -0.4576313 3.5330293 -0.78296673 2.681318 -4.387789 -0.4148451 -1.8543698 -6.5016127 2.1965792 1.1792943 4.394271 0.5021368
1570 -2.1915028 0.069031306 0.66484076 -1.2835417 2.1052861 -3.2071078 1.9795144 -2.18658 0.56579334 5.3704615 0.5547655 -4.307243 2.0173225 1.3647777 -2.274577 5.450541 -1.8130865 0.8990045 -5.116772 -2.2438452 -1.1306586 -0.44900954 1.5991083 0.7967935 -4.311109 -4.4045057 5.643527 -0.28702492 2.5773904 1.6477642 1.19109 -3.0148277 3.889003 3.3179069 -0.8150665 -0.66837066 1.1468558 -4.4118404 1.3408229 -2.6252878 1.3617365 -3.505716 1.0751264 -1.6534235 2.235794 2.2617393 2.7384613 2.4163473 -1.0439738 1.7147267 2.7833126 2.6083791 -0.18892556 1.5454162 0.18216361 0.5798367 0.07196574 2.907745 -1.6222936 1.1009145 1.2464402 1.1085571 2.9829195 -3.4521785
795 -0.7591388 -1.5025939 0.1923657 -2.5017517 -0.6503785 4.2972803 1.290991 3.470155 1.6011268 -1.4489342 0.59577954 -0.1504092 4.8707395 0.04658771 1.0967882 -5.3456078 0.7975065 -2.6261976 -2.2972262 5.0522985 2.5870478 -4.1167903 -0.26587164 -0.19312492 -0.19574273 -4.4986954 -1.8290335 7.0755506 -0.97380555 1.3335427 -2.527552 0.13942118 2.4370809 2.6142838 1.2296913 0.875821 -0.50145966 0.6724291 2.6451182 -3.7762537 1.5889015 1.7469499 -1.166323 -1.9082675 -1.7989604 -0.583079 -0.6221169 2.612372 0.9893314 -1.3700466 -2.422226 -3.5946755 0.007972058 -0.6121965 -4.2087584 -1.5333881 -2.789188 5.0815516 -3.6203318 4.428394 -1.8510373 -1.9115653 -2.3577142 4.149451
1367 -1.3736191 -0.45633075 -0.88631546 -3.4856267 0.6326408 -1.4843819 -3.8532698 -1.9632833 -3.7404463 1.3271381 2.1100304 0.6687314 0.3853291 -3.5519774 0.1898032 -2.4989796 0.06979635 -0.7495936 4.960779 0.56576836 0.93397427 -0.4301549 -1.4272761 0.28697756 1.8075656 0.81531876 0.075525776 -3.1674767 -2.9935465 5.258215 -0.37159783 -4.968099 2.1480384 1.7522049 0.004899482 -0.26970005 -5.5549045 1.2801675 0.49349716 3.7297468 0.6344395 2.654667 3.283031 0.44578254 -1.7249821 2.4529657 0.2677862 -0.9510187 -1.9131445 1.4333309 0.6414552 0.075263985 3.849 -0.2969062 3.7512217 0.52105695 -2.1337242 -0.034090612 -3.2334983 6.358627 -4.5787272 3.652921 -1.058312 -4.19474
1169 -5.515147 4.3906956 -4.0282807 0.21019736 -2.2597737 -2.3963668 0.7768826 -3.2454605 -0.7597243 0.42007324 3.4660447 -0.5519285 2.2991166 -0.17384465 4.0703163 2.8711314 -1.2820035 -3.3457766 2.0020387 5.7648463 -0.9954354 1.7402097 0.6973304 -6.708674 -3.2912908 1.2639445 0.5016737 -1.7049984 4.8637185 2.5344224 -1.8386968 2.9806752 -5.1296268 -2.0244675 -1.6091671 1.4928982 -1.6914825 -2.4102433 -3.371402 1.1209408 1.8180925 -0.58952194 -1.8195417 0.8828895 -1.720701 2.6419857 0.36674374 -1.555851 4.8672953 -0.9362805 -3.2453287 -0.50935096 0.15740462 -2.32495 -0.27688518 3.7071953 -0.69362843 0.96040267 -1.0191699 -2.2507308 -2.1687887 1.3501109 1.7449607 -0.4751199
1635 3.4636734 1.0801342 -0.5288735 -0.92976344 3.232228 -1.5504111 3.355222 5.7175455 3.7595093 -3.9665706 -2.3096733 0.96067256 3.758875 0.5930901 4.036305 -0.0066470196 -5.3364396 -1.1307212 3.6727836 -2.9233973 -3.5398943 1.4165063 3.5908542 -3.0163927 -2.5166843 1.5739838 0.9608477 0.9202662 1.789633 -3.6945167 2.4791222 2.273013 -3.5213447 0.40691644 -0.33031064 2.6301918 1.5850625 2.3134513 3.0749311 4.9544544 -1.1842654 -1.5113065 -3.2230506 0.49771494 0.16734944 -3.7030878 3.4201899 1.8452206 -3.6885462 -1.2906363 -2.31538 1.1222603 3.0360568 -0.008076752 0.7345383 0.22429104 3.0960279 -0.32912597 0.17308705 2.5115151 0.36181426 1.5472134 0.115582556 -3.1767223
1549 -0.03367897 1.2980988 4.2761784 -0.585664 1.1395861 1.454824 4.0600753 -1.1961299 2.823063 5.892715 -0.73936486 1.6155568 -0.48948604 0.2780429 -1.2790226 4.762043 0.35889322 2.7450922 -2.6591978 -0.5053265 -2.0416977 0.40721524 1.3669643 2.7422602 -2.1175005 -1.2764384 3.8283882 0.16289781 -3.6813304 -2.3633857 0.6303089 0.39015123 4.1215653 3.0591626 -1.4704548 2.0214353 3.931299 -3.8454764 -1.6605024 -1.753436 -3.0521865 -5.317412 -0.46455556 -3.5035694 4.5523996 2.4100559 1.7975012 0.68455285 -0.33999193 0.7196026 4.502047 1.1893816 -3.8064113 -1.7475423 -0.50672257 4.544145 -1.3471633 -0.93479764 -2.7870176 -0.62717414 -3.8755875 -0.18850116 2.711684 -1.115102
720 -3.7807982 2.8073833 -0.42378217 2.9667418 0.2480186 0.8806157 2.0373185 -2.3587317 -4.214846 1.7179437 3.4123495 2.2738192 -3.1227803 -3.523219 2.3632934 -2.6745472 -1.4016681 -1.1569672 -1.6897656 2.9402926 5.1291595 3.0661438 -0.07626492 -10.907723 -0.8211856 1.9870977 -3.7458546 5.8771453 3.232829 -0.9358909 -3.117904 2.1762047 -5.000833 -1.7455859 -0.2355389 -1.0704088 -0.42973602 0.51804054 -1.0692384 -2.0223918 0.34493467 -1.8526236 -0.3048009 1.8518667 -1.471705 -0.013704272 -2.4325657 0.333685 4.5317345 2.7705703 -2.847475 -0.91859233 -0.9625511 -4.401936 -0.2862625 0.8651006 -2.1869712 -0.20569392 -1.9028108 -2.3349977 -2.3169405 0.41793782 0.81844807 -1.1781799
1793 -0.20880331 0.44344386 2.71642 2.5221608 -1.7873225 0.65234023 -0.49596712 -0.056022014 -1.9757932 0.347316 1.3651602 -0.6860502 5.3229585 -2.9617674 -1.3079727 -1.1931671 -1.4536334 2.8055472 0.61235577 1.3343127 2.2318797 -1.3537985 -4.717884 -7.6748962 5.4953527 -1.3774012 0.0038630052 0.13094938 -5.836724 0.95938224 -0.8842891 -4.1373334 4.1309457 1.2454164 -2.078338 -4.118547 -0.42556497 0.706724 -1.8743567 2.9707453 -2.8828008 3.890214 0.43291622 1.5324043 -1.5480312 3.2066505 -0.40634596 -2.7910442 3.6136317 -0.16974513 2.7552354 2.0760005 1.1476535 -1.7906811 2.8779035 -0.76145464 0.07958839 1.1315157 2.9802237 5.977898 -1.4516889 4.0152164 -0.95408285 -3.2771096
27 -1.8052266 -4.977825 3.8806777 3.682354 1.097006 4.959304 1.8817027 5.825343 -0.9663946 -1.1786456 -1.471386 -0.89206445 6.2415905 -5.87326 1.0344303 -0.918746 -0.1009231 4.3123116 -1.9029685 0.33518383 1.6203419 1.3752025 -0.9523873 1.545523 -3.3974273 -3.9937687 2.5033185 2.161033 0.5613307 -1.0956161 -1.0166024 2.5549338 0.96800894 0.44311756 2.915029 -6.6849084 0.40751353 5.8644557 -2.543565 -5.639097 4.185009 2.2526588 -1.2805598 0.70727134 -1.4886566 0.13310605 -4.8670444 1.9044832 1.7960484 -0.7539385 1.1622604 -1.9283708 -3.4199471 2.5545797 -2.6160526 1.2463816 2.8944554 2.8946092 1.8721733 1.0429639 -1.5882393 -2.1488426 -2.8487918 2.5335655
860 5.6541996 -0.48504755 0.88480556 -3.1647468 3.582286 -4.8801045 3.9377859 3.9866962 -0.5567764 -8.73441 -0.8459425 2.5811825 0.6935948 0.42281848 3.333439 5.6023755 -5.356184 -1.4049603 0.18189411 3.6996207 -4.0905237 -1.0999037 1.6841205 -3.7314835 0.3765809 1.2450176 -0.023949265 2.1675572 0.6908184 -1.90907 -1.3707794 -1.0890286 -0.8073821 1.447923 3.7134933 2.7677312 2.003605 2.7948904 0.55269504 2.3449416 -2.2101264 -0.517316 -1.9358459 0.034746695 2.5115182 -2.2662604 3.9483645 0.91051483 -2.2823956 0.866494 0.24972486 -3.2640693 4.4054956 0.12943867 -0.7347058 -2.1765428 3.3951871 2.3262165 -3.2857134 5.2355504 -0.06788714 2.0897942 -1.3058358 2.4384384
1163 1.0449142 0.909642 -2.4016874 -1.7009896 -0.22363633 2.818138 0.3067472 4.4715867 1.2075245 -2.755222 -0.19247673 -3.2935123 4.0417724 1.7125261 -0.70986104 -3.7076643 7.603136 0.67451715 2.9674573 -1.973156 0.78495914 0.82472956 -1.1247249 1.3238292 -0.928501 -1.1175369 0.37680694 0.3523037 0.9181874 -3.6761358 2.2347875 0.08444355 -0.48432133 -2.8680816 1.9748796 -0.025737207 -1.492709 1.6898876 0.37998873 -2.5865862 3.850831 -0.62217444 -1.9141494 2.5251746 -5.4872046 2.97632 -1.7859427 -0.18055505 1.6541818 2.2878866 -0.780595 3.0703151 0.11326833 0.62468135 0.05320525 3.107625 7.318875 -4.0392213 -1.3471788 -3.1715052 -2.3361347 4.34036 0.1540893 3.147316
1875 2.3802915 -1.1631448 0.9901319 0.6257103 -0.1707014 -2.4892888 -0.19087806 1.5194173 -0.7408369 -4.5265307 0.3456176 2.4777572 1.8600426 0.8120478 0.93941796 -0.46192136 -4.2681866 0.37944788 -0.87997437 -1.862682 -1.2989284 2.8186486 3.4814165 -2.8522027 1.0478663 0.16735405 6.5404215 2.650247 -0.50973207 -2.2823248 3.0073037 0.15835857 -4.203671 -3.5179033 -1.8713527 0.12686098 -3.1991947 2.0384119 5.4494143 3.7061918 -0.5260301 -0.13528353 1.5296896 -2.660522 1.022154 -2.0426075 5.487112 0.6733593 -5.753696 -1.8063335 -1.4302781 0.30845153 0.21029025 0.18075232 2.436941 -1.5699898 1.3815922 -2.3678994 -1.8960955 4.634962 3.5233934 3.2872255 1.4965789 2.7286396
483 -0.1498786 4.0084653 -1.3256862 -1.9646395 0.66983503 0.7446979 2.3537357 3.898913 2.1454136 8.316816 -0.7921516 -2.0339026 3.4999804 2.7234263 -3.9071064 3.7810376 -1.7655729 2.0907967 -4.72366 -4.5054274 -0.8363172 -3.2110019 -2.8496325 4.3642483 -0.50208825 -1.0959078 6.2657695 1.0428478 1.0948409 -0.47740322 -0.17235433 2.651059 1.5246435 1.75708 -0.35061175 -0.026806334 0.86134076 -1.9587245 -1.5660374 -3.6911907 -2.4467428 -6.8693213 -1.0032011 -2.1403813 0.18173026 4.9007587 -1.5655274 4.4845386 0.13337052 0.08467211 2.300884 3.1411984 -0.013434401 0.7144012 2.4978375 -2.4963033 0.31737736 0.73935467 -1.6614077 -0.18810691 -1.608211 1.4862875 0.3787428 2.9938378
575 0.59066576 -1.770323 2.130263 -4.142969 -2.5941184 1.4393123 -1.1723665 -0.39816234 -2.9886587 5.897472 0.93573976 2.2384875 1.317038 -1.9645972 4.318824 -3.080882 -2.0180352 -2.373885 0.5245136 -1.4800066 2.3155813 -0.64809924 -1.3171892 1.450346 0.735945 -0.597687 -1.2911881 -5.4534097 -2.9193192 0.98898274 2.193224 -2.8029006 4.231811 2.4949923 1.3217018 -1.2174122 -6.2171865 0.81552976 -0.5763266 2.91819 1.870224 1.103962 2.8221545 0.37392142 4.5356784 -0.6898814 5.25922 0.59014434 1.8027484 2.1124506 1.9104353 0.91797686 0.13635294 -0.20609799 3.339868 3.4655607 -2.3657486 0.7368205 -0.0656336 3.945657 -3.9703243 3.728812 2.172412 -0.2872764
1823 -4.877679 0.66137683 -1.1545743 1.3610094 -2.047428 -0.030981023 1.0864267 -0.2656574 -1.849641 1.198545 4.9576488 1.0566765 -0.51185167 -1.182706 1.0836065 -0.41983598 -1.10099 -6.9887414 0.20676142 2.1576385 -0.6312378 4.3114443 1.5446705 -3.3042638 -0.8190119 1.7612742 1.8095212 2.7949142 1.4307166 3.3988433 0.827817 -3.1429188 -7.076853 -0.6002306 -1.3586061 -0.68062615 0.06710023 0.15651034 -0.04710558 -0.2982912 -0.30788758 1.55984 -3.0432248 0.56587076 1.3813154 0.45524788 -2.0512273 -2.178533 2.5905833 3.2734315 -1.7253519 -0.5010244 -1.3572581 1.240153 -4.260424 1.4931589 -4.3527083 -2.2918699 -3.5472064 -4.9501066 -5.2951655 1.0476437 3.6295125 0.90572757
1087 -1.8804389 1.058198 -0.052753825 -1.2496604 3.1582437 -0.85160506 1.9776205 -2.622104 -1.8651859 4.3899713 2.8697293 -2.2183897 0.6187558 1.368715 -3.374107 4.9786844 -0.94049704 4.289236 -9.025592 0.4721556 -0.50897324 -3.3250349 0.94472647 0.76908547 -2.3532016 1.1735356 4.7653327 -0.40730447 0.43243504 1.9473554 1.3222358 -1.5195588 1.3307791 2.377749 -0.93418264 1.4226794 2.171872 -0.29565778 -2.9882329 -5.8724666 0.44908974 -3.9116836 -1.0048997 -1.9621178 1.3941703 4.4449735 6.193992 2.8874862 0.49371532 -1.6876097 4.7130136 0.40436473 0.783528 -1.0753392 -0.93185544 1.9019719 0.20166405 1.1240973 -0.7706616 -0.56520617 0.53217983 -2.145937 1.0341532 -2.136143
282 2.1558464 -0.7091146 1.0432731 0.08099274 0.41616338 -0.028720979 2.5080216 0.14955886 2.8801413 8.998136 -0.89422524 -4.525093 0.5524524 1.9429713 -3.813241 6.772037 -0.24266754 -0.91867775 -3.23706 -6.119188 1.6958742 -3.0068603 0.23593375 0.75660425 -0.49017036 -2.9536679 4.3224983 -0.934302 -1.1655914 3.1338537 1.4228003 -2.8940287 4.962323 -0.060513355 -2.5554068 1.2831091 -1.2427542 -0.42977557 -0.6276971 -0.93669975 4.284825 -2.4035988 -1.0247194 -2.360845 5.294235 0.20379701 6.047114 1.0121088 -1.7075356 -1.3706592 -0.054127168 4.0160713 -0.28352782 1.4510818 2.6721807 2.029238 -0.49478695 3.7684288 -2.254806 -0.007748332 -4.372974 -1.6809789 2.2242465 -5.9662666
1655 3.5082853 3.416567 4.9782486 1.9854186 2.5172477 -1.0072911 2.779573 1.3789004 -1.284212 -5.5120435 -0.030720547 -0.06828086 0.92408 2.0732243 3.4496732 0.23337209 -2.0813076 3.0047822 0.6907571 -2.8403997 -3.9711018 -0.8691616 3.5300863 -2.2674816 -3.5077379 5.412949 2.3329816 4.186106 1.714313 -4.2208595 -0.9316236 1.1221404 -0.6381201 -2.7825863 -0.2685154 0.8351191 0.4903888 -0.7202488 4.3416567 5.378073 -2.2153482 -3.65462 -1.0070899 2.8046095 4.403875 0.78077567 2.7525687 -1.5091063 -5.6357784 0.27592146 -3.216549 -1.8979919 1.6121659 3.367167 0.4857229 0.263381 1.4492618 0.57946426 2.2713385 1.3341668 -0.435801 -2.8944705 1.4193323 4.6605625
1700 -0.8009806 2.4369233 2.059 -1.3946129 -1.3505296 1.1557943 3.1317127 1.0999953 -2.420873 -3.048248 1.2001816 -2.216245 -0.47609213 1.509769 1.0433298 4.662631 0.29040983 -0.25911388 3.0333974 -3.5471835 0.36531886 -0.60409224 -2.0883706 2.067175 -4.7077584 5.401016 -2.7492669 -5.479872 1.682463 0.39053726 -4.0743046 -4.210407 1.1049677 0.98105836 2.5379355 -3.0868108 3.853572 -1.4960406 0.56961286 0.8117378 0.4736558 -2.5300543 -0.49146926 3.8035746 1.492401 -1.601604 0.756606 -1.1100214 -1.0191997 -2.9991539 0.15084773 -3.7434587 0.33202338 0.93189836 1.244258 -0.12493334 -4.696655 3.052141 3.0732918 -4.060594 4.5876565 -1.024454 -0.23666081 1.0186869
504 5.335463 -1.1691464 0.25538096 -2.0599868 4.7733855 -1.7487236 1.4200742 2.3585167 -1.3944867 -8.6124735 -2.4843965 -1.1094269 5.622138 4.1035566 0.15086378 2.702507 -0.21304491 0.43891904 -0.20250769 0.17873745 -2.88969 2.3387039 -0.2526305 -0.21215244 3.219829 0.6626159 6.5674953 0.23280895 0.43053967 -1.8353693 4.5392528 2.7280562 -0.6132211 -7.072845 0.20913213 1.2235007 -1.8174565 1.5593038 3.8265932 4.248944 1.9132205 0.6381741 -1.3565634 -1.1640092 -1.9533008 2.4629903 1.417826 -2.6297643 -3.5714507 -1.428724 -4.933804 2.3174512 -0.37282678 2.7189643 1.7173713 1.786465 1.8446406 -3.4500005 -2.6281078 2.696398 2.760572 -0.09201891 0.11980122 3.1186252
838 -1.8147368 2.358051 3.4034863 -1.0668991 5.0166993 2.4114594 4.0531816 -1.5218543 1.1958503 0.2248667 2.8186069 -1.7207482 -1.5605416 -1.6968411 0.16509369 -1.2811905 -0.50977373 1.6615373 0.6941165 -4.536818 1.6331042 0.34349912 -2.115435 2.8540106 -6.70218 6.1600943 -4.698182 -2.2639017 0.6879456 -1.3152586 -3.5896153 -3.4273438 -0.074994884 -1.7840035 2.1118252 -1.0021896 0.7121499 -4.3800373 -0.6163797 3.3276641 2.7856565 -2.1778414 0.3068305 1.9163526 0.51440364 0.26842684 -0.1765741 -0.012553576 -1.714718 -2.9905748 -1.3310248 -3.4498627 -2.656224 4.0617414 -0.998517 2.5424216 0.011595172 3.2041206 0.044421945 -1.8587549 4.6084967 -1.1769717 -1.5022608 1.7310373
515 2.466082 1.7496921 1.8223993 -2.4310877 0.9569917 0.8061499 3.6672237 0.287667 1.7298734 -4.2010913 0.87749356 -0.71124315 0.02143153 -1.6432507 2.0023887 1.4856421 0.025622658 -4.630543 -1.1505412 5.868911 -0.17919686 -2.6599128 -3.4232843 2.1794736 0.83987266 -2.8347774 -2.4843092 2.328808 0.0071947677 4.7814937 -0.9841986 3.4336293 -1.15824 1.9293896 2.5720117 1.7783108 3.9904087 -2.0658567 1.2531686 -0.35477155 2.1093025 -1.3259299 -2.7495017 -2.059007 -3.7101402 -1.6229604 -3.2781117 -0.7415479 -0.34407339 -0.27431914 -0.6819979 -1.0679224 0.69690776 -3.6779337 1.4173473 -6.733665 0.050716158 5.23866 -2.6228046 5.4618115 -0.9037555 -2.9582968 -6.257203 7.6445856
1783 3.2022288 -0.17357698 -1.268772 -2.473155 0.4977995 -0.7028037 1.9611238 2.7061174 0.1532069 -5.609981 0.11436652 2.0753016 0.027998358 -0.36442316 3.0794008 0.98005486 -3.5939531 -3.199487 -2.9542575 1.4294014 -2.3413072 -0.49007794 -0.9503349 -4.1576743 -1.0334907 2.2538981 3.7183642 2.5339985 -3.8224378 -0.48553845 1.3474294 2.0131826 -3.0049844 -2.1876476 1.3105007 3.2097695 -2.549798 1.8188624 5.2544847 3.9190185 0.57152104 -1.2106303 2.7193544 2.0850275 0.9545232 -3.6320078 7.986948 0.35146707 -1.8250471 3.660757 0.45311743 0.7662101 2.272166 5.924577 2.9467244 2.2366736 -2.1315873 -0.12435117 -0.3431962 2.340371 2.0061018 1.4909699 -0.8679153 0.44362396
1716 -0.3204737 -2.2277706 1.409403 -3.1011937 -1.1644363 -1.1635413 -2.764102 -2.3324184 -1.7874918 1.7632861 0.71862507 2.7937107 2.8137872 -0.8429153 4.3327947 -2.1854043 2.1734354 0.95854586 8.5761385 -2.9000087 1.958246 -1.0998878 -3.558298 -2.1424062 4.6519017 0.53223664 -1.1369737 -2.2423027 -4.5198646 1.8031877 1.0402961 -0.6550677 1.7212259 2.5114064 -4.43776 -1.74906 -3.887652 0.24784786 0.89904994 -0.08888857 0.61211514 0.52975607 1.5929081 -0.7458031 2.0177798 5.808361 1.71754 -1.3380795 0.81615055 -3.2929916 2.483964 1.1474496 5.5417614 -2.1430068 2.4186585 0.73477393 1.7522156 -1.4867901 1.6465045 1.3314387 0.10552212 2.1250672 3.95925 0.71263456
806 -4.916082 2.09256 -0.069500454 -1.0405498 -3.4023762 -4.826019 1.2941425 -1.8795125 0.02251286 1.7232397 3.8671622 -2.9372752 2.9603102 1.4899586 2.139139 -0.37591118 0.42314768 -6.590571 1.4372528 5.9432325 1.6481415 1.0468675 0.16822127 -4.4395275 -1.4459244 1.3997347 -1.2992183 3.811084 3.4965606 1.0678512 -1.4207493 -0.3909793 -5.9524436 0.38110468 -1.9181856 2.237795 -1.4191495 0.22534008 -3.7266867 2.007857 2.1884172 -0.81692016 -3.216681 1.0092328 -0.5870544 1.7393649 2.3425295 2.6317885 1.3400686 3.007269 -0.0999934 -1.1110098 -0.36460662 -0.4842884 -2.49011 0.18678798 -2.9065945 2.0719821 0.18984452 -2.9642642 -1.8018308 0.27213845 2.8096914 -3.1237807
840 0.52441114 -4.283647 -4.1402965 -0.8469055 -0.43284997 -0.041629538 -2.731294 -1.2907547 3.478105 -1.9029518 0.44502315 -1.3471544 -1.4849732 0.15232019 0.631668 -1.2910115 3.7715423 -0.11606314 -1.5503652 -3.2867517 2.7959442 2.4848073 -3.2753217 1.8687724 2.3834498 1.8856857 -5.9361296 -2.9725084 0.75347257 2.9684365 0.56467146 0.25101003 2.2902586 -0.59417725 0.98186576 -1.5774491 2.557426 5.787979 -2.202948 -0.48874244 -5.760972 1.8025705 -0.37587127 -4.6051507 6.652716 -0.66244024 3.9588263 1.8312634 -2.5235865 0.52760416 -2.5129704 3.4061065 -0.4682036 3.2719047 0.6566458 -0.97032744 -1.9251435 0.27341008 -0.6822294 -1.2390331 0.9742375 0.065006495 1.4559628 0.38394335
802 -3.5613985 -2.331952 -0.94936055 -5.5608582 -0.54896617 2.1598434 -0.90126383 1.5892539 2.7204456 -2.5183957 -2.1003785 1.5802047 0.90978134 -1.7580515 2.9338937 -0.16456874 -0.83147496 -2.6754525 -0.7764279 1.2954742 -1.6095532 0.79227436 3.0613532 -1.1572438 1.5841913 -1.3966305 -0.9309534 1.8495773 -0.98253864 4.530362 -4.2025437 -0.62650394 4.766431 4.0853972 1.1399856 -1.9724282 0.51915777 1.9720917 0.5057323 -0.082662895 3.8514972 3.1165214 -1.1649191 -0.35630047 -1.0843067 -2.0257652 0.36684018 3.7564025 2.8950427 -2.8934526 0.98359823 -1.2573177 -0.5598579 -2.7720442 -2.4214442 -5.501822 -1.8164095 1.7816737 -1.12542 2.298461 2.913486 -5.300813 -3.6433196 2.3043144
22 -4.4207687 1.5286121 -3.4383068 -1.1475596 -0.32520106 0.13645566 -0.7138087 3.6594923 -0.45236534 -2.2415996 -0.99635077 -3.0451832 3.1712506 -0.7961193 0.70371455 2.6911988 4.940252 0.63471097 1.356823 -2.38849 -0.039383393 -0.23091087 0.6413867 3.9183817 1.8396164 -3.0603821 0.97782516 2.4361944 -0.79532075 -3.4598155 1.1440103 1.4947023 0.14164625 -1.0949317 1.0988808 -1.0787243 -3.2335815 -3.3964586 -1.9328059 -1.5306453 4.745626 -0.28256133 -3.0333307 1.378022 -3.1317308 -0.051965218 -2.3139145 0.671941 0.3207034 5.3296976 -0.36895445 1.6762651 -3.7908654 1.9872503 0.45210192 -1.7839235 4.213281 -5.337778 -2.3410478 -0.8974175 0.064619094 2.433972 -0.76415265 4.4986143
603 0.744663 0.81641954 3.656517 0.5188889 0.7402022 3.450652 -0.2426505 2.1864607 1.1652507 -0.87820864 1.9449102 -5.5846815 -1.073323 3.9873328 -2.6440492 2.9878426 -0.49720827 3.1759663 3.376669 -2.4445333 1.6533959 2.1836493 0.35073516 0.54128855 -1.655579 0.70612866 -2.9125035 -3.0914617 2.3831406 1.2142639 -2.913144 -5.8811407 -3.2259939 1.4126072 1.3712964 -0.8052809 1.4408314 -4.5063014 0.5607503 4.2739 1.7916998 -1.091124 -2.5292222 3.1262822 -0.79861945 1.6749442 0.073729195 -1.4982814 -2.6656 -0.84554493 -5.853057 -2.4483657 -0.30579102 0.9716944 4.05655 -2.2609265 -1.1013193 3.1102645 1.7612566 -4.394837 3.572637 -0.27477887 -0.052372355 0.038795877
1464 1.5562814 -2.235116 0.87202615 -2.847967 1.7319461 -4.319149 -2.4862988 1.7139137 -2.552681 4.4100847 -1.6733947 1.7760434 4.503864 -2.1026192 -0.26438037 -2.6874828 0.108592376 0.6964938 5.5829906 2.363524 3.741006 2.1487756 -1.4630985 -2.2038138 1.780736 0.66701335 -2.1326797 -5.014574 -6.310107 -0.7973129 -2.7496254 -2.597433 3.8298147 2.435003 -2.6456962 2.0564306 -4.869171 -0.66818005 0.8604359 4.112026 2.3158915 -0.6681126 0.06646833 1.0753783 0.22724833 -1.164569 2.1021643 -0.54745567 2.7874181 -1.5776442 -1.2168933 -0.14836763 3.6150243 0.06458722 -0.041637745 3.031108 -0.51635545 2.0017018 2.7961082 2.2444851 -1.3429675 4.158952 -1.6458471 0.8086034
1057 -1.5199851 -0.6385386 -1.3182342 -2.0444095 3.2775626 -4.045845 0.69326645 3.867212 4.0901914 -0.4134449 -1.3258163 -3.1819196 5.728673 1.1214713 -3.6226416 -0.20270172 5.466184 1.4481558 -1.3180003 1.2704216 -0.80860424 -1.430322 2.3423572 2.2909796 1.8183228 -0.30264157 0.69908005 1.1628249 -2.9896634 -1.3057399 1.1768545 2.1154585 0.61973673 0.49537966 4.8400807 -0.6348221 1.3725718 -3.1382957 -3.5816839 -0.6872753 1.7052834 3.4278805 -2.6980355 3.8696928 -2.219994 0.6687587 -1.5984656 -2.0661762 -0.41115344 3.93763 0.26009881 1.4161721 1.4561325 -1.1158204 -1.424289 0.030760305 5.4082956 -5.4601364 -0.13654254 0.6734022 0.6964947 5.0684633 -3.074081 -1.0498463
339 -0.53372663 -1.2103692 -3.4536784 -0.9452221 -0.0977264 -3.4348054 0.74272686 3.962 -0.2710469 -3.8575535 -2.1718109 1.7959081 -0.7165238 2.256638 3.6355133 -1.5964336 1.2518089 1.726954 -1.5165709 -2.7331092 -1.1177188 -1.1216784 -0.81914675 8.990666 2.7119472 -1.0727406 1.5796634 0.5458141 1.2796084 -0.2835109 -1.8404958 3.5981128 -1.1881318 1.8628832 -2.8587534 2.9022331 -0.7960834 -4.252396 2.9795208 0.05103168 -1.6054512 -2.1593106 3.5903904 1.2140868 -6.5978312 -1.1253747 -3.8248017 -0.14632925 -1.6739792 1.9313177 1.3244745 0.32541412 -4.531472 -3.859033 4.8460073 -7.2555346 3.263907 -3.708556 0.5527944 -4.2391987 2.4193478 -1.0264885 1.2245859 -1.0421759
217 -2.5895333 -0.41075492 0.6686052 -2.0155678 0.6693079 0.4084442 -1.5620008 0.63908905 -4.610791 2.7432477 -0.1370428 -0.9825221 3.0460613 -1.3381221 -1.7830687 -0.94667387 -4.2582674 0.10852323 4.085625 1.6838683 3.433395 0.64611983 -2.5407672 -2.0096085 3.818276 -2.6815655 -0.9267161 -3.0041578 -9.3066845 2.3476665 -1.9955288 -3.2368846 3.3186743 1.760685 0.93837416 1.2053621 -2.7596319 -0.114545934 -1.2173733 5.0420423 -0.42906243 2.5459905 2.7452426 2.1736834 1.1838676 -1.3152086 -0.5902302 -0.8976753 3.3322804 -1.7485694 3.8871427 -0.8634195 2.9119706 -1.5203222 2.1377919 0.45787302 2.4259405 -0.031663015 0.22718848 0.80017173 -1.3779553 3.283132 0.080395006 -1.9460443
