2000 64
1969 1.7439655 -0.49621224 2.1316967 -2.4068098 2.988614 2.4578538 -3.3926072 8.601092 2.0626998 0.087810494 -0.49223444 -9.205871 -5.799517 2.1355746 -3.3613255 0.8245597 1.2220777 4.075224 -1.590204 -4.24511 0.73817587 -0.4125958 5.2087636 2.9126856 -0.7943998 4.1727195 -1.0205977 -1.5758448 6.8395433 -3.6458476 2.0695095 -1.8228474 -6.212331 -2.3767374 0.98152524 -2.1724677 5.7608 -0.535367 2.171682 0.597486 -0.0006298894 -3.0819418 -4.985603 -7.2739797 -8.22563 1.3324881 -1.5113583 -1.1063243 0.94135714 -2.6766493 5.8107724 -2.019265 -0.75845146 -3.1626832 3.3324044 -1.3664453 -8.837959 1.8474075 -3.4357028 -0.89523554 1.0484821 2.781568 -5.9884396 3.8081229
686 1.0422434 2.6532717 -3.0109885 5.773404 2.2101011 3.4480534 0.96138495 2.9581187 -2.1164935 -8.328263 1.4544069 -0.25307903 -0.75388473 6.350954 -0.568137 -1.2674111 -0.2506233 0.2901129 -4.7726536 -7.5289087 1.7116318 0.5073446 1.1649039 2.665507 4.320555 -8.694921 -5.1653214 -2.145142 2.4076033 2.3943558 3.773271 3.3710957 3.512773 1.3334804 -3.0375206 5.0787106 2.482853 3.7389066 -1.2016499 -0.8128465 1.8673018 -7.270018 3.6075923 1.830045 4.744296 -2.723592 1.7557459 2.9830604 -5.6183805 0.3790837 -1.1195909 4.032068 -1.1338695 -0.4932767 -5.589529 0.739209 6.438404 1.8337123 0.44275764 5.808924 -5.399424 0.8290654 -0.8541056 0.6371725
1160 -2.8459413 -2.9315233 -2.5743587 0.20922557 5.6760616 -4.178992 -0.25110236 0.9234175 3.3303287 -1.2084172 2.8359523 -1.9508824 5.219202 3.3656936 0.5740161 -2.4469664 -1.9277326 2.5087538 0.09849282 5.693512 3.6779037 -2.5275755 -8.498827 3.2714763 -2.8328729 -2.161124 -5.6333146 3.8022318 -2.1515753 0.15595096 -1.6581657 0.72307354 3.0524757 -4.1815696 2.4617488 -1.4321793 -3.0577574 -9.479258 -0.14673041 0.58560324 1.5857254 -0.9703174 -1.1618934 -0.86817044 -0.10780657 -5.773221 -1.7935991 -4.195153 4.973223 0.79301345 0.31601113 8.234328 6.828922 -2.6659636 4.768796 -3.397287 -0.9141091 -3.0477467 -0.70959276 4.9356127 -1.2256727 -3.4126315 -2.381861 -5.0083733
1301 0.6371555 0.28367838 0.19634052 -2.1533668 0.12687725 -4.7351513 1.2327446 -4.8795557 4.8538213 1.1385858 3.4421299 -3.1294534 5.279088 -2.3828864 -3.1791651 5.1608586 -2.5465496 1.4227935 -0.5643345 0.14285026 3.165373 -1.496727 -2.43176 0.40058076 6.607662 -1.7993728 0.65450966 -2.4772406 -2.824862 5.4855614 2.5307353 3.9380407 -2.8830078 -4.049225 -3.517895 -0.39908823 2.5624423 -3.1996064 -2.7315562 2.397185 4.1420527 3.4819882 -3.5891225 -0.4277577 2.8058267 -9.001027 -0.8521455 -8.719117 2.8494282 -1.2464428 0.4501621 3.8237941 7.787173 1.6003976 3.262286 -0.19517557 1.4271321 -3.764761 -0.27214816 -0.05128863 2.2913358 1.9661305 -1.662736 -6.8253446
566 -1.7405609 -1.286126 -0.7303417 5.8044624 -1.4726346 1.2746133 -0.14107318 6.659766 1.6298966 -1.0035956 -3.0102878 3.2673128 0.87512714 0.7837688 3.869893 -2.5056565 4.627008 0.9089131 -2.1154945 -0.41624397 2.350697 2.946689 0.93243724 10.744154 -3.3735197 -4.809238 2.0376158 -2.018362 -1.5729196 1.3487327 1.521516 -5.7003856 0.5615599 -1.3223091 2.0011506 -10.28422 2.339043 -4.9087505 -9.209345 -0.40487778 -0.3322147 2.847722 1.3839374 2.5161998 -3.776164 5.484632 -4.2431283 1.1266044 2.908946 0.86418897 -4.6473966 -6.7808256 -0.18042181 2.5819175 0.89787894 2.3351865 2.1356535 2.1403878 -0.42434776 -4.847812 -3.4032943 -0.5827466 5.5704327 0.24217793
960 4.0275707 -1.896737 0.4698322 7.017846 1.0777451 -1.4396945 0.5032429 2.427894 -3.0149207 -5.8438487 -0.4732841 -2.458646 1.1788235 0.5300584 -1.3715111 4.4720864 -3.3391097 2.829786 -4.9947186 -0.95452046 2.4413826 1.4620442 -0.73320156 -1.7864718 1.2919005 -2.9055111 -1.356933 0.19112939 4.730769 0.47251078 0.8167422 -2.8852384 -0.2935224 1.6004814 -2.1573217 3.2909937 0.16533259 4.1531982 4.0873823 0.40934247 -2.0424397 -5.3782578 -0.39995918 6.809308 3.4487045 -3.4974926 1.47428 6.606351 7.232061 0.76029634 -3.3233538 0.6710426 -6.251351 0.8964901 -5.824776 -4.2991056 7.698816 -2.0530303 2.1383073 4.49221 -3.9064927 6.6200895 -2.5269563 -2.1979394
192 6.1574125 -2.4943063 -3.6396575 -2.20961 -4.6695952 1.2687113 1.5928179 1.5852252 -1.3948257 -2.5223553 -4.162487 -3.7152734 -6.19915 0.908821 3.578949 -1.4300195 3.129984 -2.695714 -1.4993138 0.6021379 -2.1353402 5.557784 -1.323296 4.0441813 10.821067 0.6917541 -0.50122803 6.829913 -5.1973085 -5.4148545 -1.5772116 1.0915625 -4.903891 2.0174918 8.407618 0.5740112 -0.6015451 -5.8053827 1.3705057 3.5091562 2.1280267 -4.0007567 -2.5277386 2.1470826 -0.71473396 0.5272908 0.14536121 0.7735735 -0.8396146 -8.02678 7.519228 0.532486 -0.42681342 1.7848433 -0.50906616 -2.4011157 3.5611837 -2.9292605 2.6807368 3.13582 -0.72601867 -0.88523555 2.505389 -2.9761188
78 1.5889322 -2.6052876 -4.479084 -6.7826266 -4.292616 -2.4080229 1.6005489 6.236797 1.6772375 -0.68452084 0.6521686 -2.0361726 0.8463553 -0.63390875 -1.1360848 1.0328754 -2.9737124 -2.002094 -4.599321 3.1798422 -3.3677835 -0.698333 2.6268053 -1.1734959 3.152143 0.7748697 -6.9868736 0.9014992 -0.7843011 -0.8029496 -3.7384996 0.4217347 -2.3683405 -1.9045545 6.048203 6.238727 -1.327227 3.2990549 3.1188054 -2.9804847 3.0085852 -7.2966766 0.051647574 0.4463885 -3.2885232 2.3007758 -4.534099 -2.9899383 -1.1153368 -10.644055 9.165418 -3.3008993 3.462992 1.1652547 -1.5566927 1.5862533 3.6358252 -3.1070514 -0.16653055 -0.44107285 1.0946547 -2.216799 0.053498145 -5.5655413
1211 -3.6488197 3.0409071 -2.365853 6.2574353 1.5665528 0.09917875 -0.67321783 2.1415746 -8.206723 -2.6007364 -5.845274 -7.7784095 -2.8361242 2.0727744 -0.5943135 3.026176 -1.6866251 3.1355197 -7.6247063 -2.6072068 6.490965 2.8348463 3.3466399 -2.0146925 0.24590679 -2.0207126 -1.825163 -4.2343607 5.4686856 -2.212777 5.960179 1.5353183 -0.72100043 4.4235473 -0.90555626 3.9995267 0.6744905 6.787971 2.6880572 0.8548789 -3.5750203 -1.9365164 -0.07616364 0.47605473 2.3376164 1.2009542 2.7076654 -0.2203363 0.85716456 0.7472911 -4.3482013 3.226001 -2.8647313 1.8247687 -4.491914 -1.1385276 6.2953258 -3.598326 -0.21472883 6.3536468 2.0397327 2.8129308 -0.22376844 -2.0831058
781 -1.7360122 -2.752042 1.4976566 2.9109864 3.746739 -4.549754 -1.867206 -1.6365598 3.211921 1.032156 5.939227 -3.6810107 -3.4479837 0.15045053 -2.540668 -2.072039 -5.51945 -0.32154557 -2.5573194 1.556841 1.6335831 -2.7237833 -6.9128585 2.8077395 -1.7690326 4.595782 -1.0469815 1.3852528 -3.6947238 0.09340897 -1.369573 4.0133214 2.386039 2.8983421 0.5542275 1.3762066 -0.20376569 -2.980087 -1.9516901 2.1900651 -2.7225494 6.122479 -1.2076136 2.9628713 5.503146 -2.9679542 -1.4394461 -7.9009356 3.313373 4.0966773 -0.8052477 2.8088396 7.039399 3.0070548 4.619667 -1.579825 3.400568 -4.57446 -3.4624717 1.8744981 1.7009195 1.9693451 2.0348744 -4.6829786
1526 -3.1495645 0.8815753 2.2778401 -6.3730626 1.4634668 2.7617075 -4.642398 0.8677735 -0.85374403 -0.6918694 4.321949 0.54264003 -1.0904769 -1.5900779 -0.2960938 -2.366784 -1.5413492 -5.7291675 9.154659 3.9863858 -0.6242016 1.5263588 5.282691 0.91924775 -1.4450859 -1.5655122 3.4868994 2.2380486 2.3943539 5.094075 0.24458037 5.8974276 3.0717564 1.195697 -7.494664 4.1778727 0.6489509 -1.0660735 0.1623769 -2.3460095 4.6995087 -2.904537 -2.8066895 4.465361 -3.1905274 1.2374202 4.030922 -3.0974138 1.5593729 -2.6816719 -0.0884111 -9.23299 -3.171214 -0.74250793 -2.8101897 -0.64809734 -0.8118347 3.743331 0.37635773 4.746218 -3.4639087 -1.6408436 -2.1380153 0.7132667
1303 -3.747763 2.4577296 3.0857923 1.0063459 4.4441195 2.251174 -5.4587226 4.3561735 2.885596 4.0011134 -4.1956587 -9.388417 -0.4257994 0.24914211 0.8092375 -1.202753 -4.607917 0.4935485 1.6720185 -1.2366986 -0.9236606 3.1301272 2.9499495 5.5220184 -2.2168498 4.0979414 4.673879 -0.14762996 3.92226 -3.4987125 -1.0310291 -1.7494552 -2.8078313 -2.7880692 4.6881833 -3.4620166 -5.960657 4.663996 8.004579 5.5372157 0.3427144 0.27130485 -5.484813 -4.6459975 3.8920474 -4.4607253 2.9125147 0.73391926 -3.4079475 4.6313367 5.721953 -1.3107423 1.6203928 -3.4964437 -0.64606947 0.4080519 -4.6057463 5.03466 -0.9529408 -5.3834434 0.44343737 1.6695491 2.333766 0.7279405
732 1.6281149 -0.3660309 1.3231599 5.506408 -6.537249 2.9999547 -0.6552627 2.092792 0.46289775 2.011896 -0.7319411 9.204459 1.6604125 -1.3375659 5.547954 0.5428687 5.5318494 -5.274217 -0.55773383 -1.6782397 -2.1832516 1.7928611 -4.387397 -5.2033906 -9.065265 3.4170954 0.1272404 -0.11228007 4.7286606 1.5897591 -0.6616932 -1.9474126 4.864092 -8.307252 -0.65109724 1.7051601 -1.7131684 3.0793772 1.1101688 5.685423 -2.2290134 5.089412 -4.001814 -3.1596305 -4.319679 -3.0042615 4.6886134 -1.2802049 1.5780915 -4.7352185 -2.412408 1.9106796 -3.011014 4.096638 -1.1309648 -1.3426901 -1.4842119 -0.013417605 2.8140407 -6.4722095 -0.9678897 2.834552 1.0685188 1.2467468
87 -1.5968121 0.8997939 -1.1977544 -5.4045005 -0.10460943 3.7868056 -0.6574197 -2.4710875 5.856852 0.76829314 -0.6694235 -1.0027525 1.1932034 1.2585943 2.580493 -6.3805494 -3.4710698 -7.014163 5.751193 1.1993757 -1.6982872 1.0846915 4.6930394 -3.792686 -1.9391437 0.6873729 0.41714785 -5.666114 -0.6464969 -1.0982229 4.0470805 5.6594334 1.0022639 1.1406773 -7.7602687 1.2586946 -3.2222743 2.4159179 -1.0475161 -2.862814 -0.8914071 -2.0141306 3.6998394 2.6256764 -0.32118863 5.3379254 4.1892023 -4.541994 -1.833978 -2.079385 -2.0105627 2.9286246 -3.3451164 -2.187396 3.719132 0.88700765 0.8251277 -0.8586151 -3.7536528 7.293511 -8.1558695 -3.890095 -1.6085881 -2.3035975
845 -1.416939 -2.606589 3.7762625 -3.8362887 -1.0151943 -4.642989 -1.6720752 5.8159924 5.0760927 3.0597289 -6.5855675 0.7809929 -3.8709161 -5.5124655 2.4399629 -1.4533901 3.925892 5.5885105 -9.755015 -3.8846455 -2.6217244 4.8535347 -0.337349 4.7877536 -0.82200575 -5.6149592 1.4008943 0.34299663 1.978759 6.3216343 -1.4317137 -3.8031313 -0.34034273 0.99006283 4.6634684 -2.4375665 3.500789 0.0017219192 -4.256732 -0.1771303 -6.0933895 1.7262326 1.80807 3.8466191 -3.4510074 5.5158043 -3.780582 4.3893943 2.4605336 0.6941577 -4.6352444 -0.6001954 -0.09788922 -2.6866407 4.2989535 4.8867087 0.89878696 -0.98161614 0.6643855 2.9816961 1.5842569 0.0016554417 0.38332266 -1.298584
169 -0.6873192 2.7189207 -5.1695065 4.4279666 -1.3112586 2.4000773 1.1169095 1.6788056 1.318279 -3.998444 -0.39640257 3.5147865 -4.714487 1.6077186 -0.032922264 2.8128438 -3.6862779 3.6635485 -1.0230702 1.165724 2.4006336 1.6979648 -1.2856932 -0.9969263 4.753383 -3.7717648 -3.0818698 -5.5545344 1.3044838 -3.6562421 0.68086094 -2.735193 2.6182501 2.4928622 -5.2669287 -1.7158186 -0.7420742 0.6177293 1.4304527 -3.2554986 -3.5378714 -4.50897 0.018746898 -1.0955197 1.3409591 -4.5418353 8.1997 1.4503086 6.572359 2.132621 2.3942702 2.241108 -4.9170666 5.743386 -3.2918897 0.2720144 0.44257176 1.2736998 6.8348994 3.843089 2.0446556 3.7052164 0.8251242 1.3758821
387 -0.6133722 2.4316661 -9.316653 -2.73781 -1.1690738 -3.43519 2.5765557 -3.840898 1.5793427 -2.2230272 3.0443788 -3.412057 5.447412 1.7768416 3.96854 6.3093586 6.964313 6.122467 0.46049413 0.4531858 -3.5421412 -4.518621 2.4529436 -7.6485534 -4.227337 3.7678745 -0.21430686 -1.2196931 -1.57145 2.766921 -3.1569343 -4.5864916 -4.2259927 3.6902587 -1.175624 -0.28838146 3.4337935 2.2799098 -2.1144776 2.6123981 4.191171 5.0383453 2.5785477 1.624806 -6.791304 -4.300825 1.8391496 1.0781175 -1.8887496 -0.8090849 -5.259991 -0.7523906 -3.7979825 -0.3839115 0.049848124 0.7444192 -3.83369 -2.5837276 1.53191 1.6795082 1.7681957 2.4277565 -2.183461 2.5870836
718 5.816338 -1.0946544 -7.7175374 3.7877784 -3.6803355 1.1691602 -1.314783 -1.8535277 -4.987667 -0.022068605 2.3578885 7.375566 3.1531 -1.7250249 7.439265 6.165335 3.4675078 4.967491 2.122345 -1.439327 -3.622769 -0.17462994 0.22267938 -4.7956977 -7.9447336 9.051511 -0.63639045 0.71154433 -2.2271326 3.6852145 -0.6372332 -2.683234 1.2340143 -3.0257447 3.2718081 0.90817916 0.8777335 -1.3094057 1.8001595 7.886961 -2.7328901 5.6150446 0.122542165 4.3443794 -6.6698194 -1.8287181 4.2958927 4.5037293 1.9734218 -2.4824693 -0.24139355 2.4876986 1.2227379 -0.9297574 -1.3380685 -2.3994365 -2.3957222 -3.078032 3.4525812 0.10139361 -1.0892084 3.6154861 -2.846386 2.7694192
1674 -1.3069428 -1.9392958 6.2818727 1.9256715 -4.010318 0.8145669 5.4535565 3.2678092 -1.4703496 5.335168 -4.023322 2.6334703 -0.8246861 2.306948 5.602407 -4.181572 3.2080467 0.46986952 -0.87060696 -3.5797534 8.268074 -2.8021553 0.45744014 -4.695626 1.7801552 2.901935 -2.5337615 -5.560582 -0.43731874 1.1947033 -0.26510483 -2.289164 -6.601741 -2.0509112 -5.3069205 7.40232 -0.51878315 1.2964878 -0.33538795 -1.457943 3.5340014 2.3839571 -3.1936586 -1.5220193 1.6256795 -1.5560017 -2.7918837 0.29648796 -1.3449988 -1.7512095 0.53665376 1.6340821 -1.7958815 0.044084378 -0.314728 -0.7682322 -4.3301697 3.7087014 2.9317534 -3.320523 -0.29672706 1.446216 -5.424724 0.872245
899 -0.010173969 -2.0488083 0.5928357 8.813098 3.3093138 0.9088512 0.85274136 1.5011306 1.4855815 -3.0485346 -0.7797404 -1.9155234 1.7460407 4.173548 1.7372432 3.306489 -2.9149683 6.0297904 -2.0755997 -0.22885242 1.2875984 -0.09623631 -0.51594466 -1.4557486 5.9034276 -5.5024347 -0.73509324 -4.0813837 2.2097428 -1.2080745 -3.2977674 0.20256442 0.88372606 3.1878197 -7.660686 -3.1146836 2.1183481 0.72578347 -1.1712126 0.18259402 -5.547014 2.7661395 1.1898844 2.5304368 -1.1623176 0.19846036 4.3945284 1.4487808 -3.8769863 1.8744656 -2.4964304 -0.10304994 2.4999328 3.7273798 -3.0872374 -7.6692753 1.9019233 4.080228 0.81089896 7.2760463 4.166821 -0.36340865 -0.6317673 4.55567
1709 -2.8724756 -1.1211926 -1.7796963 -2.328909 5.268446 -0.7355823 -2.798282 1.5157661 0.78482246 2.5057933 2.6730936 -5.9436693 -8.090759 3.1494963 -1.4222983 4.187087 -0.77037907 3.9633563 4.996257 -4.5883846 4.7156425 -0.1233464 -3.0682378 2.339059 3.0341928 0.17631258 -1.2258126 3.512942 -0.9369862 -1.5730859 2.5521195 2.4445252 1.5339726 2.736442 3.6893268 -4.039753 0.49096143 3.8628895 6.293207 5.00313 -3.5864058 2.4487097 -0.9182443 -7.3883624 -2.6839535 0.1499291 -3.431423 1.8445444 0.8221122 0.7932344 -4.9372787 -1.5044216 2.8302736 -1.3490863 5.8774548 -0.1096304 -6.487244 6.8704495 2.9769175 -0.09104905 1.1539738 -3.799024 1.8752536 4.207148
801 -6.335315 -1.5994246 -2.0957487 -2.7325351 1.7381345 2.0545745 -10.106435 5.1433654 0.049359635 1.9410205 -0.5472523 -6.345539 -3.9664772 -0.5135491 2.6895719 3.0549252 -1.9477143 2.7095122 1.584216 -3.1402836 1.2438298 0.9734485 -0.86298907 -1.7504544 1.7179158 -3.554415 2.638832 1.24142 -1.108454 -1.9670976 3.1631207 -1.1340847 0.7100148 0.5332647 5.0454526 -2.7518318 2.4211292 0.36646572 5.1016893 4.4107976 0.3585074 0.7745576 3.1596146 -2.0915096 -3.2942505 -0.2634166 -0.1874035 -0.30247402 -0.24481095 2.363328 0.70903915 1.2049394 -4.0289702 3.263411 4.3660703 5.3181686 -3.343902 6.079534 4.426071 3.1018784 2.9060307 -5.396412 -0.09513253 2.7063844
1931 -5.348659 -0.99280596 2.3691237 -1.2339116 3.0378165 -1.2721877 -1.7049534 -4.0487766 2.440989 -3.1004887 1.4165611 -2.6208954 0.27628466 -2.9970145 1.5843335 0.73190224 -2.1822653 2.0792582 2.8023367 -1.1277187 -2.6338024 4.010308 3.2126067 0.97189945 0.36427486 1.0269804 5.799916 -0.56208146 2.5800378 -2.4087808 2.077052 4.1577787 1.5798923 -1.3837671 -8.290795 -1.5287367 -6.028812 0.80658025 -2.1951778 3.335375 3.4463081 -1.2482163 -5.3679724 0.1006417 -3.6111553 5.848738 8.499097 -3.973624 -1.1235901 -4.670562 0.83925956 2.4174423 -3.4366508 -2.5276318 2.0994797 2.5079327 -5.0562596 6.268442 -4.9597416 4.8005075 -5.7221704 -2.1596653 -3.9053571 -2.5140328
1779 -1.5264473 1.8993086 0.7656308 3.9386077 4.4048924 3.6098118 3.2375948 1.5412465 -7.2289805 -7.964353 3.7584996 -1.2615013 -4.5315194 5.0309405 0.10307852 3.2713933 -0.27198067 3.0968373 -5.982764 5.2514396 1.7935755 2.8513718 -1.0963937 4.013468 3.6397047 -0.36614615 -1.1400752 -2.7607226 4.2963843 4.18437 -1.5441934 0.77779937 -2.4015563 4.428226 -1.5337964 2.1013837 -1.3434274 7.771065 3.1377947 -3.4641745 -3.7565546 -1.9187162 2.8789485 0.2302333 0.40705115 -3.1912298 6.1976247 0.6952594 0.9635382 0.13791646 -0.48713687 -2.2684224 2.7474136 0.9390145 -2.637751 -1.7454445 2.6204197 0.19022238 0.33283034 2.5343204 -3.211738 2.0607803 -0.27875254 -3.0568087
1363 -5.864913 0.10746041 3.6300042 1.5319554 -3.189494 -3.7804065 -2.0544226 2.3511946 -1.0136452 7.293703 -9.006915 -2.2689116 2.4403164 5.932146 3.2876325 -2.9989207 -0.9447402 -3.4447184 -2.621583 -1.1609739 3.3005586 -2.2138839 -3.3704207 0.5637774 3.3289142 5.18737 2.1563725 -2.4647176 2.0915332 -7.348663 -3.845773 -1.8747232 -2.5095966 -2.2327952 -2.549175 -3.8202217 -3.1216075 1.8810543 1.5142419 1.067763 0.024387663 -0.035223585 -3.313948 1.1492518 -0.9602887 -6.239941 3.161238 -3.8978608 -0.75134313 5.989415 1.8072163 -2.3330655 -2.1465356 -3.7213027 -0.36424458 -2.7292557 -7.9224586 5.9753294 -3.111326 -6.2315187 3.1951675 1.653034 -1.9929879 2.653202
630 -2.6258311 4.079871 -0.18842949 1.7184088 5.5729966 7.28143 1.001888 1.6109087 -2.264175 -1.0057824 1.0330746 1.229614 1.6326503 4.4848375 -3.672345 -0.3181149 1.173248 2.5257134 -3.5400758 -1.6786126 -0.23086137 3.5434399 -3.6181867 -0.94733304 6.078352 -4.0329337 -3.505365 -2.636036 3.1610324 -0.31704533 1.7806715 -5.7864075 5.222536 1.0315257 -4.2018123 -4.798279 1.9500892 4.2889986 0.4670562 -1.0116289 -3.4160502 -1.0212733 5.629949 5.131693 -2.7078927 -3.72088 2.4852262 5.1408906 1.3773625 0.20747076 0.21992205 -2.8995502 -4.8935757 5.571218 -0.05442046 -0.016977984 5.3003187 -2.7189791 -1.4600658 3.382653 1.833589 3.0585802 -3.1272924 -1.0845636
957 0.27965778 2.6713576 -8.963102 3.457265 0.67993826 2.8373926 -0.08961702 -11.054514 1.1562734 -0.15676117 -1.9691455 0.96553075 -0.7209312 -1.1653377 1.2689898 1.6051563 4.5424247 2.0994868 2.3022768 -1.1530384 0.3178642 -2.2479649 1.1993517 -0.48533094 -5.1538987 4.415679 6.3423796 7.178974 -2.7201831 0.28857693 -1.0122762 5.011294 -6.0337834 5.366886 3.3712611 -1.2662978 0.6878627 -4.4178443 -4.131634 -1.380787 -0.98257506 1.6600018 3.2579947 3.023429 -2.69888 1.6466444 -1.6619344 1.7574577 -0.33368355 3.8492367 -2.2005904 -4.2257204 4.8891335 -1.1734729 -1.7872143 0.21098498 4.756424 -4.1885195 -2.3111222 -3.361256 -4.3741827 4.354733 -1.1609616 4.209354
336 -0.34876326 -3.3916438 1.2855129 1.7357154 3.8230996 -2.4556594 5.678582 -3.3947582 2.2423213 -1.166789 -2.9428473 1.7067281 -0.83700967 -1.4548134 -3.3544476 1.5128064 -2.0522296 0.6791526 4.42106 5.494144 5.2702436 2.136409 -4.7906055 0.84707856 -3.509774 -2.3252172 2.7808385 2.290395 -7.217392 5.873127 1.8493787 -2.7123876 2.2173831 0.97899866 -1.4316101 6.097197 -0.012964886 -3.4731998 -0.24466056 1.6365343 2.746543 -0.26375607 -5.557156 -1.8437976 5.4523067 -0.50433785 -2.008036 -6.7664256 6.563242 0.5057299 -1.3946297 1.0226678 -2.018021 4.7005363 4.299895 -0.8593419 0.018771205 -4.7201486 -1.7394264 9.038477 2.8520288 -5.91349 -4.719523 -1.3402585
1517 -3.1124427 -3.3205636 -4.889989 2.2923977 -1.363474 1.6396073 4.9448214 2.3670664 2.2216513 -0.820781 1.1342236 -4.6778426 0.7730986 7.059478 -1.7150325 7.004107 2.7635276 -2.0614147 -1.1184019 -0.88063943 1.8419888 3.0432966 1.1922051 -1.4002004 7.5128646 -2.5671215 -3.3841808 -2.3177752 1.1904655 5.4438233 1.6483988 4.4405828 -0.35360295 2.490531 -1.9708042 0.31852922 -5.5225844 3.0371888 0.7988284 -4.9749365 -3.159773 -5.168847 7.29697 0.26095286 -2.3774042 -6.2108536 6.5423155 4.455428 2.631315 2.6768465 -1.9032232 -4.244513 -0.8204554 3.2515154 1.1906275 -3.0319028 3.1868436 0.041101195 7.3828382 3.2708006 0.109135196 3.3018274 -1.6092521 -0.886001
433 -0.23755184 2.4046445 5.6965117 2.3759263 3.545979 -1.4479482 -4.6149244 0.40105093 -3.9567792 1.2790111 0.66087 -6.1101465 -8.04325 -1.5353652 -4.806509 0.20289056 -2.8893945 7.6325145 0.29988694 0.6180241 1.953163 4.4114017 2.0719962 0.3118741 1.7735907 -1.145333 -1.044937 2.8854494 4.9397044 1.5678191 -1.4002188 0.8181484 -2.1019099 -0.5990599 4.414265 -0.4154633 3.132461 0.79907954 2.586086 4.785271 4.821792 0.38532946 -5.520122 -4.9488873 -6.4746947 -1.0935223 1.1516936 3.0288363 -1.3838187 0.08297731 2.7500541 -5.1670833 -2.546877 -4.7918057 6.6652 3.5449724 -3.2698703 0.57479244 1.4302634 -2.4233167 -2.712589 -2.2110553 -1.9835228 0.29555473
1684 7.539591 6.488193 -6.161594 -1.8278627 -2.3232872 -4.2959023 0.35050845 -3.433199 0.120863594 0.36750266 3.5243602 0.55253726 0.9682534 3.1374147 1.0291039 3.4576287 3.2905254 4.261594 -0.80969656 0.28898504 4.9684095 -1.5742366 6.20511 -6.4039 -3.9514358 6.701453 1.075409 1.6881826 -0.48141128 0.44337186 -0.43307126 2.2466276 -3.1965144 1.0691909 1.6881769 -1.8281306 -0.12197988 1.7537134 -2.7120006 1.9274025 2.7199101 1.9706954 -0.95661753 0.17671663 -4.738662 -2.8767385 -2.2897744 -1.9692247 -1.9625654 0.39174232 0.012561612 -1.5071968 0.52589035 2.8401234 -6.177385 0.087036386 -3.8736532 -5.4175377 3.419411 4.6819096 -6.783647 -0.68184096 -4.8778276 4.4281435
352 -0.5999955 -1.1177042 -3.794019 -0.6754763 -1.5324764 -6.7512946 -1.1035464 0.17574313 3.2585135 -0.7690702 7.641378 -3.621935 1.6917048 -1.1365635 3.719545 5.7855053 5.8171854 3.1437664 -2.1193473 -1.7063149 -3.1892283 -2.9536593 1.8083444 -9.581904 -3.07755 -2.1157777 -3.1568978 -5.659218 -1.8170414 -1.7735527 -5.008133 -5.4905906 -3.1880963 0.80925304 -1.2498455 1.9122158 0.69220513 -0.40901896 -0.7601029 -1.5080156 5.031832 -1.853875 2.5913312 -4.076493 -4.5097513 -3.2966976 -0.21771991 0.6338777 -2.122062 -6.7350173 -3.4198594 -4.388481 2.3882 -4.223578 -1.6560429 2.514645 -1.5079935 -3.281661 -0.5889111 2.0494816 7.6193647 1.7726046 3.227744 -0.37660643
1541 0.022541683 -0.72555405 0.8240161 -5.0429873 -0.84766775 3.5617328 -1.0172955 -2.914569 4.053339 0.5675483 -0.60027087 5.7077045 0.21905123 -2.9907615 -1.3640221 -3.1260786 7.6819572 3.8316875 -5.313865 2.2902865 1.4964218 2.3556957 0.8923431 9.573287 -2.040367 -1.1500973 2.1846833 -2.1132195 0.5764617 1.9870473 -0.35139006 2.526059 -0.16461952 3.9069667 -4.7047553 0.46406233 -3.9904284 -2.9602666 -2.1862652 -1.3653747 3.0712 0.54182047 1.4716401 -0.66051686 1.6841996 3.800277 -4.1590977 -2.930744 -6.867962 8.80706 0.6961011 -3.6646757 1.7145935 1.3333616 3.1203775 0.94644713 0.5360853 3.229653 -3.2357094 -1.3244582 -4.9427724 2.4394658 8.587969 -5.049375
1727 -1.7661006 1.92292 5.0162997 -2.4860756 2.757648 0.9701938 -3.4619603 2.165897 -0.44431618 -5.1045694 0.45940632 -5.5462046 -3.118668 3.897055 -3.926944 -2.4790463 -3.6811783 3.5341458 5.10803 -1.4670691 3.7034476 0.78714776 4.942255 5.0838227 -1.3406564 -0.68032134 0.25526184 -1.1620787 0.8404485 -5.084067 -0.7330718 -0.87662536 -6.6755714 2.8434134 3.1659853 -5.7538743 4.0688415 -0.41536608 5.7156463 5.6519837 -0.121244766 -2.043737 0.7818284 -0.7339376 1.4899397 0.044858336 -4.1728024 1.4593887 -1.5406635 1.1274664 2.325669 1.8043226 4.6264544 1.9636189 10.3582325 -0.48740634 0.51417166 -1.7495059 2.5986636 -0.556203 2.2617316 -5.057217 -1.4220122 2.7219362
1206 0.08765457 3.77137 0.101969026 5.7182393 5.1196938 -0.5126841 4.52046 4.429982 2.405973 3.7146995 -3.1852093 -0.87034714 -0.98125654 2.8149674 0.3733883 0.18453746 -3.515757 5.0514855 -5.984867 -5.306217 0.023498045 -2.820974 4.717215 -0.2559707 6.6221857 -3.9605258 -0.47667888 -6.223626 6.165929 -1.961547 2.9934123 2.973885 0.95732003 1.9677005 -4.5910387 1.2685585 -0.5607916 4.747942 2.330987 -1.1597513 -4.0531263 1.1677914 2.1436577 3.002549 0.1675994 -1.9497261 7.2113333 0.3011296 0.64282185 -0.8985751 2.3405523 2.2538798 1.1308787 -0.21651424 -2.0003042 -5.577819 4.9416757 0.23390901 -0.30003393 2.198683 2.4505596 6.144232 -1.8375612 1.9870996
1976 8.717894 -4.0318103 1.1272416 -1.3341343 2.110505 2.9702482 4.8185015 -5.160007 -1.496791 -2.6072671 -1.4995497 -1.5859805 -1.5215225 0.21121357 -1.658427 -0.9342226 3.5062344 0.5213139 0.261227 0.658771 -3.6904538 -2.1809554 -2.3497303 1.859925 7.70201 0.88565624 1.9471632 -1.273418 -9.276237 -2.7538931 2.0824 -4.4173594 -1.5330395 2.442695 6.21548 -3.0077016 -4.6227713 -4.0671787 -3.3833573 2.7095246 -5.520413 0.36955923 1.9018478 2.934988 1.9125688 2.6267066 0.27916855 4.135449 -3.7914596 -1.8967427 -1.2083266 3.230775 -4.2371173 -1.2943029 0.53091544 2.8175268 -2.6897697 -1.4607366 2.370917 -2.2885587 -1.7529848 3.252542 4.810842 -6.4803696
1784 -3.22616 -4.0306616 8.423066 1.0590376 -1.4892478 -2.0507922 -1.3474221 2.1879718 -4.6072316 2.6396885 -5.656145 0.7916987 1.005265 0.12043527 5.8052254 -0.013618343 1.1788542 -1.0002602 0.7028638 -3.3307374 3.485226 0.05016985 -2.5382211 -2.7766376 0.879317 4.9618745 -5.8624945 -4.3304386 -0.27399468 -1.2610132 1.3920393 0.016109712 -3.6630774 3.383786 -1.3539878 2.7052178 -3.7363567 -2.4232512 -5.5159626 -0.642758 1.0696288 -1.6232247 -1.1512028 -0.36774874 2.733712 -0.60972244 -5.74449 -1.5845737 0.97706574 1.4032028 -0.5523714 5.2924376 -7.366294 1.5675377 -0.6107557 -0.577835 -4.037157 2.6718261 1.9615126 -6.1015325 -1.1882795 -4.866627 -0.3752562 7.2421446
30 -2.6163218 -0.14102055 2.4708297 -0.47427133 -7.7959585 0.14635092 0.8861073 4.4141707 -2.0082748 4.8454404 -5.7529945 -0.88168013 -2.362221 0.7863887 -2.8821588 -1.5906045 0.04635667 1.2116784 0.9795009 1.6623632 0.35757387 0.27727023 -1.92554 1.0112402 -1.5395341 6.103976 -5.6185207 -2.819079 -2.4271877 -1.0667388 2.535213 0.88560563 -4.4160414 -2.2428975 -5.252454 5.887281 0.57769096 -0.4938863 -3.4948525 -0.5024124 -3.007791 -3.6507204 1.6083206 1.0328908 5.886012 1.1286981 -0.38947454 -0.8750583 -3.6846929 1.2297107 -4.0117517 0.9078332 -7.465995 1.2271872 0.07769622 -7.057801 -1.7737395 2.7657301 2.4308848 -3.4038274 6.390953 -2.8238218 -3.8165603 4.8688726
1227 1.0663248 -3.9029524 6.0560985 -5.769819 -1.656993 6.023674 -2.4641593 -0.22906056 4.8676033 1.9148414 -0.20986374 -5.5765038 -6.924346 5.469834 -0.41353703 0.046993814 -4.6207967 5.0441427 0.07736761 -4.300872 6.5576825 -5.821384 -1.557264 2.0071306 1.9513183 -0.62587225 1.1795689 0.07453132 3.8363283 3.2640345 -2.2651849 0.19131874 -2.5759168 -2.2962868 7.018158 -0.19683307 3.796547 2.4074514 2.8136342 2.3712592 0.19262621 2.6749053 -1.5249727 0.9455066 0.44315967 0.9161771 -0.9652194 4.725743 -1.105097 3.329614 -0.5488228 -4.765474 -4.1871495 -2.979102 9.401036 -4.528769 -1.7026807 2.900559 -3.5955942 -4.0406995 -3.5125086 -2.7858188 -1.5831572 4.482238
1985 0.9621818 -0.372404 0.23426946 -0.5050034 -1.5209844 0.36857453 -6.507649 7.7559156 -1.825217 -1.8759841 -0.044792607 -6.1576943 -5.4628816 -0.7609285 5.8898196 -1.0772407 -2.676436 2.5750704 -0.25553223 -6.4040766 2.0514328 3.7258546 3.0404186 0.3176033 4.54879 -0.35243532 1.7020247 5.5925884 -0.55289197 -4.055857 -0.8827589 0.9804935 -5.132195 0.023950368 8.46286 -2.830654 1.7657726 -0.44254583 5.3686476 4.534972 6.538233 -1.8469027 -3.510858 -2.2542746 -0.68852776 1.8632067 -0.50059396 -2.3401198 2.4726346 -2.517446 3.2620113 0.06962061 -0.9167218 2.391108 4.0469236 7.565804 -0.72250533 -0.014472745 2.1770742 3.4645288 -2.654513 -4.989275 1.160247 0.4601483
1580 -5.267889 -0.7607891 2.126118 -3.678407 2.5892606 -4.8497524 4.385667 1.5931908 1.6839926 -2.0095737 3.1790304 2.5409284 1.3268772 -3.0875652 -1.0730884 1.6129915 -0.57543993 3.2437255 0.7076178 0.76087844 -2.794963 0.24932003 -2.0410945 -5.5687394 -0.7186341 -0.3862432 -0.7281246 -7.248904 1.5007812 -1.556868 3.4291995 1.8296056 -3.452305 0.58126616 1.3253356 2.7420313 1.7471437 3.1689446 3.5801613 -5.4049354 -1.8529712 -5.5515447 -0.74248624 0.5562855 0.9045562 -0.35961148 -7.6963305 0.11767391 -3.0313983 -8.5068245 1.7399704 -2.1159353 -1.3952188 -5.6691313 0.17124228 -0.6318441 -0.50961965 -6.800865 -2.0254242 -1.2238064 3.1719744 -0.7828844 3.7262807 -2.8511353
477 3.235926 4.419401 3.1722965 1.350612 -1.9220022 -2.1671817 1.2650765 -8.078659 2.864186 -2.4061756 -0.9889794 -1.6528095 5.188252 2.0472038 -2.8715875 -1.0367585 -3.571286 -1.2943891 -1.0557631 -1.4102921 6.2380633 -1.214725 0.40278095 3.151743 4.7060804 -1.8206064 -1.8856604 2.409831 -4.3218346 -2.5298076 -1.2581273 0.8179507 0.17914791 -0.6587861 0.08027379 -1.6744608 -1.8672887 -5.714535 -1.2568449 0.52644306 4.985794 0.24295783 -6.6121974 3.050714 3.9888973 -1.3428435 -0.673933 -7.581166 4.35244 -0.7016521 2.2480974 2.6386733 5.1095843 4.791547 1.4966478 4.230692 0.40009367 -7.587269 -6.4130564 0.34892416 4.324906 -6.951035 -2.634472 -4.4809923
945 -0.8707511 2.7050202 -2.3970149 -2.8336122 0.7016152 -3.1204145 4.1493106 3.5062993 9.122543 0.73781264 3.305962 -2.708679 5.8553753 0.69996864 5.178081 1.7053319 -0.6672531 1.1423945 -0.53262895 -3.0371883 -2.1884172 -4.1334887 -1.3596675 -5.909734 2.1778848 -3.7034986 0.349577 -2.8860056 -2.4585736 5.0695844 1.59706 -3.0728774 -2.6272073 -1.0273472 2.4512086 -5.1385903 -3.0078857 4.795204 1.8548421 -5.9943495 5.8248057 -4.6865826 2.5469308 -3.503495 -3.7824612 1.3598609 -7.216389 1.3663931 0.98134995 -4.463675 1.0118309 -4.6617365 -2.0618324 -5.466416 -0.6408749 -4.6342716 1.0220479 0.4423931 0.06939936 -2.3524072 1.827166 -3.2479389 8.618005 -3.3730993
1352 -2.723588 -1.3686745 -0.7813918 1.0206753 3.8934433 3.0647676 -4.9475727 -4.412774 0.15219496 -3.9639726 -0.3848002 2.5509784 2.2896752 -2.6441052 -1.2563795 -3.5908089 1.4710569 0.0068028956 9.775868 1.004354 3.3043659 -0.14643914 2.9715493 1.902426 -2.9278972 -2.4432375 6.2416143 -1.2547189 0.09024087 -5.297721 6.400883 3.1410623 4.101683 1.1965301 -4.5608387 2.3036444 -1.6550651 -1.2592695 -1.0935587 -5.632415 4.4634733 0.644736 -2.7449622 3.1703165 0.90745854 3.0106246 4.1864505 1.3399302 -1.2255557 -3.5695224 2.1761088 1.5428368 -2.712474 -7.372239 1.2151972 -0.74767315 2.4355772 4.42525 -0.051060956 2.192867 -0.9740185 -2.6257799 2.3373682 -0.15077266
997 -0.26586077 -3.6563408 0.95309186 -1.4367893 -0.9846107 -1.348614 -1.9416391 -2.0672326 0.99124765 -2.963697 3.2172863 2.0651839 5.021968 -5.6122775 1.9351958 -1.3148062 -4.3302975 -4.9746633 3.7003791 -4.3149757 0.79769444 2.8279996 3.3694527 1.757235 -2.8813875 -0.7591225 5.7225785 -0.8124265 1.9573573 -0.748317 1.507005 5.4050174 -0.41739225 1.8224826 -4.968435 3.7885883 -1.7424152 -5.488002 0.6275886 -0.5167514 1.8037512 -3.4850068 -2.3876112 0.24534763 -1.005179 3.528739 6.0702677 -1.4667168 -6.9096627 -1.5138407 3.3236282 4.34614 -3.576525 -3.937592 -0.11378584 3.3728924 0.108293764 1.1077402 -0.7421106 4.2643003 -3.8330586 0.2914056 -6.458829 -1.4387026
1194 -5.7348723 -3.8629718 0.2684416 4.3860216 -3.167846 -1.082003 3.7330241 2.9767096 2.1689422 -1.6009715 0.08725386 1.6772419 1.201505 1.7677813 -1.1972718 4.9964023 1.2114313 -4.4681306 2.5608866 3.0003886 -0.9159043 0.4942256 0.70527256 0.45859012 -5.1303167 1.4261172 5.956669 0.24130572 6.7990108 -6.302242 1.1995268 1.157558 5.5576806 -2.4725978 -2.1659594 3.9544828 -3.8935444 0.5970091 -0.010376506 5.9146466 -1.3279153 -1.9439895 -2.8159451 -2.0063267 -4.294341 3.4141831 0.5331779 0.48592323 -2.465089 -5.2298255 -4.256116 6.879936 -0.43379408 7.281821 0.48768744 0.50414443 -2.21492 2.9163098 -3.0785246 -5.001722 -8.056295 2.728431 0.9987906 -2.9105651
562 -0.2845349 -4.112341 -0.29109886 -0.7895711 3.4177177 -2.6029575 0.33671054 -2.5108354 4.935955 -3.9208837 -2.4243844 2.0535777 -0.13004534 -4.2418466 4.410527 -8.637882 -0.25509235 -1.8931732 8.457863 -0.77617794 -5.146818 1.66542 6.5160155 4.773653 -0.9715615 -5.496755 -1.7082783 -0.4230033 4.6144085 1.1875719 -1.0342991 2.6230655 1.2523527 -0.027564634 -2.0196078 3.974337 -0.64834803 1.0803909 1.438709 -5.8297577 1.7848017 3.363119 -1.3037107 1.2732209 -2.3747537 4.3891253 2.5688314 -2.3438349 1.2389094 1.692891 1.4543588 1.5891944 -4.4454947 -3.8369634 0.7879048 3.0076673 -2.8203337 2.2088814 0.019215977 3.2768216 -2.824072 -0.2829579 -2.204768 0.90794355
333 0.6502225 3.8696985 -6.9983463 0.049702395 -0.48422277 -0.50839967 -2.1967916 -4.028513 0.45411044 -0.97169834 2.2748394 1.0319905 4.344932 0.6367952 2.624372 4.9970164 2.9978352 3.6524298 0.9772404 -5.4025974 -2.3029642 -4.282308 1.1011147 -5.014561 -4.2350106 1.7258427 -2.8646004 1.6038738 0.4640948 2.884575 -1.2511605 0.520466 -0.3050591 3.763997 2.6684444 3.2651062 -3.5521286 6.9517345 -0.09757796 -1.7861799 -0.71361035 6.406819 7.3848443 4.3488755 -4.241561 -3.2422774 4.5237527 5.5268407 7.363289 3.9135883 4.3091526 5.7913375 3.20583 1.004032 -4.14638 -0.4825264 -1.1505368 -1.495094 2.9573061 1.9663827 -3.613098 -0.82203007 0.07909891 -2.8340504
1553 -3.7382965 2.7347775 -0.6544853 -0.14457795 4.862302 0.5562122 -10.276552 2.5577087 -1.240437 1.5458887 -3.3523033 -4.321029 -4.577034 -0.67410034 -0.68161815 2.040134 -2.5374541 5.0950456 0.9573169 -3.0351107 2.505632 3.116647 3.5657256 -1.3211472 1.8436816 -0.83349764 0.49567783 2.0610769 -0.082090706 0.044296354 2.1975336 0.06123664 -2.2294612 4.362287 3.9222205 0.69396985 2.8094854 3.1300857 5.6806684 5.033889 1.3770843 1.4986191 -6.826685 -5.9446545 -0.36170277 3.006918 -1.8993094 -6.111795 1.9466405 -0.18069251 -5.6473503 -1.3796163 -1.877351 -0.433427 0.67879236 1.7411139 -1.8286066 -3.1504548 -0.1808889 -3.7216375 -1.1371036 -0.40847132 0.17855406 1.0338435
1356 0.7944469 4.930795 3.7028008 3.17231 -1.307219 -2.8609953 -5.1960416 -0.5191841 4.030168 -1.0423795 1.0974305 -1.884726 0.08592843 -3.9619932 2.0970688 -1.6418462 2.5089657 -7.561642 6.9926133 3.7690525 -0.62001187 -0.96183366 -8.419082 -0.32988697 -0.93719983 -4.0579205 7.852296 -5.3473577 4.2245646 0.5374856 -0.4171803 -1.6457427 1.363552 -7.298526 1.8139242 2.7425728 -0.71237886 4.90074 2.6586456 -0.61838835 -1.8990265 2.8855379 -1.6040695 -1.2412905 1.3489676 0.15078506 5.768614 0.8065735 1.027807 2.0327535 3.136276 3.597702 -0.30241236 6.670479 -4.1607833 4.0514956 3.1069012 -0.6134427 0.89894485 -3.2849815 -4.966596 1.1974224 4.472993 0.8961239
1843 4.1975436 -3.8950732 4.4239607 -3.5251648 1.457626 -3.1006057 -1.5918902 -1.5026858 0.395741 -6.341283 0.035979737 4.422225 -0.47543228 -1.3489656 1.5022784 -5.220011 0.9346228 0.2803968 5.669692 3.1914284 2.5762973 -1.174085 2.448873 -2.6074393 -3.4181628 -1.0901083 1.2848377 -0.7268092 -0.3034745 -1.0051379 5.0744166 3.5474606 2.1992798 0.98521954 -2.852055 6.208363 -3.9222684 -5.554083 1.8759642 1.2504004 0.5146474 0.17264359 1.3737779 -1.7644681 1.6515563 3.7959232 1.1394621 -0.102956794 -4.9302025 1.3691304 0.83333296 1.1554813 0.28020665 -3.370238 2.4410536 3.1076553 -0.41539195 2.9771156 1.1814456 11.719255 -6.589863 -0.97822386 -2.493878 -0.6401413
1591 -1.3021939 -0.049111556 -8.576735 0.85817945 0.4176177 -5.314044 2.72143 -6.0393853 0.7824285 3.4151027 4.2031307 -4.0170875 -1.2197616 -1.3111136 -2.1317017 1.4254026 1.2663771 3.0136967 -0.025069747 -0.43796933 -2.8817036 -2.1341393 1.9555261 -2.9986413 -3.0083268 7.5604215 1.910766 2.730167 2.5227184 3.792739 0.14153847 -4.3045983 -4.9225 5.729225 0.42581496 1.2499434 -0.5336884 1.6721625 -4.4417014 -1.0223446 0.27904174 3.3927338 -4.36018 5.1788125 -3.146373 0.9030188 0.9721411 -3.4742563 0.4349865 3.663278 1.4114932 -0.41625765 3.2365844 2.158888 -3.0578601 -1.3373735 -3.1532383 -2.9022563 -1.6155738 -2.572701 -2.773505 3.043368 -4.596167 7.6435905
23 -1.1830413 -0.76109976 0.7136598 -5.462349 -1.0152954 -0.9618489 -1.539986 0.039235957 0.7066098 2.0467052 1.527147 5.142188 -2.7469974 -3.507486 1.2632326 0.2046644 1.0496442 5.0324054 -7.6773095 -1.3298762 3.8168347 -2.0132303 -0.48961985 11.299543 -1.5796492 -2.675587 4.8653326 -4.267594 -0.018983014 1.2866836 -4.2872314 -0.08919593 3.996171 -1.2357603 2.0081055 -3.1450484 -0.03881731 -0.41739398 -2.325683 0.40142617 1.616477 -0.7581145 0.97571695 -2.5510614 1.3078858 7.622683 -4.1120954 3.0792136 0.31663802 3.2904413 -9.2603 -5.013808 -3.0617402 -0.2677849 -2.5470767 -0.9716648 3.2401958 -4.4897227 3.4581826 -1.4035668 1.0294105 -0.015528004 1.0240735 -1.6529654
1082 -3.8226576 -3.0265484 2.0128648 -4.4560456 -5.43879 1.179387 0.56904274 1.1838406 0.6169695 -0.84490556 2.580786 0.43494478 1.7209501 1.2290976 0.41117948 1.8492284 -1.7735031 2.1518476 1.2198461 0.17265163 -0.31490213 0.7755113 -5.087338 -6.956665 0.8472905 -5.41693 1.0213569 -0.0479799 -3.0735197 -1.3824488 -1.9426891 1.2321653 -1.4733558 -1.0531616 1.9734356 4.070024 -2.1137872 3.2464437 0.69931716 -4.063942 -3.5782504 -3.8403594 3.2382388 -1.5758435 -0.8371941 3.1823955 -5.6506824 -3.9148939 0.1774271 -10.211924 6.267318 -5.0683713 1.0829803 -1.3595245 -1.6150572 -3.073134 -1.8300127 -6.1562476 -1.421472 1.647041 2.7925751 -1.8998239 4.5017195 -0.89012665
81 2.1685271 -2.5526423 0.79226 1.9679413 -0.49075085 -2.9290075 5.187792 -5.839281 1.5652978 -1.45793 0.3511849 -0.5222378 4.126173 -5.6167393 -0.17780663 -0.89284784 -6.6987057 -4.4227333 0.6803864 -1.4777558 1.0924163 0.10409589 -3.7514687 3.3427114 -3.0761065 -3.384855 -4.2262173 2.5974824 0.7365333 0.13040672 3.3051646 2.5267124 -0.37744316 2.102926 -1.6675456 -0.60283655 3.829939 -7.552056 0.51865476 0.27951297 -0.6746361 0.7683031 1.3814421 0.5227842 -2.4240289 -7.9341497 -5.071066 -6.936948 -2.2104113 -1.0279294 -2.533827 1.4793044 6.900152 4.9782944 4.310609 -5.366278 -0.9695296 1.6212167 -1.6777709 2.2917342 1.6971627 -5.780732 -1.9309367 0.2711154
816 0.68642944 3.1875043 3.8375835 -0.43915823 2.3391912 2.4703426 0.6453213 -4.8816566 2.4438686 0.4198269 -0.092710674 -4.2738767 2.7054017 -1.8110826 2.1760578 -1.323792 -6.5878386 -3.1370578 0.11357115 3.4356804 3.0601132 -0.8618602 -4.639388 2.8101664 -3.1830077 -2.368859 -2.0154178 0.4865412 -2.3263538 1.1139971 -0.7175917 -2.3840513 1.6033417 3.2891076 -6.3323774 -1.7309119 -1.4702039 -5.0478253 -1.8084251 -2.9345007 -2.1504083 4.7220173 0.6701875 -5.653396 1.0344104 -4.6579456 0.22964679 -5.752645 2.7903483 -2.6224632 -3.057845 3.1247578 4.9197664 4.0524406 3.7491648 4.637328 1.1062512 -8.546554 0.31856248 3.7668126 3.1512125 -2.7115304 -2.724944 -2.6105814
698 -3.249043 2.2026718 -1.2540047 -0.2744872 1.8788497 -0.039004173 1.2126862 2.8888264 0.2716585 -1.2985541 3.0214612 -3.897514 -1.8383085 4.865842 1.6202489 0.7042214 -3.6997478 2.7466238 -7.5007124 -0.28194815 0.098112226 -1.999938 0.79596347 -4.0851736 6.3442693 -3.0500555 -3.740894 -5.8386436 7.685092 -2.3992386 0.8407138 -0.72728527 1.9656036 5.4257526 -5.2657866 -2.3016179 1.3420802 1.9007185 1.0593091 0.83166534 2.8373969 3.3516014 3.7489674 1.7933799 3.6437626 -0.6420481 8.744901 2.9612374 0.5579522 1.2866272 -0.82825756 -1.4865135 5.374659 2.8491197 -2.6692748 -7.3818736 -0.7590039 3.6838527 4.0831842 5.0453844 -2.3823645 0.9296545 0.23227274 -2.1589022
753 -1.4948616 -0.041583944 6.64316 -1.2322178 -6.5243816 -1.1252005 -1.5316582 2.479073 -2.3368413 0.007676303 -0.14011209 -2.3036146 1.9265968 1.6373602 3.6540031 -3.8702383 1.77873 -2.8839338 0.51997954 -1.6337389 2.4581037 -5.3103857 -3.4082992 -0.42093354 6.557304 2.0169477 -3.5775092 -0.18016225 -2.6098454 -4.33406 1.9936227 2.4096682 -1.3380133 -6.7128587 -0.8359553 3.4924855 -2.2563713 2.4365804 -5.7255754 0.14781526 4.293417 2.365992 2.3656406 -5.115528 0.87364537 -0.4651684 -1.2176068 1.3389107 4.0639987 2.8745348 0.34940755 3.6520271 -5.0694833 -4.180081 -2.5490189 -2.2317498 1.3453593 0.5479585 0.5359054 -4.778702 5.463548 -1.2918521 -4.8329916 3.6378236
1286 1.3090146 3.4766254 -0.28201622 -4.0007577 -11.461507 -1.5408337 -2.0888102 1.2526088 2.7670457 2.0703804 2.7771401 1.8988271 0.06590945 0.8532973 1.2020411 -5.237077 0.7023533 -0.32894555 -2.4818225 1.4352722 -2.337138 -7.470607 -2.3195171 9.441875 -5.0346446 -2.5102472 1.3361965 0.14712074 0.21915711 7.3252296 -0.31249413 -4.047297 -1.9685845 -0.20434372 1.3001 -5.003198 -0.94815016 -2.0033896 -2.0709894 -0.3776205 -3.3297958 1.4962535 3.4571545 1.9478282 2.288616 6.4148803 1.0028731 0.12381938 -0.39524078 4.747459 -3.2805183 0.22493559 2.248747 4.178207 -0.9790511 -3.7766364 3.7304046 2.1319692 -2.4582448 -0.64393556 -4.429269 0.8257834 6.701828 -0.041476276
1857 1.2111785 0.6600771 4.059534 -0.28791967 -7.9855328 -0.27970204 -4.4906764 2.6341228 -4.8363724 -0.4314182 -0.076115064 0.864464 0.7198293 -2.6585214 3.4511573 -4.719681 -1.1793809 -1.7931535 0.08850557 0.94841015 3.3253875 -6.483564 -3.003579 -2.5900054 2.9793842 1.2816741 -7.183094 3.8538818 0.03132087 -5.220218 2.2056608 0.5173557 -0.8221413 1.9092337 -5.6286397 -2.553142 5.085957 -1.3924737 -3.096315 -1.3035698 5.334671 -1.2255958 -0.043276444 0.53102064 6.125451 -1.2244611 -4.228997 -1.5442402 3.9670627 0.9430532 0.12968877 3.7448707 -1.8230824 -4.548035 2.2618127 1.2389865 1.0770084 -0.049397483 -4.6761813 -6.404327 6.54798 3.1783097 -3.6696649 3.5896134
754 2.6448865 6.2965517 1.8390341 -7.0260043 -3.9527361 -1.0338603 -1.7534121 2.5105288 6.1400785 4.9920015 -0.60859764 0.16690736 9.361665 0.85879666 -2.4603856 -1.0670621 3.7393208 6.12385 -3.989496 -1.265209 1.7143279 -0.6292108 0.34493285 5.1027536 -1.9469656 -3.9140842 -1.2298467 -2.441269 4.0865474 -0.8624213 4.2020674 -0.91382253 -2.7516005 -0.78627133 0.87346196 -1.686789 1.706663 -4.9656367 -0.33734432 -1.3776894 -1.2363034 1.6933221 1.8967767 2.0264115 -0.3679577 5.983369 -2.0649931 1.6709534 1.7034168 2.8090792 0.31731066 -0.3304408 -3.0514307 0.52985185 -0.60561866 0.42538416 0.35173774 3.6660745 -2.4173439 -4.764855 -4.395218 -3.46005 5.246697 -1.9939216
1891 -1.759056 -2.380202 -3.3066628 3.2528694 3.7680566 2.4730248 5.4846864 2.273126 1.2629719 -3.749487 -3.0617812 2.9554644 -1.899901 7.2332644 -2.2511644 3.6131423 -0.80934393 2.9040475 -1.366534 -0.73054093 6.6134753 1.0299288 -4.589312 -0.44437572 7.334805 -5.997576 2.3790028 -2.447293 5.410988 -1.1617393 0.21070538 0.32395995 -0.1912696 3.664852 -3.1153517 -0.1419304 -0.08431229 2.411031 0.39453316 -2.5807254 -1.4036149 -0.0959643 1.3465363 1.4040675 -0.30811986 -3.1371555 0.45090902 4.1849947 -1.4299035 -0.5001792 0.14943802 6.0475516 -1.3966447 0.1320429 -1.5804644 3.07219 5.1719007 0.5368601 2.8685799 3.1333926 -1.9513987 2.6242874 -0.66807675 1.8481222
313 -0.9729238 -0.58187985 0.22080505 -4.7735987 3.7030282 -1.0813091 -1.6988305 1.1044053 -0.22301823 -4.636673 3.3360062 -0.7522202 0.9302005 -2.5945435 4.147147 -4.259639 4.888878 -1.7754385 10.972236 2.4195397 3.8210223 1.25223 2.5410416 0.32650122 2.1856155 -0.30289975 4.6481175 1.6297714 -0.7963754 4.3963017 0.46251464 1.0830082 1.732774 -1.0030472 -5.975506 2.6036837 -1.2165419 0.8844919 -0.8971766 -7.0788984 4.674665 -5.2920637 -4.52299 1.7612145 -6.711053 1.7256494 3.3286345 -1.031182 -1.6385794 -2.6453094 2.4216385 -2.8820431 -1.5887675 -0.5398549 2.0343902 -3.024837 -0.24084659 2.8219502 -5.92392 6.9186106 -0.28535935 0.23462199 0.40904772 -1.2757193
196 -0.36101043 1.0852126 -1.1595155 -0.37362018 0.8092216 -4.29626 -3.578212 -4.636177 -0.2938475 -4.6525865 0.8519296 -1.4065615 0.1680117 -4.3481603 -5.3908014 -5.6847796 0.83918583 -3.4304492 8.808963 -2.0720863 -2.8725245 1.3071315 1.837825 -0.56370074 -0.6431419 -0.010778497 -0.04893782 -3.3447256 1.3308254 3.9005733 -0.88154334 -0.8398698 0.70025486 -0.7983711 -5.150125 4.943969 -2.148468 -6.7017994 -1.1496365 -3.372173 1.0649813 0.8323415 0.61573774 0.5691882 -4.705827 2.4785476 1.6969589 -1.730577 0.24520274 -1.676322 -6.112828 3.8982332 -5.2478967 -6.2774286 1.4503815 -0.594411 -0.014564803 6.4822183 2.4534295 5.3425727 -3.7492235 0.50811404 -0.49478307 -2.5846875
1410 4.378001 -2.1651826 -5.775189 -1.2601038 5.5074596 0.5959436 7.2483773 -1.9883785 -6.6871104 -0.13433538 -4.4530125 1.7663102 -2.1319098 -3.8293605 -1.2162781 -0.25770125 -0.030663993 -5.0589423 -4.9263816 3.460358 -5.4784336 1.1662658 -0.9105826 2.5885026 4.4619694 -4.2826757 -0.5121495 1.8237715 -9.536433 1.48039 -2.3470368 0.9618208 -2.6908925 4.231656 3.5815582 -0.18072881 4.04754 -2.4312284 -0.32977882 2.5772917 5.304075 3.6375778 -3.2732925 -0.9757981 3.8729095 -0.7460245 4.372472 3.059931 -0.6781199 -4.0663676 -2.3536458 5.3371925 -0.95799375 -4.7953677 2.9242828 -0.30605942 -2.8387537 -3.0694149 0.29398268 2.6259594 0.83363277 -2.9351318 1.2339402 -0.17073466
696 0.8166879 2.3447754 2.7193887 0.14251241 -8.992693 2.6533983 -2.0041971 -2.6899555 -6.0831146 -0.3130115 -5.7216797 -1.361509 0.05054824 2.6394386 -1.482555 0.6793373 1.4582493 -0.9186422 -1.7325517 -2.4567487 -0.7667771 -6.258267 -2.5820646 -1.4954343 1.9380603 8.532448 -1.0154996 -3.08089 5.875934 -1.3398662 -2.836031 2.165879 4.15185 1.5993503 -3.5003135 2.8953168 1.2163568 -0.95959276 -0.2488428 -2.292185 -0.8574799 0.5314535 -2.3822205 0.1124506 6.710705 1.2299708 -4.1746726 -0.1870244 -1.6605562 -0.5379257 -2.5796416 2.2609155 -3.2047303 -5.44173 0.5460368 -3.0784104 -2.879923 2.0012493 -0.3639354 -1.996524 4.897178 -2.0117698 -3.7291207 0.6778355
824 1.7152964 0.8431095 7.159937 0.043626778 -3.0444748 -4.491719 -2.9658942 -0.43698004 -5.4836135 -2.1291072 -5.251144 2.850126 -0.49301672 -4.9329743 -3.6747172 -3.5208716 0.9126918 -4.0593567 1.606334 -3.417211 5.030051 -3.1216424 -4.1381454 -0.98673207 0.6463504 3.5891771 -5.6796427 2.8580434 0.01240704 -0.70135874 1.3933469 -1.8002031 1.499291 -0.53309023 -6.9041753 3.2419682 -4.1186295 1.0071858 -5.1319847 -2.3033204 -0.79184467 -1.9661481 3.4660876 -0.38022014 2.2482932 1.4258516 -0.30822873 2.2717748 -2.22079 3.084311 2.233545 2.2372577 -5.6502433 -4.244058 -1.5273674 -5.755683 -1.7719406 4.4710903 1.3640246 -1.6896391 4.168676 -3.2421887 -2.4880311 4.529909
483 3.794974 -0.23766467 1.5494884 3.3832774 7.8486295 2.8597674 5.167476 1.8598013 -6.7553368 1.7510188 2.49818 -3.6769543 -2.6396923 -4.7669115 3.2538168 -2.0066447 6.782307 -0.62640524 -1.0505574 3.1891983 -5.471074 4.9978805 -3.4815383 0.016889026 7.3029785 0.47716764 -3.0678182 -0.7263476 -2.8969839 1.7025853 2.7550948 -3.5798154 -2.1160946 8.763211 1.1712246 -1.3633854 -1.0830898 -0.041104257 1.6573306 1.0047356 -1.1201037 -4.1203995 2.350792 3.036136 2.3744326 1.7233686 2.807229 4.8393254 -4.201808 0.24641639 2.738553 1.9527935 -2.9133134 3.0999832 -4.9323025 2.5053558 -1.4231436 -3.0931017 1.5846491 1.4342432 2.0225077 1.9224799 4.479735 -0.80892736
1895 -2.987249 1.059813 2.1770463 3.2737627 3.6278706 -0.34786326 0.89740556 0.874555 2.1790044 0.65352803 2.9202735 5.0250735 5.3747773 -2.7331958 -6.611474 2.108067 -7.6433806 -4.3213344 -2.8142595 2.7471387 2.2374856 -3.2019272 0.004214341 2.657645 -3.1958683 -3.39796 -7.5044723 6.965089 -3.4940352 -5.3402596 0.7688598 1.4969981 2.5849419 0.8371117 -2.7237148 -5.0803337 5.0947375 -1.9424975 0.35382518 1.7573869 0.253574 0.028606437 0.104891606 -0.5125372 4.950569 1.8338888 -5.159638 -7.4424615 3.0913293 -3.5997803 -5.7529125 3.1455736 5.447245 -0.9669996 4.1999903 -2.0697467 -2.0054882 -1.9452237 1.9440784 -1.0004864 1.2339091 -0.41235375 -1.9545727 -0.9440564
1364 -2.5370784 -3.4251401 -3.072619 -3.1497862 -5.005662 1.2833533 -0.18774925 2.8116357 6.126164 -3.2028198 6.5703206 -0.782809 4.606788 1.8096966 -2.4110477 4.1005583 -3.9384828 1.8462111 -1.7813965 0.1195313 -3.6646426 -5.204777 -1.8691014 -3.0309038 5.7328296 0.61407495 -0.14502682 -1.8441025 -4.2653303 -3.7821114 -3.432605 -4.974696 2.973894 0.0696556 0.46366057 -0.1705408 -2.5256848 0.4020144 -2.5854838 1.0653198 5.0290003 -6.363575 0.4108543 -4.145578 -6.7945385 2.3580859 -2.2557552 -1.2234378 -1.6048666 -3.8019674 -0.17699806 -5.3987956 -1.9014007 -3.6275356 -2.340008 -4.4752526 1.1948744 -4.008434 -2.8355174 0.49397987 2.9740984 -1.4292055 1.977795 -1.545403
1111 -2.3377213 -1.261031 1.4705988 3.4077845 -2.300283 -1.5897393 -0.34927526 8.10713 -2.3978558 3.9122195 -3.2812908 3.059443 -0.20072773 0.36277753 -0.4833504 -6.2750854 -1.3583044 -2.1821249 2.522249 -0.98775184 2.3194864 -6.0444355 -2.728009 -2.3181946 -1.2061625 4.1287355 -1.727854 -1.0320907 -1.0975049 -1.3689052 1.327521 -1.5976366 0.051887702 -2.0299153 -0.8373689 3.249854 3.0704455 -1.0157194 -1.8842396 -1.3700606 3.819818 -4.4386783 0.2946104 2.6734726 2.3871574 0.5105864 -2.4841444 1.0217086 3.092353 5.3058105 -3.7144582 -2.327615 -4.1110945 -2.3802085 -3.8229568 -2.4893415 -2.3497996 2.8793573 4.101115 -4.769059 3.257318 -5.8997374 -3.9693108 4.863531
1475 1.0404124 4.007264 -3.073411 2.055505 1.4455459 9.069939 -3.1754732 0.5483842 -1.2434626 -0.308168 -3.4741137 -5.641782 3.063736 5.531994 2.5368533 0.65790325 -5.0684032 4.8790374 -0.018603286 -1.1531498 0.26222962 -0.25296068 -0.34789273 0.70176893 3.9023135 -1.9948213 2.5342338 -2.4975708 4.182127 1.3688078 2.6535664 -0.38298365 1.6472055 -1.0610465 -0.97145283 0.44015646 0.21638504 1.8144845 6.8166256 -2.3221974 -2.5135348 -4.599434 2.6508873 -1.672117 0.81733376 -5.924673 10.86262 6.479504 5.4467216 2.2695436 -0.32516888 -1.1343994 1.7105714 0.5015299 -4.8464713 0.19025637 3.6396017 4.639296 -0.41257802 0.3722048 -0.53904855 4.7180767 0.16630097 -4.9586434
739 -1.9887222 -1.3683594 9.322249 -3.044439 -7.2643995 0.3458233 -0.43665335 1.0514529 -4.2194676 -0.9783541 -5.083803 -2.10757 1.5474666 5.408536 5.321877 0.0796508 -1.8988489 -0.5561321 -2.6679497 0.83019376 4.5824556 -4.013289 0.5108639 -1.4226007 1.6334282 2.4730008 2.8243072 2.5407 2.2874339 -0.43393147 2.505438 1.6124864 -2.2132301 -0.98779374 1.6820846 3.5023963 -7.070677 -2.7436295 1.779672 -0.6584719 3.7149875 -2.246907 -3.2868555 -2.1186702 2.8641384 -3.3939939 -0.4714962 1.6517872 2.080179 5.3554664 -0.6566287 0.18733482 -1.6105071 -6.674117 -0.80801195 -2.4345345 -7.469317 3.3391147 3.8773875 -3.2839782 1.9354858 -4.269405 -2.264482 5.80546
1552 -2.517556 4.32336 3.8499253 9.224932 0.6729658 1.4235572 1.3995831 1.3609836 -0.8169934 -2.064952 -1.0144103 1.6190519 -2.118151 5.039009 1.3047897 3.3620398 -1.799343 2.5292816 1.1069372 1.102011 -0.27722836 -1.9954995 2.332495 -1.3459134 0.37360495 -4.463069 -2.5424287 -2.967495 2.9906087 -0.24916206 0.1074521 2.7577772 -1.2026664 3.0074956 -2.8499906 0.46766937 2.2015674 1.9001075 0.81821364 -1.5454984 0.9081957 1.4071816 7.0261383 2.9607766 -0.85919195 0.24039944 3.1050828 5.58035 4.509264 2.7996671 -0.87260437 2.0367656 1.4750426 0.9502703 -3.3903482 -4.98701 4.584341 1.4940817 6.4904747 8.590009 2.8451006 -0.6207848 0.7400437 -3.0266802
1550 -3.5121837 -3.4266276 4.9728093 0.00079615955 -6.8318853 -0.15731487 -2.6623812 -3.6930525 -6.1493134 8.163625 -2.5687823 -3.0083215 2.1582892 1.2985387 6.2784595 -3.3612063 2.6835768 0.45612764 -0.16680086 1.3904576 4.861804 -1.7282851 -4.2079964 -0.33664718 1.3210038 3.8253226 -4.872336 -4.4362497 0.9057244 -0.14193586 2.191399 2.2744067 -0.50411445 -2.3113713 -4.0528135 0.5888497 0.30394047 5.338328 0.7909296 2.3517504 5.2696958 -1.7529776 -2.098972 6.607164 0.7231618 3.396192 -4.6230464 2.7964346 4.5478826 2.7135901 -2.6457121 1.9990882 2.296333 -3.2471545 -0.39181125 -1.4685564 -3.6600025 2.0383704 2.240717 -3.847531 -0.11920359 -3.2109034 -3.617792 0.36080313
1425 -0.75249475 -0.2859632 0.68554145 4.0708866 -5.185067 0.2145582 2.0439255 2.544616 2.4771855 -0.20141153 -2.3254917 -3.1860697 6.1857486 -3.2815747 -3.9875212 -1.8605338 0.53092426 -8.814137 0.33508435 1.5688934 -0.553096 1.6840283 -0.5202894 -6.612975 0.987601 -0.5516714 3.5410192 2.9933817 4.9435477 1.0429317 -3.9212248 -0.9901891 3.9603937 -5.780874 -0.94181865 -1.7106314 2.3446686 3.3006327 -3.9038906 1.4945543 -3.0179992 2.0288126 -2.953983 -0.23561764 -4.8707027 1.260292 0.6407835 0.52269775 -3.7634528 -4.636482 -3.4875946 -2.0682461 3.5741463 4.570667 -0.29886827 3.8979962 1.0332196 -0.123224564 -2.49281 0.65246254 -4.71856 1.3742445 2.7615445 4.8101068
687 1.2390879 0.10699072 2.9776847 1.816465 1.8352059 0.047399864 -8.494501 5.9755683 2.2811434 0.84885955 2.6564224 -0.8835783 -5.218826 3.6169994 -1.771409 0.9565367 -4.642644 -1.1284709 4.761798 -4.482523 -2.2074816 1.9940078 6.018583 -1.6437428 -0.044649202 0.834734 2.4198494 1.7386507 2.7403433 -4.619699 -1.734905 -7.169222 -2.9025123 0.96875125 3.5954175 -1.9539639 4.244146 1.4295783 5.418025 7.0269833 -2.5492783 2.982987 4.0232787 -6.2517858 -0.6842336 3.0932817 0.9939872 3.7753 -0.37885952 0.3531608 3.5336602 0.62015474 3.5919046 1.305033 1.7113879 -2.2040443 1.7043172 0.9692887 -1.2010808 -4.245678 2.8891032 -7.819432 -2.0643406 0.41340664
293 -2.7484472 -0.59482163 4.945326 1.2815509 0.7449385 2.7617774 -6.401137 -2.7106857 2.440062 5.4031434 -3.4914958 -6.3878574 -5.8368955 -5.7754087 -3.7787352 -0.33047175 0.6006686 5.9345913 -0.009739841 -1.7060026 3.5968966 3.4346673 2.5982816 1.9193585 0.652952 -1.9878707 3.6509266 3.8324592 -0.021083983 0.87832075 -2.047916 -1.8961829 -1.845901 0.46267852 4.33332 -1.2612418 1.3307005 7.429319 5.9493737 4.097167 -2.786927 -1.9865985 2.0987983 -1.3435941 -3.889563 -2.3490405 0.029605558 3.1289907 -0.7250828 -2.7137358 0.800991 -2.0683274 3.407423 -4.10538 5.1572566 -1.0741191 -2.6520429 3.2044501 3.0703602 3.0929203 -0.054202653 -2.7974465 -2.6849024 3.581731
740 2.8857598 0.44358996 -2.910874 -0.4806017 0.54929703 -1.4720265 -1.8297739 -5.584942 0.34286967 2.6049688 -1.0180227 3.7050505 3.9766178 1.9483676 -4.596165 8.832507 -0.09080121 0.9448804 1.0521652 -2.7561252 -3.9936585 1.5756302 7.9198465 -1.3865786 -4.5721455 6.411717 -1.7752826 5.7133546 0.09138472 -0.98808736 1.2002873 -1.2046546 -3.3595529 2.3618548 -1.19147 4.3761077 -4.074395 -1.1788671 -1.6451044 0.5145899 -2.5689902 2.1361716 1.8795062 3.536046 0.34000802 2.6700282 -1.2383375 -1.8429083 3.0323079 3.681719 2.7942078 1.5717809 2.9537013 2.6109867 -4.9783416 -0.3163794 -1.6104698 -3.379888 4.767149 1.0232644 2.038661 -3.10094 -6.270288 7.3405266
838 1.0026288 -1.9815115 4.9152436 1.7142746 2.40716 -3.7666879 -0.68609047 -4.5413413 -0.02703183 -3.4840665 1.5226862 4.3356986 -4.3707156 0.14727893 -2.2050858 0.62508094 2.6798527 -4.4145617 7.8078213 1.7455511 -0.43653136 -2.9771597 1.8816175 3.2926903 -0.68321973 -3.7985747 3.8945954 -0.505252 -2.984085 -0.79704857 2.944713 6.1716123 -0.8707256 0.14853358 -3.0337124 2.2939541 -3.1135738 4.4137473 0.878089 -3.5368795 0.6151683 2.528112 2.026019 -1.0855974 -2.8275528 2.0568445 1.7059555 -1.5650768 -5.8832564 -4.908221 -5.761705 -3.3881505 -3.4055023 -2.6278043 2.4162002 2.0134823 -0.4153375 5.6517158 0.008833397 5.5319057 -6.4780498 -4.121129 -1.4985183 -1.4227015
720 2.3199186 -1.7697436 2.070948 2.7872598 3.2578576 1.0478363 1.3516592 -3.1566782 4.9540896 2.4578414 3.538368 -5.393865 2.7863955 -7.6046796 -0.41957188 2.8957198 -4.9566736 -1.921881 -2.9848018 3.4643312 6.4857197 -3.4798105 -1.7523688 3.761028 -5.654656 -0.74845904 1.4574451 4.110401 -3.2264767 0.2071727 -1.9184436 -3.4167407 -0.053456623 -0.63688695 -3.6166997 4.173531 3.9019897 -1.3810513 -1.7364842 0.3943474 -1.085285 -1.2904233 -2.2841148 0.26965007 1.8890021 -5.2815948 -2.755315 -3.9847329 3.6605656 -0.43530512 0.02625922 1.4508158 3.188942 -1.1925802 -1.7377621 -1.2040093 -2.0390663 -0.43914402 -2.5622752 2.6037798 -1.6952313 -7.353563 1.5137688 -9.946436
381 -0.4594847 -0.90630656 -2.6975124 -4.2399764 5.6255207 4.0444646 2.724926 -6.6037517 -1.5682364 4.76201 -1.0295666 1.9311109 -3.2616403 -0.48461914 -1.2958364 2.8764312 5.035504 -3.744903 -5.241542 4.293738 -9.846717 0.6764435 -1.3141825 2.8932636 3.818979 -1.2618327 1.0741967 4.3394923 -2.420872 -2.1204774 1.0994762 -1.225603 -1.1481543 -1.6708221 2.8666556 -5.7107673 -0.38753033 -3.6458604 1.9545256 1.543159 4.034817 -1.5235518 -0.043992724 3.1697898 1.3015934 3.837139 -1.7808269 3.6077209 -2.0677624 -0.06232698 2.0172882 -0.38609537 -6.2544794 0.026230467 1.4457089 -4.279263 0.09295324 -4.72415 -5.7271066 -2.0118606 4.4362974 3.8345222 3.8614817 -7.182775
1823 -5.331928 -2.4809375 0.6285931 3.156884 7.331434 -0.9658852 -0.8065173 -0.18879415 4.286682 -3.5431418 -0.21151051 -2.4444292 5.677368 0.48740485 -2.493774 1.49737 -2.244138 -2.364043 1.6588794 -1.9342446 -0.028504644 -3.206733 -3.4590101 3.1399329 -3.06453 -1.1015877 -3.214658 -0.2030889 -4.301917 3.4477205 0.1440555 0.99348336 -0.8419979 -0.7315117 -1.2464985 2.6313157 2.968298 -6.644153 -4.5677605 3.239166 1.7736855 -0.08448715 0.49368426 1.1802409 2.0556855 -6.7904396 -0.7637046 -8.017014 3.4957268 -0.6480076 -3.1504624 1.9802456 6.1938424 -4.996374 2.7923625 3.8856616 1.4157635 -3.7686539 3.56785 2.369904 0.8089864 -2.435874 -0.8877621 -2.9371333
1281 -0.56436044 -1.0366335 -2.5522382 2.6652098 -0.8948836 3.5453947 2.7461803 -11.794227 1.9702566 -2.4643936 2.3703024 -0.47174513 1.0483774 4.431422 0.57539773 4.6794763 0.36690196 8.19883 -0.47601232 -6.3906627 -1.4749649 3.9526281 3.042995 -1.5496519 -2.9669902 5.917164 0.24136399 7.4113164 1.8770083 5.2039075 -0.57387507 3.0736864 -6.4281487 0.92578286 1.3638697 -0.29780522 -3.5911343 1.1419775 2.9520996 5.1036344 0.62333727 3.4754312 1.6443946 3.726506 -4.563723 0.5252332 -1.5586706 -1.3493361 2.7778118 1.4254866 1.9763107 0.7332341 -2.2034557 0.604886 -0.86486423 -0.02903242 -3.182073 0.7568087 -3.8812892 -1.9938006 -1.6727275 -0.014935703 -1.1199398 8.380501
1783 -0.7147581 3.9501681 0.2166843 2.5770864 -4.211774 -1.8386133 -2.6732132 6.810814 -1.0486258 -6.0360055 -3.276189 3.0930812 -0.011916359 0.18480106 2.5353143 1.0513215 4.5784183 -5.2891517 0.56364256 1.2593184 -4.75573 -1.403168 -2.0253086 -2.17112 -0.77379894 -3.1087449 8.596667 -1.9092315 4.827838 -1.994404 -6.327543 -2.503418 3.0281167 -2.773767 1.1355052 2.0264716 0.766279 0.3031609 -1.5836458 9.566353 -1.8534003 5.4694767 -1.9807701 -0.9789135 -1.7154146 -2.8773987 0.5003483 -1.7919854 -1.8969347 0.8650911 -0.03741344 -0.24629015 1.2053521 3.5113368 -0.43396142 0.79854274 3.2480154 -0.731186 -0.02904293 -2.8824391 -2.6676323 -2.3170912 -1.7857491 1.1525521
1875 -0.2775646 0.9384177 0.53461766 3.486878 -5.131608 -1.4860773 4.574184 0.3556506 0.9008907 1.6825157 -2.0376546 3.8017619 0.7401236 -2.4266496 0.53008556 -3.0246716 8.138115 -5.092735 0.054552127 5.1191297 -0.5070458 0.44505638 -2.5702899 -4.257541 -2.1471715 -2.6620667 2.9257438 0.28811237 7.5689826 1.4890592 -2.9078183 3.6104357 1.0524486 -2.858197 -2.5217738 0.55362654 1.8611376 1.6654078 2.5730042 2.1034744 -5.5718837 2.2695594 -3.7001 -4.9201283 -4.2866893 -4.6399093 3.6412072 3.8132315 -2.0416057 -0.011322719 0.13694093 1.6288016 5.7102356 2.3496106 -0.0339334 4.4800014 0.18396325 0.42899767 -4.4215217 -1.0423024 -0.92068595 -2.8669825 6.7962723 3.4919152
406 -3.9005702 -1.0010945 1.4794025 3.2009256 4.164292 -1.2962509 3.1695707 -9.097031 5.8727407 4.194832 -0.0071806246 -0.25328848 1.3510908 -4.36145 -1.1837412 -1.3315959 -4.9161777 0.11344898 -0.008995632 4.430663 2.5642684 -6.1122174 0.27333164 1.2720454 0.91206455 0.8135009 -2.7994566 3.0388386 -0.29857492 1.0514426 1.6926726 -1.9668229 -1.7720112 1.620654 -1.2664807 -3.3813753 -0.08132134 -5.5089517 0.44889244 -2.1909058 1.3399428 4.346256 -1.255102 -0.41975644 4.897372 -6.782927 0.27964506 -3.9861753 2.2864172 0.9048281 -0.44833094 -2.1181564 5.909601 4.5824122 0.3152801 -0.49194494 1.3586886 -3.4128046 -5.2847314 3.6705685 -2.7563965 -3.0769615 0.5472469 -6.5690145
1009 -4.79456 2.462163 1.8768082 1.1644574 3.729282 0.8287266 -2.4870336 0.009489422 1.1934552 -3.8480647 -4.6035576 -5.149378 -1.0635333 -5.1510677 -0.38177234 4.0158596 -3.2414463 4.194408 0.54912 1.2300627 3.023321 3.8853378 -0.10120707 -1.3283546 0.37485477 2.1423483 -0.8319586 -2.6029909 5.866153 1.4549823 6.127478 -0.16139212 -5.3627763 -0.4816268 8.187467 -0.8605187 6.108366 2.918858 7.1729717 2.4126015 4.2206483 -0.76123667 0.2649303 -10.353902 -4.3080373 5.556265 0.7741996 0.8906738 -2.8700757 -1.1108401 1.0256144 0.09236973 -1.8421476 -4.7339196 2.0502439 0.6909508 0.46768016 -1.6363119 -3.2554598 -0.42933124 2.0865347 1.0490274 1.2559576 2.4750128
1418 1.1050472 0.9481306 4.062433 2.8262134 5.3714094 1.7332627 3.9289496 -0.92521197 0.25575143 -3.0972867 2.0350223 3.554811 -3.8475466 -0.2188264 -3.5317264 -1.000246 -2.8518565 -2.721522 0.32177246 -1.2145911 2.407995 -3.6581264 -6.4309454 0.6002984 -2.1353137 1.6678417 -3.7333422 3.7612839 0.8122109 1.7046857 -3.652854 -3.0039687 -2.737845 1.8643551 0.16448621 -3.4122872 3.2298813 -3.349531 -6.1621795 0.87213576 2.019649 4.448853 -0.98219913 -1.7138438 -1.1625924 -9.143465 -2.9243724 -9.8198395 1.8126793 -0.79122806 1.568248 -0.8411359 4.2636695 4.329096 3.7029314 -0.5937143 1.60265 -1.2148546 -4.0052633 6.221266 -0.38831294 -5.248674 -0.07997998 -1.9839591
1092 -1.3929304 0.04850926 2.8653486 -6.4043875 -2.060934 -1.695554 1.6960799 -3.2040524 -2.0706859 5.702235 -0.2979411 1.8372669 4.3188763 1.5782906 0.09365489 -1.3520395 3.230097 4.974864 -6.515737 1.5299222 4.8523192 -1.4855976 0.78727 6.3151855 -0.30681783 -2.3116148 4.479809 -2.730837 0.4982383 4.41473 2.3031743 1.210331 1.9928331 -2.7192361 3.8477776 -3.2894645 -1.993302 -0.1149219 -1.289707 -2.5116808 -3.560392 1.4619074 -0.40915748 -4.8420496 2.7322981 5.9255347 -3.5093682 -1.2021594 3.054739 4.2799435 2.70724 -4.2244163 -0.96470547 -0.73956776 -1.3029338 7.4676967 -0.07853046 2.9062397 3.5089173 4.222554 -1.7451023 1.6409016 4.1649656 -1.1262093
6 -2.4960942 3.0326777 6.205033 -0.4713374 -4.105743 2.5869446 -4.159327 2.1877694 -7.9065585 7.5190115 -4.7356114 4.148868 3.798165 3.1675587 -2.2411282 -1.6979369 4.475387 -0.4238826 0.22825886 0.5060035 0.3227585 -3.0642726 -5.109196 1.4724042 5.8584776 6.310848 -1.6148107 -1.7783355 -0.87277883 2.0174284 0.8301089 2.2271247 1.6833978 -1.6490011 -0.6687609 2.1353335 0.3421099 0.9430965 0.19956751 -5.2341857 0.8179055 -1.901448 0.93368953 0.1375392 2.6578262 -3.4754663 -4.1741796 0.782897 -0.25377738 -1.375842 -1.6296871 3.1464007 -2.9176145 -0.44723514 2.6768236 -3.778558 1.2797801 0.28165582 -1.8282968 -4.2293983 0.3057298 1.1470498 -7.6141925 2.8287325
372 1.4973989 -2.791394 3.2096665 -2.8958132 1.7480978 -4.640452 0.3483473 -1.8319279 2.390473 -3.1526468 -1.7189324 5.738071 -0.94282186 -4.88442 -0.9844192 0.41457662 0.33314514 0.6590696 9.363455 6.02444 1.2480843 1.5025184 2.6902158 -1.2946165 1.0558851 -0.894665 6.013485 -3.1142116 -3.4029825 5.3684473 0.9222301 -3.1514528 4.9288282 3.5952847 -4.119137 4.2843847 -4.158806 -0.37527895 1.2332203 2.0617929 5.4815426 -0.22787702 -5.3283095 1.5662344 2.4308908 4.490711 1.9592813 -5.324892 -0.6074302 0.34693122 -3.2308087 -2.407046 -4.456658 1.5506455 2.0205638 -0.38380906 -3.0833201 -2.4297743 -4.167361 8.053012 -0.21353795 -2.3260517 -8.790991 -4.1912727
1586 -1.8551297 -0.46260625 -6.0060053 -1.9596108 4.71629 -3.0490153 -0.04296161 2.4843414 -1.377771 -0.7867881 2.7266603 0.9017289 -0.57496417 1.7341504 -4.0440297 3.4986095 0.5264107 4.2971773 1.1053147 0.6173356 -1.3631308 -0.035635564 -3.6698904 -6.113833 -1.7460729 -1.1380681 -1.7023324 -4.711508 -2.729537 2.4209518 -6.4520216 -0.8327418 0.2408605 -3.364503 0.77328813 -1.0895298 -5.855678 5.9098196 -0.8056463 -6.339407 3.7102833 -2.7774324 -2.9924626 -3.7677011 -2.4849234 5.115232 -2.2559493 -2.1647496 2.5829804 -4.748023 0.111412995 -6.202199 -2.0618148 -0.118285395 1.932416 -3.9548254 1.9397122 2.4037206 -2.905831 -2.1174953 7.667657 -3.0823624 2.9454448 -2.954958
688 2.9286695 -3.3671236 3.6345363 1.1988947 -4.5139985 4.253623 -1.7158494 1.250606 -1.7603645 2.332484 -1.0153673 2.6171722 5.311765 0.63950604 0.32877412 -0.065373324 1.5636505 -3.4357266 5.446891 0.8858955 -2.8278887 -0.12183017 3.259478 -2.271674 -3.6308644 -1.2403814 1.6640469 -0.033977006 8.203811 2.2898555 -0.8595286 -3.2738218 3.197608 -1.447401 -1.2530236 1.0335964 0.4919153 3.5290036 2.1980917 7.1288056 -1.0591804 3.8401601 -3.071873 -1.3229903 2.9966836 -0.20908576 -2.2928808 2.098166 -4.972374 -4.5438485 0.94124174 3.0984178 1.3478953 3.8611743 -4.396831 0.42962667 6.459685 -1.1043687 1.1693698 -0.013394735 -3.0191064 4.8607717 5.885805 -0.78354377
793 -0.80436367 -0.991856 2.5839217 3.3327234 -3.2751262 -2.7096462 -2.9962494 3.6211927 -1.0326861 1.2443004 -2.6931598 0.74364847 2.371319 -1.4763112 -2.677677 0.61268294 3.2324815 -5.5770745 0.32984093 3.06531 -3.2722113 -3.929536 0.3752573 -7.098702 -2.6179614 1.7086697 4.461622 0.8385539 2.528757 7.698027 -4.1634836 0.32438096 1.6063989 -1.2948881 -4.182271 1.107074 0.21020514 0.8056947 -0.05732236 4.8334384 -4.537418 2.4767566 -8.033748 -0.32484275 1.4226826 -2.7062616 4.3958797 4.840205 -3.9767313 -2.1427574 -0.65918994 0.13684395 2.9936974 3.3026702 -0.6819169 4.6339774 2.6823974 -1.9761935 3.9316874 -1.449441 -2.4842591 2.711668 3.4476674 -2.6432843
1635 -3.9462233 2.814569 2.213237 3.7766533 -7.2917743 2.3124552 5.203146 2.2010975 2.7933953 -0.6738358 3.2698998 -1.0410504 3.5592685 3.4969616 0.18625352 0.30140656 -1.2746346 -7.1417546 5.1076655 0.5462932 -2.1326282 -0.48618016 0.4943408 0.17474176 -3.8102622 -1.3714879 4.9592113 -2.1594315 5.346985 -2.5445426 0.7723347 -0.84569204 2.1931129 -8.899565 -0.21847959 0.29585546 4.065046 1.1020331 1.1437789 4.587171 0.09060134 2.4132864 -5.6437454 0.3900118 1.8995004 2.993605 2.0974894 5.5411763 -1.2877412 -2.8914492 -0.24647002 -0.1593005 1.5616068 3.6589375 -2.443529 3.5061774 0.13615334 -1.0926832 -1.9933119 0.12725261 -1.337868 3.141783 4.87286 1.9946493
860 -3.1001556 1.3418616 1.1893634 3.5835965 -1.0668861 1.2497993 -4.171487 4.135614 4.8960266 1.2950763 0.24603231 -4.186277 -2.2182677 -1.121914 -1.7176436 -3.1907651 0.17844047 -2.434715 3.2389944 5.247892 -2.8803942 0.067583874 0.5764495 -2.0017765 -1.4801948 3.524603 4.1478395 0.56245124 6.7651606 -0.92948127 -3.7565322 1.4749602 2.8979115 -6.244885 2.2916777 -3.381798 -4.885336 3.6731107 3.047029 7.548213 2.718251 3.2752926 -5.5954213 -2.6223032 3.9801276 1.3820083 0.48725298 -0.48294502 2.2306812 2.8714387 -0.5050899 2.2806664 0.007395597 5.4201345 -4.291804 0.73363996 3.734816 -0.1681053 -1.8014077 -1.7372836 -1.0576183 1.9891379 8.409344 7.1489143
1655 1.265149 -2.3148015 0.4103578 -1.9923718 -3.913369 3.714071 1.6031473 2.175789 -1.5309237 -2.32388 -2.0079813 1.120631 4.472362 0.27406052 -0.2985802 2.2531605 -2.5231838 -7.947738 8.023075 3.540958 -2.531163 2.8657105 -1.7675362 -3.9729779 -1.8263525 2.096177 3.576465 -2.2278109 7.8426023 3.1288855 1.1334404 1.9705182 5.4452763 0.11038883 -1.2287959 2.2856352 -2.0758023 3.9381833 0.5907557 4.0762143 -2.4403307 2.3340373 -1.1822275 1.2392827 1.5285283 2.128955 -3.9293377 -2.9550483 -3.545805 -2.8416586 -1.6024001 0.2889152 4.3093967 2.4092827 -0.96610004 1.1336883 1.6460154 -0.65229625 0.32851288 2.246652 -8.784908 -1.7246412 8.330413 4.9266577
499 0.31453073 -3.159063 -7.7583704 -0.32715237 6.2992244 0.4649329 2.4176111 -1.0779256 -3.4736216 1.0686401 -1.5355169 -3.3500104 -0.49909547 0.41462988 2.5879848 -1.0312605 1.9876838 -0.70526755 0.18448734 3.1221845 -8.543328 1.8650546 -0.98164207 -2.9181416 6.852015 4.6930575 -3.0257902 2.9476342 -4.1117897 -4.8286505 5.6712337 -1.3648835 -0.07707595 2.8201797 2.5251741 -1.1608466 -1.0751146 -6.3382163 -3.2285604 -0.0981205 -1.9126673 0.6426699 0.07349658 0.9755639 -0.39062396 5.9759684 1.2350824 2.2398553 -4.015903 -2.5826604 -3.459628 0.04029948 2.802725 -1.8509685 -1.5524517 -2.101651 0.5313598 1.1256927 2.0877497 -0.70444065 0.47751862 4.8155107 2.0942223 -8.933136
1256 0.41058514 1.8022976 5.2767797 -2.1621103 1.5019621 -5.9429646 -0.9991767 -2.309025 2.5190916 -2.4891405 -1.202552 1.3259332 -0.94792503 -7.8037763 -4.119946 -5.503037 0.47600392 -7.5839553 8.575167 -5.4426775 -1.3709996 0.29094303 0.35260355 0.11639475 -1.8871099 2.0904496 -0.691775 1.0853407 1.1826322 -1.8248422 1.9539359 -3.6481133 4.179744 -0.26359025 -8.782482 2.151202 -2.4347327 3.2268386 -7.8721724 0.56958187 -1.1516365 -1.7768952 1.5371777 -0.47037 1.2313805 -0.27471873 2.1256998 0.9810972 -4.8909745 -1.4902825 0.9862315 0.18727341 -4.1495953 -5.7328787 -3.9220448 -4.763799 -1.9548852 5.9937696 -1.2581519 2.5528793 -0.8290818 -0.45834783 0.88547647 2.7532737
27 5.835084 1.8080771 1.0036582 -3.41595 0.30225614 1.5633402 -1.9483821 8.190395 0.4593803 1.7850289 -2.9820864 0.64614826 1.3330934 1.9258075 5.2196407 3.500879 0.7193461 9.553598 -4.6717668 -8.657562 5.09615 0.82835835 2.125741 6.423529 -4.7988687 -9.021618 1.8415211 -2.3749452 0.76975495 3.1169755 3.291806 0.23202655 -0.37207878 0.70777065 1.7819036 -1.7665546 -6.6191745 -0.07809859 -0.41208032 4.564333 3.1895788 0.9230539 5.7965646 2.572941 1.8041587 3.0548058 -1.7085971 0.023968747 0.43043894 5.5394316 -0.44723675 -1.0332428 -0.83911276 -0.20779322 1.5449312 2.341576 1.5672374 3.5559204 -0.8067356 -3.5509322 0.84631866 2.8106258 8.048381 -3.9733267
456 -5.228036 0.2959103 0.21094975 2.2853618 3.0510893 -4.0079994 -5.470868 -2.1272154 -1.3394554 -5.3208137 2.6249864 6.23288 1.6720237 -4.861053 -0.6480994 -0.4939962 -0.40202048 -4.0361404 9.964619 0.6340681 -4.7654767 0.017190743 5.266047 1.8948721 -0.66545504 -0.3331222 0.2967287 0.2339857 0.06976733 1.2450981 4.615118 -2.5522666 4.7855253 -2.828812 -7.1770954 1.3211787 -0.29433945 -0.025940958 -0.15757309 -0.30985734 -2.5805058 3.714058 -0.78965473 -1.1331873 0.70623034 0.54500556 1.8286868 -1.5446758 -3.7259004 -2.3814423 -3.5712347 1.8948909 -4.881019 -3.7516954 -0.44714165 -3.232067 -0.9693205 10.508466 1.8293833 0.4405861 -2.3991618 -1.8532383 1.4160254 -1.5419453
1838 2.5348532 -3.1311748 0.45745772 -0.23804772 0.70516837 3.1608353 -9.8893795 3.953885 4.561332 -0.5070642 -4.950565 -12.210344 -3.776135 2.4536567 0.31508505 -2.7440584 -2.9989598 6.6027527 3.061979 -0.44067442 0.5663466 0.66585946 1.3694735 0.35186687 -1.2818003 1.8993919 5.5601163 4.5830193 1.3393608 -0.3754611 0.08776884 -1.6957653 -4.7449746 0.11752985 4.048925 -3.0151596 0.97428584 -0.1493875 2.694843 3.3486362 1.3153417 -0.41681656 0.18119182 -5.204682 2.399667 1.7155751 -0.48225766 -2.348519 -5.108132 -2.6298003 1.9831326 5.7171946 -0.43275955 0.21937142 0.39643732 0.62146086 -0.15788734 -1.0941179 0.91608244 -0.26383218 3.1856291 2.0615764 -0.31248817 2.2101414
1216 -1.584151 2.2223327 2.943094 -0.27457106 3.3115678 1.2175406 0.22178124 0.69309 2.3743951 -4.69599 -3.763059 4.153799 -1.8966054 -4.954034 1.760346 -12.127144 7.658738 -5.9167776 0.10289454 3.7823617 2.5270393 2.669751 6.6387324 4.007707 -2.668349 0.105663076 4.2801867 -3.8836937 -4.795176 -2.4019568 -2.5671751 3.3302238 0.25584814 2.5511808 -2.4946604 0.9763626 -3.8869407 -2.302141 -1.568724 -1.3735093 8.741322 0.81444657 2.2842999 2.8442907 0.39127097 5.284123 1.8050796 1.2695104 -5.3817444 4.69775 -1.6225065 -2.0907452 -2.2278152 -3.607085 2.216591 -0.41976145 -1.9765854 4.8625693 -1.9250486 3.744133 -4.5508924 0.5363273 0.6692304 -3.2030292
1169 -0.31971166 1.1089116 2.7005014 1.6348515 4.468291 -4.294045 1.7901118 -1.1740052 -0.29273665 2.0638967 0.9856014 2.6403427 -0.2716963 -2.997441 -2.3040593 3.4335752 -2.551709 -2.02607 -5.225544 5.7808404 0.7141993 1.5662414 -1.0551726 0.002815294 -4.703419 0.33884963 -5.334817 3.7919438 -0.10740569 0.6566093 -1.2978973 -6.29719 -0.5896755 0.88341796 0.6930721 -2.9089892 0.48290032 -2.8553228 -1.141012 2.2927687 4.958945 -3.6565838 -5.5438514 2.757766 4.345066 -2.0846326 -0.38585272 -6.490539 4.2256026 -0.30747783 -4.6323047 1.8875782 7.356428 1.0902345 6.787193 2.730582 2.27787 2.3835301 -0.56472963 5.273623 1.72175 -1.2026521 -2.2991645 -0.6566561
190 3.3122551 1.8424021 -6.3418093 0.24186313 0.13896397 -3.4856277 -2.4047046 -3.1157398 -0.1441304 -2.521516 1.3490722 0.9891351 -1.6182609 3.8728254 -1.1230203 -1.4110317 3.3655388 3.6805143 -1.1188592 -0.45121276 -2.022533 -4.7958775 5.5436277 -2.337966 -7.339733 2.7798212 0.8925061 6.397104 -1.9660954 -5.4627914 -4.5281434 -0.86601865 -3.197995 3.2709107 -0.91931546 1.4763796 0.59448147 -1.1842539 -3.0739996 2.2692342 0.36866522 0.38774216 1.2407271 -0.30624002 -5.8869486 2.5412738 -2.8554063 1.4422879 2.771836 1.4188324 -1.4095744 0.7194877 3.309342 -0.58448946 -4.8897653 0.48381218 -0.17010885 -3.7672024 4.885443 0.74458593 0.3264605 2.5949543 -9.497378 5.0578794
1592 -0.19987781 0.24157065 0.046686184 -2.9545782 5.2393646 1.8738655 -3.9313402 0.35789362 0.22346717 -4.0231404 -0.339624 -5.6883273 -6.3624005 -1.7725738 -2.438689 2.033192 0.06136369 0.620562 0.3632081 -5.237055 -0.106563635 -0.45957714 -2.0527194 -0.9338826 3.2982316 0.1800831 1.0472232 4.4902205 5.554062 6.0064135 -1.182812 -3.6403515 -4.912619 2.278878 3.3147628 -1.0596068 -0.46815854 2.1133132 5.1572247 3.901874 -2.1004176 -1.9503946 0.80026156 -4.3935275 0.5805251 4.1627192 -0.22778057 -2.8983355 4.1622844 4.756468 2.203967 0.10627571 -2.934355 -3.4741137 7.728685 5.4838543 3.4399621 0.42407748 -1.2284203 -4.35121 3.087043 -3.786817 -2.3334079 4.2624674
1514 3.9796493 2.9359622 3.4952083 -2.8173683 -6.7798047 -0.30494574 1.4705931 4.3733883 -0.83295506 5.4016976 0.57968 3.5731213 -3.61688 -2.4365227 -0.62652284 -0.049237017 2.2562852 2.783437 -9.201111 4.5040236 1.9787623 -5.999113 0.03974569 9.903566 -3.438932 1.1420453 0.951851 -2.4767652 0.4579529 -1.5291338 1.0755781 -0.11281525 -2.454567 6.479171 -1.7594277 -3.3115308 -2.660266 -3.8446496 -0.9563922 0.48921934 -5.0340743 -1.0799204 -1.7211537 3.5898223 -1.9345379 6.681261 0.5058108 -2.1226063 -0.21390288 2.0406199 -2.0821989 -2.4067705 -3.7852051 2.2271578 -0.18354772 -2.1981823 0.2574652 3.9661899 -2.4426 -4.585064 0.97648925 0.366982 2.6583722 -0.45505288
84 -0.8154689 -2.7042305 -4.3449893 -1.9069358 2.3643506 -1.8833128 -1.3362542 -0.8753667 7.507906 -0.15170778 2.4677863 4.2500067 1.9857769 -1.0311649 1.8250238 1.0462759 -0.9938753 1.7939831 -1.38609 -0.65114504 -0.8312776 -3.876328 -2.3152838 -7.661221 3.2656689 1.8234838 -2.5206187 -5.56875 -0.27279413 -1.4966182 -1.666323 0.10032141 1.2376384 3.043315 -3.033387 -0.38178682 1.6701452 0.18823172 6.396523 -8.751249 1.07188 -3.3234153 -2.6034591 -3.181772 1.1495407 0.36085913 -7.8982925 2.0315604 -8.065196 -2.804886 -0.3545725 -3.1898565 2.232825 -2.3613226 -0.791118 -3.5598335 0.9619301 -1.4915984 -2.79233 1.6176995 4.442983 -2.240255 5.106117 -2.9113657
1951 -2.1159248 -2.5086772 -3.6895041 -5.589471 -0.29298297 -0.23159423 -0.24394847 2.5533292 5.1854515 -1.7368494 -3.7406855 -0.20728503 0.6696009 -3.229592 -0.14539418 -3.6862283 -1.0633218 4.339931 0.6144304 -0.7874996 1.6307443 -0.64288986 2.3764882 -7.112399 0.85882264 -0.50004804 -0.007153067 -5.0368156 -0.42546418 -5.67341 -2.2045012 0.65804935 2.8387427 0.12067528 3.5108335 2.8695693 -4.3392057 0.7921777 0.49879146 -3.3851323 0.5687086 -2.3952782 2.3399682 -2.2527418 0.32582957 0.36465117 -4.8776917 0.50584716 4.3598843 -11.061511 3.1339242 1.9882482 3.418323 1.420664 -2.3024955 -6.9870095 3.4416301 -4.5677495 -2.7857091 -1.174968 4.9112296 1.8833159 1.4040742 -3.5827177
1666 6.181574 2.0235572 4.676116 -4.3502774 3.6515865 -4.168465 -0.33835882 1.5790229 4.5212708 -1.2552127 5.676056 4.1770267 3.3620908 -2.2740197 1.578804 -2.9033484 3.9051821 -2.2237747 3.764412 1.6260643 -4.3906245 1.6527014 7.8080583 3.333627 -4.4396415 -0.1485427 -2.999618 4.393871 5.491674 -2.748219 4.872856 -2.4314194 2.1019151 0.46110997 -4.6441317 3.6878464 -3.8755383 0.41272396 1.2299199 -4.1604714 -0.12963521 -0.36349207 3.3057272 2.551868 -2.0181391 3.3413484 2.1682386 -2.6817617 3.045773 1.7720379 -1.6966326 -3.3291621 -4.7457333 -7.3271966 0.25909215 5.5330067 0.083776355 -0.97116494 -0.19006272 4.997734 -4.844307 2.522488 -2.6605558 0.8030651
268 -2.5801368 -1.1918087 -0.6717967 2.7899423 5.4832697 4.956642 -5.055106 3.6828616 2.6659539 2.0635815 -3.3531542 -0.2941065 -5.9254875 -0.18718378 -2.8469014 -0.12066718 -4.8319535 0.06377067 0.044939786 -6.110388 -1.3313714 4.5466447 3.8555946 -1.327745 -0.5677671 1.6240767 0.093885995 4.9660854 4.0787444 0.88115174 -1.8521398 -1.0629774 -4.090694 -4.3559504 1.9179084 0.060292438 3.0063505 2.8265498 4.5900807 7.230643 -0.4387637 -1.7305688 3.5417607 -2.3159328 0.0067285486 2.1019688 1.6767503 -0.9229747 -2.780641 4.6327987 3.047321 -0.09183157 4.216899 -5.7414913 5.5278535 -0.9315299 -0.78711545 3.370799 -1.6895638 -5.086646 0.59704596 -3.9280396 3.178377 -1.0775725
1793 -2.8355737 -1.3729708 8.104141 -3.3963633 -6.6658516 -2.2538178 -2.8788218 -5.094358 -1.9301969 3.0212808 -7.5904737 0.841523 1.307483 3.3941944 1.1746085 -1.5326272 2.5065384 -0.65147084 -3.0227022 2.603986 8.083588 -3.7240732 -3.024432 -3.404615 2.9368877 2.6850905 -2.4335337 -1.0000674 0.7835631 -0.5642564 1.8500619 -0.24679574 -0.23987196 0.8730123 4.339287 3.0900402 3.1980605 2.1090293 -5.4390793 -2.6903458 -0.0953057 1.3884119 -0.67621094 -0.87109226 0.7387757 -0.52535355 -3.5410736 -0.63697124 3.6862504 6.000247 -2.1976798 -3.336368 -3.083376 -3.0795977 -4.917925 1.420207 -1.8817668 6.0431376 2.4831288 -2.85683 3.6477401 -0.6835131 -0.8057913 0.10476442
1367 -2.6671412 -0.71120185 1.6111481 0.921739 -5.5392394 -5.810353 -2.5273879 0.5522113 -1.7914498 3.3978229 -3.4150453 2.3013024 0.36703658 -0.18751797 3.8732023 1.4466846 0.61286575 -1.7143501 -3.5482628 -3.633296 4.6202307 -2.1772583 -1.7507133 1.6234398 2.2385023 7.3602266 -3.177917 -1.0342598 2.1332119 -4.7958727 -0.53793186 -0.76742464 1.8666979 -1.2704015 -0.65625703 -0.16277526 -0.4913351 1.1656412 1.774709 2.8500166 5.7940173 -3.8652308 -2.9474509 3.7677991 7.5391226 -1.2526718 1.7439134 1.710143 1.9770229 6.265052 2.183075 2.160864 -5.6659503 -1.8093323 1.58892 -3.594684 -3.5442314 -0.6361145 -0.29220095 -7.2716866 3.0230992 -0.16804282 -3.5142837 -0.067055464
430 5.0036874 0.13381533 -0.414474 1.0858127 6.7790437 0.2444538 -3.0733874 -6.1775503 -1.5939326 -1.4806274 -2.234545 -1.6135026 3.000368 4.2073183 0.57508236 -3.3985915 2.774281 -1.7579831 -0.35814795 7.8574758 -2.331976 4.5050917 0.20384008 -0.5508591 3.2816415 3.0796814 0.2815837 4.4786925 -10.9863405 -1.3977582 -4.133342 -1.5587858 -1.4247603 5.6049805 6.442784 3.312115 1.1619884 -2.3695307 -0.60345167 0.8870384 -1.9789202 -0.85011834 4.429078 1.2646931 1.2206709 3.4038615 0.14150973 3.5671487 -0.9820241 1.409496 -0.32024053 5.3766623 -3.4947898 -3.6587746 -5.215339 -0.30049598 -1.3217778 -1.0950292 1.1926204 -4.585002 -1.9303755 0.0207855 0.11805618 1.2654755
504 -0.91326076 -0.6392816 -1.4636921 4.9489627 -1.6805573 -0.79580814 -2.791285 -0.8181322 -3.8846185 1.7995117 -3.8881547 0.6009429 1.1526425 1.1428062 2.602934 -0.5114785 -0.375332 -2.63557 2.498491 3.3616714 -1.1673338 -1.1539583 -0.24193044 -2.1998618 -0.4507138 -9.337438 -0.28601754 -0.2715836 6.9892297 1.1152327 -7.080812 -0.61406106 0.3606754 -3.3941374 -3.6224074 -2.076078 -0.5929054 3.8041825 2.0580826 -1.757639 -8.342137 4.319717 -5.6660743 -1.0704781 1.042361 -4.9553876 6.7701306 2.824404 -2.1713936 -5.6832175 -1.5621631 0.9133268 2.5067098 8.1454315 -3.4523091 -1.0867387 3.9848971 0.17964086 3.6939068 -0.14209169 -6.569078 2.140695 5.1646795 3.6171658
1549 1.2720642 -1.7280333 -2.1271734 -2.9835348 8.105057 4.084159 3.8112044 -2.240669 -1.29148 -4.0375385 -6.938914 -4.3742623 -0.10035104 0.68286175 3.3241408 -6.4540257 0.9741266 -4.4777822 -3.64835 3.6091845 -3.6544807 3.4283063 4.104978 1.762057 7.369152 2.8680706 -1.9020015 3.4633667 -4.0728436 -2.064342 1.7932066 3.5164 0.64832646 -0.3350168 1.4001944 0.47976884 -0.34812063 -6.162467 -0.8117414 1.0182692 -3.1711557 -1.498808 0.36525506 4.6581464 -0.9908675 0.87627196 -1.1602407 -1.4142443 -1.3981837 -4.2087255 -2.6914387 2.5189195 1.1571097 -1.2966014 -2.6644747 1.1022168 -1.1104271 0.40994525 2.9476163 -2.0192695 3.9889896 1.6378813 3.516315 -1.3772823
1740 0.4716284 -2.1972299 -5.7708735 -1.9790599 3.9315345 -0.97249913 2.6180184 2.0889132 -0.83686036 1.6584898 -0.09594543 -1.6441275 2.688202 2.684349 1.2499812 4.1502547 6.717024 0.9222935 -0.1429362 -1.849279 1.3317317 -1.9500437 9.176865 -0.08225802 -5.069045 5.976579 -1.6719865 1.6125168 -2.6984081 3.3808525 1.7962017 0.66455466 -2.6853752 2.2385216 0.69375026 3.1365652 1.4261572 -0.27116814 -5.0496063 0.5940082 -5.2740855 7.209265 4.439385 -0.05403702 -8.846389 -4.0403647 -0.67001885 3.4657044 0.23279639 -3.1044314 5.8002257 1.140283 0.97068894 1.9449881 2.2980978 2.5134048 -3.5710626 -0.9267711 -0.909312 0.4907854 -5.4552383 2.062232 -2.350612 6.3531294
1612 -2.6789744 -0.0049101436 7.187935 1.8495322 -4.511961 -3.054502 0.2222834 -0.78226066 -3.5704925 2.5355062 -3.1515727 -1.6561129 5.0918946 -0.84682536 5.6197805 0.6071331 6.601619 -4.6353474 0.88705987 2.1869035 0.45825854 -3.4963226 -2.1791525 -0.0633211 2.4610631 5.7321305 -1.597284 -2.9852307 3.3222764 -3.3250308 -2.5743217 2.0738535 -3.7636583 -6.688083 -2.9664538 -0.9746312 2.6530771 1.2893093 -0.83339536 -2.3867333 -2.3679488 -1.890151 -0.8123035 -0.9234037 5.9555755 -1.2484027 -0.43172276 3.1832137 5.433204 -3.1300433 1.9092034 4.8369107 -3.9799669 1.8147162 -2.0686667 1.3155506 -1.3388289 8.270616 -1.8784082 -3.2234457 0.11504899 -5.1593637 -1.160604 6.718703
25 -0.84911144 -2.7547922 -1.1473097 -2.002176 0.7095289 2.4028854 -9.176619 6.268074 -2.595571 -0.22686969 7.366534 -5.51049 -5.5542655 -3.9327447 -3.6735377 0.0794922 -2.9981153 5.623246 -1.1019198 -3.6914964 1.3127247 1.0907832 -0.47519922 3.256823 -1.6392736 -1.6277237 2.1176674 -0.46174362 1.7423581 -1.7052671 3.259693 -0.24789706 -8.14044 -3.984217 2.275245 -5.856051 -1.3910683 -1.0612582 3.5313077 1.6429873 -1.2314357 0.94732255 0.68971205 -5.4854693 4.952488 0.031372104 -0.08433572 1.3898627 0.913774 1.6123186 5.1932416 1.4205463 0.9525874 -5.330795 3.9345698 2.6497269 -3.3964353 4.1413903 -3.170203 -2.4426188 -5.519091 0.8474835 1.2671157 3.9030092
1602 -1.7698553 -1.8224894 7.417407 3.550835 -2.926551 0.77044433 -1.5471016 -0.6313545 -3.8021262 3.7287056 -4.3391833 -5.2187967 0.07031432 1.986562 3.1685936 -1.9256198 3.6116195 1.2916294 -0.13244238 -3.180147 -0.5258437 -7.260058 -2.028371 -2.308058 -0.01102421 9.619953 0.74782425 -2.374252 -0.9571381 -4.439764 -0.3018038 0.06522052 -4.5561957 -2.5037994 -5.058194 -3.1826777 -2.0425224 1.9229327 0.060316514 -0.20546569 -3.2455838 -4.754237 -4.9452252 -1.283021 6.887923 -0.35918698 -5.100252 0.19109885 3.761352 -0.6424715 -0.65143865 -3.310465 -2.0533044 -4.801595 -0.67738295 2.7899344 -4.2097664 3.3016922 -0.8995725 1.1683061 0.38179973 1.1289302 -5.651809 1.1791465
575 -3.585401 -1.0936384 -0.054883186 3.217281 -0.119356856 -2.003402 -2.4032133 1.7225386 -2.561459 1.0040675 -6.573844 3.6166947 -1.5027759 2.25127 3.031371 -3.2605133 0.86970055 0.89314044 -1.1188825 -0.39704823 -1.9390628 -4.3770347 -2.8377502 -1.3265214 0.320625 6.8660464 -3.2395396 -1.8147781 -0.8127364 -6.61054 -2.459437 3.3555734 -2.5788598 -3.9546664 -5.0281825 -1.3321847 1.1572819 -4.143487 -3.5876215 -0.6692915 6.289906 1.5223708 1.7035116 2.76141 1.482358 0.41155314 -6.2737474 5.1822057 -2.6644733 5.48393 -0.6659743 1.3588998 1.4784433 -2.6965318 -1.3501778 3.1476789 -3.4346669 1.1363808 -1.8060898 -2.905387 2.7081726 0.29796967 -8.665396 2.030415
1570 5.5670695 -0.25195798 2.3740456 1.627385 3.74647 2.5358863 1.7701515 -0.277349 -3.0125046 -0.6990365 0.6906508 0.37874433 -4.795103 1.5446635 4.319566 -0.6035144 -0.669678 -7.5950675 -3.0963416 0.49962318 -2.3254168 4.5996776 -4.2648997 -4.4926205 6.181611 3.8354385 1.401131 5.513208 -7.120351 0.23274755 -0.80938524 -0.29921708 -1.6499867 3.6351683 2.3913548 0.07449115 -1.8101336 -5.2975283 -0.08435205 -1.1171255 0.8474352 2.6684642 -1.2003286 -0.41565287 2.5113437 2.8286011 -0.06141687 2.3345542 -2.7518926 -1.3144096 0.7804516 0.13087259 0.9034531 -0.9906927 -0.56063 0.6756418 -5.688072 -4.3883047 -0.077461064 -0.080226995 -4.101031 8.346295 4.3659143 -1.3827314
206 -1.7456268 -2.5515366 2.5615325 -3.526905 -0.02166824 -5.755192 -6.599581 -3.4068017 3.3694866 -1.6400492 0.5657147 6.7146916 -0.5957879 -2.134652 0.22330023 -6.3354454 -2.859872 -2.771748 8.479782 -3.2571073 2.7001934 1.1326362 2.265282 4.8943086 1.0271024 3.0293288 -1.5048039 -4.6258855 -2.2296674 5.0266657 1.8740739 -3.4636357 3.9096518 3.0418131 -1.9322785 -3.5094917 -5.194789 -4.8327127 -4.968885 -1.9182767 -0.5372321 -4.9902005 3.6894937 -0.2018491 -5.531776 1.723223 5.5942354 -1.4436114 -1.9844863 0.28821743 1.8395687 -1.5179626 0.49275663 -3.2092211 -0.0439361 1.6661291 2.3158627 2.2813156 -3.404567 3.0757241 -3.2606363 -0.6136797 -0.23120277 0.23721546
585 0.17100237 -1.3366243 2.344301 4.9639797 1.8850291 1.2612566 5.0868077 -3.485669 2.075955 0.12241328 1.2915347 -0.25820297 0.37495413 -0.16360343 -3.2562132 -3.1824708 -4.838323 -3.9275138 -1.6340204 5.4676747 0.67436916 6.2067575 -5.062709 1.812727 1.6348183 4.4126534 -0.041758183 -1.1672274 -2.990808 -1.5388477 2.2708771 -0.4595408 3.6983747 1.3923603 5.7151446 1.8543212 2.9153244 -3.501551 0.6071034 2.554739 -0.20721558 0.656519 0.9971195 1.82512 1.0828797 -2.53802 -2.82792 -5.167082 6.5412755 5.8176703 -2.6616676 2.458132 4.791794 -3.522722 7.2759748 -0.8361485 1.5872005 -5.764431 0.11002766 -0.3078219 2.2150338 0.744915 -1.131848 -8.979209
1516 2.5719724 1.444511 0.28208056 -0.5027449 1.7618831 -6.2102613 -0.893724 -3.7309198 -1.4144037 -3.2676551 2.0200384 0.43300843 -0.090344615 -2.159378 2.5355134 -5.4712543 0.874664 -5.406852 1.4534699 -6.55351 -0.7253366 -0.03599665 7.3775907 -0.9334663 -1.3968632 -1.3599275 2.1977942 -5.219223 -0.8502838 4.5441046 5.349847 5.1216774 7.270074 1.4950801 -2.6791887 2.0413108 1.6130695 -1.370151 -3.5891285 -3.643534 1.6280805 -1.1719646 -2.9105494 -1.2574472 2.8836687 2.6365244 4.781146 -1.2589626 -1.1533387 0.44288057 2.1285565 -0.7229065 -5.2632284 0.660065 3.9685016 -2.069433 -1.2935175 -0.43904823 -2.935678 7.1962686 -6.293521 -0.22985753 -3.1350534 -3.4052389
515 0.8186052 -0.8559036 -0.70400685 -1.9295312 -0.08565592 1.232287 -7.7552557 1.899781 -0.4786509 1.3440938 2.2831023 -7.72959 -4.4956822 0.6069353 -1.5031359 4.3744493 0.730107 4.146733 2.408889 -1.0505246 4.4810905 6.156641 4.0008087 -4.0417767 2.4033854 2.531278e-05 0.6763394 -2.609615 6.635577 -1.1312164 -3.9837947 -3.555046 -1.4181223 -0.49436378 1.8440377 0.7076231 -0.42505118 -1.6321042 4.522495 5.556187 8.92354 -0.022111753 -2.560743 -7.604983 4.155944 -0.27611506 0.8246493 0.44863927 -1.662459 3.1409051 2.0886495 -2.006893 4.723811 -4.263787 2.5849252 1.2147354 -0.7553336 0.38468778 0.7098439 4.5408225 2.1199286 0.12549685 3.7313955 3.4591973
625 10.588726 -4.3671656 -0.11100839 -0.6628372 3.0251994 -0.080301456 0.67135763 -3.7369502 0.46280974 1.4169321 -3.0020502 -2.1001132 -2.9647107 -1.4502413 -2.2637227 -0.3637585 7.299461 -3.9026651 -0.85888165 1.9135073 -4.4907985 -0.57643366 -4.4547815 -0.5566194 9.3188715 3.7580638 2.451502 1.1305104 -3.2366738 -3.3531811 -2.113496 -4.552925 -2.6695912 1.5225983 4.218173 -0.3395178 1.6984724 -2.335324 4.5794115 2.2672672 0.5457708 0.6462906 -0.75086117 6.7029834 -1.102359 3.8767283 2.3037033 -0.27934912 4.7201924 0.736592 -1.6214302 2.301978 -1.5018269 3.873685 -0.5600054 0.27861276 -3.4107766 -0.158922 -2.3698685 1.4351486 0.04677546 2.6850429 4.4348364 -3.5036645
929 -4.024541 2.0149927 1.7715796 1.6682965 -3.3140934 -2.7801037 -1.8800088 5.14648 -3.5105302 1.3387591 -5.786108 -0.42881915 -1.6032126 1.5943913 0.9407398 -2.1031277 7.8759136 -0.21425363 0.32201135 1.1392161 3.1162922 -5.1525517 -7.4064755 -0.6125726 2.0723372 3.850432 -3.8216693 1.2413483 -2.0689554 -1.2867546 -1.1681474 -2.2192466 0.30451763 0.07551617 -0.836228 4.633481 -0.14791486 0.076191545 -3.8016338 -2.5454524 2.1125276 -1.0005862 1.2112327 -3.6746223 3.8780596 3.9627318 -0.36430544 -0.25012144 1.129299 2.7303698 -1.9647919 3.8502324 -7.759983 -0.9927455 0.3989787 -2.5815394 -2.9788182 0.27763024 5.300178 -1.3592646 2.6527603 -6.209571 -4.485003 -0.48877934
890 -1.0483505 -1.2771628 1.2698147 -3.45614 1.2452576 -6.2776046 1.0854664 -5.4620237 3.5513687 -1.4281707 4.417223 -0.47784975 2.467471 -3.885453 -2.2261453 -4.34245 -4.3298736 -1.7419211 2.7009103 -0.8795053 0.9844038 3.4832175 -1.2936931 5.501035 -3.8578904 -3.244756 3.7487118 -1.3879441 -0.9712018 -1.0807985 1.8700174 0.656048 5.3556204 5.8943157 -8.101175 5.0287013 0.25330144 -4.2198586 2.629393 2.298944 4.777672 -1.580799 0.4412154 -1.7184029 -1.9408574 -0.36467803 3.2003558 -2.3070054 -4.6361566 -4.1649613 -1.9601153 0.88413984 -5.8588324 -1.3312087 0.69794315 1.0132551 -3.875191 2.7218425 -0.020436946 0.24200812 -1.6718364 -1.1808424 -5.178162 -0.75714445
1163 -0.27633098 1.0546304 3.4465525 4.142249 3.7503874 -4.564248 0.7684739 -2.5319765 -4.4062076 0.77674705 -4.5173655 -1.6468809 -0.9132912 4.044274 -0.036315177 3.195779 -5.576291 3.1121438 -0.29904664 -0.7082186 4.232138 -0.5396738 -0.5066956 2.6686866 3.0392349 -7.0668674 -2.1507497 0.25139207 4.825715 -3.1702137 0.8236725 -0.06650147 1.5064541 2.1472344 -1.1611086 -1.1840069 2.1726937 3.0539849 -0.8217284 -2.1436749 2.842899 -2.0003393 7.0465293 -0.025958957 0.30748764 -3.4229496 1.7113094 6.4253054 0.7807779 -3.0113473 -1.2793441 -0.9105278 -4.7083993 4.018132 -6.396568 -6.1678977 5.207359 -0.32007957 5.306266 0.8429229 -0.55279505 3.8790305 -0.06336323 -2.8738039
1275 -4.8716817 1.5862244 -1.7191515 4.3940325 -0.22031574 0.6622306 0.42660183 -1.9521221 0.7155564 0.18765305 -0.08127286 0.13779098 -3.6228104 2.1007698 -4.0023694 -0.35883978 1.8957719 2.2176085 -5.119732 1.2353824 7.2858634 2.4965663 -2.9999669 -0.9755982 7.0478954 -8.262731 -1.8857762 -0.4395931 2.6375337 -1.4544834 -1.8546538 3.8770163 1.3498198 5.146139 -1.8519168 -1.9133456 5.7277384 0.7053671 -4.005494 -1.9861686 0.749646 0.69955933 3.0112474 2.4627416 -0.88743126 -8.569129 8.550628 1.2619231 4.5778813 -0.9894547 -2.7382112 3.9071956 1.3131584 2.302319 -2.5016165 -2.509882 0.36457184 -5.4027576 2.3772018 4.7915444 -2.9874258 -1.2617285 1.5227847 -0.62492764
889 2.7045698 0.88307995 2.5443356 -4.7305126 -3.6014428 -0.018264178 -3.2891028 3.5454652 3.1050146 1.2042652 1.5558856 3.7316 3.4459305 -2.7157717 -3.4026554 1.0856614 -0.60947835 6.002067 -3.6550932 -0.7823436 0.6602586 -0.85594654 -0.6477848 5.413924 -1.7476646 2.0540721 -1.1272908 -4.025988 -1.9841515 7.454514 2.9299145 0.5048131 -1.6564955 0.28006783 1.9297577 -3.8968635 5.4336853 -1.4889492 -6.897726 0.81951153 1.0593592 -0.08951709 -1.5834372 -1.782877 1.1876373 6.494204 2.352873 3.0129435 4.5329175 2.6815464 -0.5973491 -2.3420873 -3.4640179 0.004997192 -3.0397031 -2.218954 1.5751538 0.8090514 0.38666713 -0.38210744 -4.8277454 5.1639767 4.8359413 -3.990614
947 -1.2039678 -0.6040791 -1.1367766 -3.0101848 0.6157923 0.55327886 -3.787536 -1.7203728 0.32351068 2.134008 -4.1164365 -8.659683 -6.6114616 0.2899464 1.6790497 3.2116537 -4.8567567 2.7854266 3.987543 -3.4287353 -0.6873851 0.9045962 0.77172226 5.849312 2.6845443 1.9636298 0.4760722 -1.595402 3.5041468 -2.961206 -0.45974666 -2.7648208 -7.2397494 -0.95952994 -2.4831378 -1.1822937 4.521619 2.8350284 5.6767416 4.0647926 -3.2769153 -2.825208 -6.542941 -1.2095289 1.8001418 -0.40632486 -3.20492 -2.1588671 0.41434407 1.427717 0.881117 -6.3148403 4.006611 -2.5026815 6.8951917 -0.2845095 -1.0491478 0.2885268 3.0270867 1.987485 -4.013374 -2.7553325 0.9350898 1.4898133
1559 4.594818 1.4208052 -1.4780939 -3.6496983 -0.024348585 5.6281505 3.179036 -1.4847956 -6.8444047 3.8605537 -6.0369678 -0.047265943 -1.5249509 1.4861217 -1.3691852 -4.269919 2.5897725 -6.904276 0.7634041 -3.3999548 -5.5001693 0.8119701 -6.7963805 -0.053573735 5.6395054 3.0035899 -0.92793787 -2.503583 -7.0828595 -0.3960102 -4.1695514 2.5994163 -3.003596 4.3697457 -0.20304562 3.2124321 1.7104393 -4.0144935 3.645156 -2.0544097 -3.8136759 2.052085 -0.024252415 2.0517228 3.733745 -1.2304755 -1.360427 3.522005 1.7254826 -5.518927 -1.7090333 1.9424592 -0.13593856 -6.2597275 -0.8080472 0.97319865 -4.829344 -3.6628807 -2.74851 0.29033563 1.6490126 0.06141071 2.1426153 -3.0201063
415 -1.7818077 3.5084789 2.7884479 4.166015 -4.491992 -3.2218237 0.34405166 1.5005019 -3.4132025 1.9085295 -6.835698 1.6134496 4.0445433 -1.2351695 5.863217 3.3604648 0.055350862 4.52246 -2.7561996 1.8199666 1.5523375 -0.5492726 2.1828523 -2.0124388 -2.3283215 9.113563 -1.8118339 -2.2242548 -2.7508986 -4.638096 -4.58835 0.88164634 1.1027225 -5.79867 -2.0913756 3.6325238 3.2022939 -0.04081966 -2.5731916 0.011767349 3.541245 -0.5561676 3.2345946 1.3720151 2.7920172 -1.2656484 0.736853 4.134196 2.1326225 -1.4886197 -0.5302949 -0.99605286 -4.4433384 -2.6005008 4.217285 -1.259104 -7.814788 1.3391623 2.7655165 -6.1430287 -1.1137689 -3.5602174 -3.0814536 0.45214316
1284 2.1969116 6.057701 0.9645352 3.7627494 3.2557776 -3.487049 4.2395115 2.3872945 3.9719872 -2.8073947 1.0833966 -3.3417614 0.27060792 5.642276 0.14920634 1.4949532 -4.1531224 5.332551 -0.52753687 2.427975 4.0270967 1.3934146 -3.2748675 -1.7346858 6.2721252 -7.594337 -2.4977164 0.9521207 1.6491607 3.332154 1.9819508 2.5377383 0.0012855219 0.38854465 -1.7950932 0.07810531 1.7697542 4.8287096 -4.741461 -2.5552042 -2.2897935 -4.1695204 0.42297623 6.002839 -1.7619712 -4.9900756 7.4413843 0.7748392 0.5148832 5.3733907 -3.1657388 1.0366201 -0.33677146 4.7631903 -2.2598758 -1.2944424 4.3539834 -0.5078782 -0.2073113 1.5981143 1.2067151 -2.4227746 -2.1979797 -0.6814704
1355 5.4519634 1.4361794 -0.25489718 3.557301 3.1155558 2.5671468 4.1366267 2.1973999 3.083414 1.3940284 -0.6034543 0.6724466 -3.4671967 -0.4929946 0.5061382 -4.2915483 3.6291437 -3.22467 0.74067587 3.8036232 -3.3055813 -1.9202895 0.013397807 -2.812517 6.389927 -3.2513058 0.8206358 3.6680243 -10.270079 -0.81987524 -2.744599 5.6322017 -1.4564706 2.6777685 2.219235 -1.6620673 -0.24181707 -5.3641214 3.3357232 3.9514396 -1.0497981 -0.48533365 2.3901298 2.3762372 0.8924784 3.2637777 2.6533525 1.9371718 -3.7112415 -0.72139704 2.1694303 -0.3338677 -0.80141 -0.85555804 -1.778772 3.4550936 -5.5124087 2.3545742 1.7671883 -1.8701675 3.9271169 6.758379 0.22463427 -2.1026485
402 -5.778851 -1.528072 -2.3427505 4.933288 -3.0387309 -5.293157 1.6253285 2.4105215 -3.2320218 -5.8509426 3.4834542 3.8512766 0.49834672 -0.5455462 -2.1402755 -0.21741566 1.3011943 -5.8614125 9.446051 1.9730294 -4.6531954 1.6689754 0.8291183 3.2488701 3.1687891 2.0982568 3.5337603 0.012003462 3.0406551 0.7160909 0.564872 -1.5154707 6.716591 -4.459868 -4.68544 1.0348463 0.3193863 2.3097928 1.9513367 2.6272404 -6.7371974 4.8352175 -2.5211873 -1.2861063 0.35152984 -1.2696582 -1.026475 -0.5135719 -5.3784018 -1.9998357 -5.5712543 1.0642028 -1.6772523 2.246911 2.2588592 -1.2479885 -1.8942516 4.5972166 1.4046155 -4.3326507 -3.3993797 -1.4489127 6.633559 2.7336555
282 8.227264 4.3739414 0.883733 -2.954855 6.602242 -1.6731569 3.6740887 -1.610866 -5.891642 3.7763119 -4.172686 1.6561415 -3.5301828 1.8056462 0.8657707 -3.0455112 2.297142 -3.4824324 -0.14879133 -0.36665088 -7.533039 4.932982 -5.507138 -0.4072545 4.122675 4.954773 -1.7156636 4.145398 -3.6687243 -8.115907 2.153449 1.4393526 0.08268283 -0.5537489 1.015768 4.997032 -2.4988034 -4.0513434 1.8868128 -2.549522 -1.1866913 1.2379237 0.8820635 0.8783152 7.2513595 3.998 2.2513885 3.064254 2.9369328 -1.4840516 6.399316 -2.3783834 2.6961973 -0.4856861 1.3569102 1.2430274 -1.738234 0.4321411 -1.239525 -2.287036 1.7105248 1.4815164 2.8437893 1.9792002
251 0.8060749 -0.9884363 8.800142 5.244143 2.070969 1.8386221 3.9081311 -5.658778 4.5164127 1.5036769 -5.104301 -2.6543093 0.10952073 -1.9824817 -2.0133045 1.2906873 -5.3094525 0.25081328 2.9069133 6.6129913 4.133537 -0.3218865 0.27101767 2.2918005 0.1905713 2.7631426 -2.4895554 -2.9543564 1.3282845 1.8449988 1.119538 1.531614 4.180429 0.2581884 3.8087807 2.4945276 3.6793044 -4.7163734 -6.511022 -2.963695 2.467518 3.4508374 -2.2965436 -1.587651 1.4848971 -4.0637383 -2.3859215 -3.222446 5.7904987 1.715879 0.7508532 1.1409765 4.8501425 0.88825387 4.1652102 -2.3482406 -0.3976907 -2.7236958 -0.2512365 0.008306405 4.8735433 -1.2618338 -4.325865 -4.5612326
795 2.380709 4.1682076 2.3893094 0.5848291 2.447147 3.2561336 -6.5497375 1.1518539 -4.188029 1.7499741 -1.0482432 -7.29922 -6.74959 -2.5251558 1.859102 -0.6221654 0.29139033 8.446551 3.5149698 -4.993712 2.2044656 1.4569799 4.6173215 2.6959677 -3.9672124 -3.073432 2.1064084 -1.3516483 1.6213816 -0.883154 1.1480737 -1.6169077 -5.6487637 3.3650002 3.8032036 -0.5661848 -1.5832549 2.0282738 1.7554617 6.4734607 1.3271528 -1.481633 -2.4385157 -1.8131061 -1.0800475 -3.8674562 2.2358994 -0.2727598 -1.9683437 2.1596837 4.296788 1.560028 -0.73204005 -0.5037826 6.1354866 2.982645 3.4278753 -1.2928715 -2.3136735 -2.7831664 3.072284 -6.274321 3.3366442 -0.10680464
1057 -0.2268052 1.7830093 -0.8096132 2.981345 1.3561306 8.616636 3.2925105 -0.11623068 -0.92197764 -3.2253003 -3.7085874 0.97097987 1.3788592 6.9003725 -3.8735518 0.5598976 -3.1815689 2.2730458 -3.3648152 -1.2222463 4.0539546 -1.7418718 -0.71707964 -1.7118518 3.3246026 -7.0480294 2.3100443 -1.5586476 0.37424925 -0.041677658 2.8617833 -0.09436917 -2.3720312 2.3497694 -3.724948 1.4386295 2.1011622 3.1031995 4.313588 -3.0249894 1.1431311 3.617458 0.14477417 -1.2882589 1.1342996 4.6208906 6.026891 3.21287 2.3912594 -2.12963 -2.114576 -1.9181938 0.43894833 5.6878786 -5.508128 -1.0678717 0.8589665 0.00080837106 -0.8695903 1.7776935 0.9924754 4.51205 -5.0626903 -1.715247
1751 -1.2920161 -1.3559304 -3.2886586 5.331913 0.34991768 0.25969973 -0.5053053 2.092635 -3.358233 -4.4322057 3.5534365 -4.3150797 -1.2898755 5.1148186 -0.17083661 -1.9241897 -1.9927053 1.9547648 -5.221144 1.8881829 2.6163118 3.25017 2.6649215 0.83574075 4.901577 -3.8591866 0.6251325 0.7748782 1.0417887 -0.34698778 -2.1003878 0.45689172 -0.6901539 1.6174634 -3.699796 -1.0283986 1.3664178 3.992041 -2.5118823 -3.5427988 -0.4589047 0.5990411 6.088374 1.7060788 1.3153801 -1.379856 9.277959 1.3292845 5.9191685 1.7689621 -3.4797928 1.8086298 1.3672935 3.6615212 -2.7388034 0.7913575 6.367361 3.93749 -0.30321437 2.0734384 2.8968043 0.75700104 -0.81209296 -1.1212077
256 0.6970134 4.949671 4.946889 -1.193131 0.7217285 4.0101776 -4.2646046 1.6195508 -4.697766 7.3618097 -2.8308258 -3.3922484 -1.9388715 2.6319783 3.0946505 -0.77793646 4.905945 -4.1031384 -2.105672 0.6948934 2.3918009 -8.089596 -5.6094875 -2.0020185 2.8757005 0.7807537 -2.7822194 0.35440677 1.4160287 0.5623778 -1.304604 -0.26284602 -1.4222952 0.57541746 -3.8758478 1.1962742 2.0577118 -4.6087103 -2.1582093 -3.391026 5.1810184 -3.0737205 0.7939658 4.239511 0.11917801 -5.3580785 -0.51444435 -7.1874075 -1.5172755 -4.711989 1.5868433 1.0384679 -3.5086293 -4.4117794 2.1431682 -4.357778 -2.8311381 -1.1949391 -5.967665 -6.437503 3.8859167 0.69141215 -2.4411907 3.2830768
1716 -1.4266875 -2.3862765 2.9569733 -1.9429399 -5.931145 3.4231834 3.642103 4.1164947 -4.369995 4.9299912 -0.35104433 1.368107 3.1438944 2.2527208 0.100575306 1.0876536 1.4653665 -0.593531 3.830063 4.0953865 2.7729328 -7.676591 -1.0557526 2.44822 3.3052213 0.6986918 2.2316096 -0.22430491 0.2080143 -0.6276526 -1.368706 2.9090834 -0.81556964 -1.5660347 -4.6057696 1.7104182 -0.5933406 -0.6307176 -2.763724 1.776283 2.403857 -0.620077 -0.17948991 0.92841977 2.4455419 -3.5723846 -2.946534 0.33393702 1.6534054 -1.2419435 3.3300478 2.8131 -5.7416825 -7.3919306 0.5126349 -3.860238 -0.84560424 0.30679572 0.4966917 -6.0707946 4.038326 0.004689517 -7.013823 8.591287
828 -2.2197633 1.3480735 2.841392 3.7844915 3.7782907 2.46514 2.320982 5.8401017 -4.169317 -3.4835942 2.1593854 2.2385235 -0.7578024 3.7144916 -0.7236585 0.9214162 -2.622904 7.2880354 -4.8265314 4.4520464 0.29369265 -0.3048255 -0.2719022 -1.0516171 3.7652016 -5.9718275 -0.30799872 1.9153692 2.933791 7.15339 4.449058 0.4288709 0.24614252 0.6882681 -2.7892463 -0.13008192 -0.70190275 1.2593118 1.2732686 2.0753999 2.8705337 -0.67490107 7.387472 1.910457 -2.5003762 -2.7812724 5.171407 4.0858836 0.77360207 4.054339 2.4693804 -0.18897511 -1.654011 2.4361486 -4.1310663 0.6163165 0.99537194 0.34065893 1.355179 1.9225764 -1.3467454 4.122337 0.19642545 -2.6595466
22 3.7091174 3.2251463 2.7829611 5.844524 0.44728333 1.162244 -0.17360888 1.7653136 -4.957619 -6.366161 -2.9321146 0.29245132 -0.91809857 4.6144934 -5.097375 -0.87521833 -5.293735 5.4130354 -2.0736594 -0.14027597 -0.602624 2.8763368 1.5101112 -2.6532376 0.86885405 -8.1923 -0.5759786 -1.572723 2.63406 0.80580246 1.6547071 2.3356824 0.14837624 3.0375776 -3.035252 0.75325215 0.99424696 3.1213086 -1.9040647 -1.8639891 -3.3277545 -3.025935 2.9558585 0.40370154 -3.0709589 -5.252546 1.7642902 -0.7060168 5.9298415 2.693602 4.0621357 -0.25495765 -0.30277058 1.526169 -3.774074 -2.7171767 1.9773461 1.9709154 -3.3634844 2.646462 1.2735683 7.88479 0.09572191 1.5519437
961 1.1608843 -0.90668315 2.7968895 2.7705195 5.3376923 -0.09230162 -4.564349 1.402825 -0.54765826 -1.1136842 0.77254367 -6.424805 -6.5162125 2.1959136 0.07324157 0.7083915 -4.2184 4.307802 4.0129623 -4.090571 0.65748 -5.3673186 2.376327 -2.9742901 0.3017259 -1.0713081 0.86830795 7.0916743 -1.0428027 -0.5802676 0.40593183 -4.83229 3.8781452 1.6551079 7.7983165 0.18227655 3.0956504 2.5407326 4.7145624 4.90567 -4.9072695 3.5863097 -6.485104 -7.5971923 2.084936 -1.4695756 0.8459953 0.9596302 4.332162 0.11125626 0.8700222 -3.1322565 -3.9942324 -2.5587573 3.2025616 2.5495458 -3.6018803 -3.8559527 -2.8059855 2.0749164 2.7291744 -5.0232596 1.4195524 0.5856578
